{"learner":{"attributes":{"scikit_learn":"{\"_estimator_type\": \"classifier\"}"},"feature_names":[],"feature_types":[],"gradient_booster":{"model":{"cats":{"enc":[],"feature_segments":[],"sorted_idx":[]},"gbtree_model_param":{"num_parallel_tree":"1","num_trees":"500"},"iteration_indptr":[0,1,2,3,4,5,6,7,8,9,10,11,12,13,14,15,16,17,18,19,20,21,22,23,24,25,26,27,28,29,30,31,32,33,34,35,36,37,38,39,40,41,42,43,44,45,46,47,48,49,50,51,52,53,54,55,56,57,58,59,60,61,62,63,64,65,66,67,68,69,70,71,72,73,74,75,76,77,78,79,80,81,82,83,84,85,86,87,88,89,90,91,92,93,94,95,96,97,98,99,100,101,102,103,104,105,106,107,108,109,110,111,112,113,114,115,116,117,118,119,120,121,122,123,124,125,126,127,128,129,130,131,132,133,134,135,136,137,138,139,140,141,142,143,144,145,146,147,148,149,150,151,152,153,154,155,156,157,158,159,160,161,162,163,164,165,166,167,168,169,170,171,172,173,174,175,176,177,178,179,180,181,182,183,184,185,186,187,188,189,190,191,192,193,194,195,196,197,198,199,200,201,202,203,204,205,206,207,208,209,210,211,212,213,214,215,216,217,218,219,220,221,222,223,224,225,226,227,228,229,230,231,232,233,234,235,236,237,238,239,240,241,242,243,244,245,246,247,248,249,250,251,252,253,254,255,256,257,258,259,260,261,262,263,264,265,266,267,268,269,270,271,272,273,274,275,276,277,278,279,280,281,282,283,284,285,286,287,288,289,290,291,292,293,294,295,296,297,298,299,300,301,302,303,304,305,306,307,308,309,310,311,312,313,314,315,316,317,318,319,320,321,322,323,324,325,326,327,328,329,330,331,332,333,334,335,336,337,338,339,340,341,342,343,344,345,346,347,348,349,350,351,352,353,354,355,356,357,358,359,360,361,362,363,364,365,366,367,368,369,370,371,372,373,374,375,376,377,378,379,380,381,382,383,384,385,386,387,388,389,390,391,392,393,394,395,396,397,398,399,400,401,402,403,404,405,406,407,408,409,410,411,412,413,414,415,416,417,418,419,420,421,422,423,424,425,426,427,428,429,430,431,432,433,434,435,436,437,438,439,440,441,442,443,444,445,446,447,448,449,450,451,452,453,454,455,456,457,458,459,460,461,462,463,464,465,466,467,468,469,470,471,472,473,474,475,476,477,478,479,480,481,482,483,484,485,486,487,488,489,490,491,492,493,494,495,496,497,498,499,500],"tree_info":[0,0,0,0,0,0,0,0,0,0,0,0,0,0,0,0,0,0,0,0,0,0,0,0,0,0,0,0,0,0,0,0,0,0,0,0,0,0,0,0,0,0,0,0,0,0,0,0,0,0,0,0,0,0,0,0,0,0,0,0,0,0,0,0,0,0,0,0,0,0,0,0,0,0,0,0,0,0,0,0,0,0,0,0,0,0,0,0,0,0,0,0,0,0,0,0,0,0,0,0,0,0,0,0,0,0,0,0,0,0,0,0,0,0,0,0,0,0,0,0,0,0,0,0,0,0,0,0,0,0,0,0,0,0,0,0,0,0,0,0,0,0,0,0,0,0,0,0,0,0,0,0,0,0,0,0,0,0,0,0,0,0,0,0,0,0,0,0,0,0,0,0,0,0,0,0,0,0,0,0,0,0,0,0,0,0,0,0,0,0,0,0,0,0,0,0,0,0,0,0,0,0,0,0,0,0,0,0,0,0,0,0,0,0,0,0,0,0,0,0,0,0,0,0,0,0,0,0,0,0,0,0,0,0,0,0,0,0,0,0,0,0,0,0,0,0,0,0,0,0,0,0,0,0,0,0,0,0,0,0,0,0,0,0,0,0,0,0,0,0,0,0,0,0,0,0,0,0,0,0,0,0,0,0,0,0,0,0,0,0,0,0,0,0,0,0,0,0,0,0,0,0,0,0,0,0,0,0,0,0,0,0,0,0,0,0,0,0,0,0,0,0,0,0,0,0,0,0,0,0,0,0,0,0,0,0,0,0,0,0,0,0,0,0,0,0,0,0,0,0,0,0,0,0,0,0,0,0,0,0,0,0,0,0,0,0,0,0,0,0,0,0,0,0,0,0,0,0,0,0,0,0,0,0,0,0,0,0,0,0,0,0,0,0,0,0,0,0,0,0,0,0,0,0,0,0,0,0,0,0,0,0,0,0,0,0,0,0,0,0,0,0,0,0,0,0,0,0,0,0,0,0,0,0,0,0,0,0,0,0,0,0,0,0,0,0,0,0,0,0,0,0,0,0,0,0,0,0,0,0,0,0,0,0,0,0,0,0,0,0,0,0,0,0,0,0,0,0,0,0,0,0,0,0,0,0,0,0,0,0,0,0,0,0,0,0,0,0,0,0],"trees":[{"base_weights":[-4.15221E-3,-8.2750994E-1,1.0286896E0,-1.4153681E0,-1.0400902E-2,-5.9272237E-2,1.5970463E0,-5.6058407E-1,-1.6548995E0,6.361601E-1,-1.1147032E0,-1.4214965E0,5.4224503E-1,1.6825588E0,3.237789E-1,-1.2550237E0,-9.115554E-2,-1.7905577E0,-1.3506415E0,1.1963426E0,-1.0349097E-1,-4.5534497E-1,-1.5255016E0,-1.8161494E0,-7.876998E-1,-3.4693617E-1,1.1188251E0,1.2573969E0,1.8137316E0,-9.954801E-1,1.0958238E0,-1.662471E0,-7.174795E-1,4.0757146E-1,-8.629427E-1,-1.2652997E0,-1.8348985E0,-1.5573478E0,-6.030245E-1,1.4387098E-1,1.3310848E0,-6.251805E-1,7.241053E-1,-1.3765657E0,2.9514425E-2,-1.6584876E0,-3.4553757E-1,-1.001906E-1,-1.8402869E0,1.1640345E-1,-1.3364702E0,-8.2580656E-1,8.773152E-1,6.418341E-1,1.7679929E0,1.6164036E0,5.9971595E-1,1.516577E0,1.8874637E0,-1.3574758E0,1.2107711E-1,1.3247393E0,-4.9232396E-1,-3.4167077E-2,-1.7202082E-1,-1.3833913E-1,-1.5395765E-2,-4.1828908E-2,7.827266E-2,-1.1238819E-1,8.62344E-2,-1.3841592E-1,3.07456E-2,-1.4574324E-1,-1.868503E-1,-1.1681958E-1,-1.780862E-1,2.9060498E-2,-1.22634016E-1,-5.1920105E-2,1.2776731E-1,-1.2756085E-3,1.4057933E-1,-1.861676E-2,-1.4170396E-1,1.22524895E-1,-1.1015587E-3,-1.5562935E-1,9.5093634E-4,7.602432E-2,-5.4209113E-2,-1.7898686E-1,-8.977889E-2,9.974856E-2,-8.335476E-2,-1.1111112E-1,1.0398606E-1,-7.328697E-2,-1.8887655E-1,9.0434976E-2,-6.329471E-2,9.5635705E-2,-1.4196561E-1,6.2202632E-2,-1.2030933E-1,1.2528889E-1,-8.850004E-2,9.871052E-2,-4.0679082E-2,1.8040831E-1,-6.302678E-2,8.394696E-2,1.7308879E-1,-2.7711082E-2,1.0879686E-1,1.6901825E-1,2.3306606E-2,1.9055267E-1,1.2882495E-1,7.1981415E-2,-1.5410794E-1,-9.630958E-2,9.365134E-2,5.820309E-2,1.8031119E-1,-1.3180278E-1,2.4794307E-2],"categories":[],"categories_nodes":[],"categories_segments":[],"categories_sizes":[],"default_left":[0,0,0,0,0,0,0,0,0,0,0,0,0,0,0,0,0,0,0,0,0,0,0,0,0,0,0,0,0,0,0,0,0,0,0,0,0,0,0,0,0,0,0,0,0,0,0,0,0,0,0,0,0,0,0,0,0,0,0,0,0,0,0,0,0,0,0,0,0,0,0,0,0,0,0,0,0,0,0,0,0,0,0,0,0,0,0,0,0,0,0,0,0,0,0,0,0,0,0,0,0,0,0,0,0,0,0,0,0,0,0,0,0,0,0,0,0,0,0,0,0,0,0,0,0,0,0],"id":0,"left_children":[1,3,5,7,9,11,13,15,17,19,21,23,25,27,29,31,33,35,37,39,41,43,45,47,49,51,53,55,57,59,61,63,65,67,69,71,73,75,77,79,81,83,85,87,89,91,93,95,97,99,101,103,105,107,109,111,113,115,117,119,121,123,125,-1,-1,-1,-1,-1,-1,-1,-1,-1,-1,-1,-1,-1,-1,-1,-1,-1,-1,-1,-1,-1,-1,-1,-1,-1,-1,-1,-1,-1,-1,-1,-1,-1,-1,-1,-1,-1,-1,-1,-1,-1,-1,-1,-1,-1,-1,-1,-1,-1,-1,-1,-1,-1,-1,-1,-1,-1,-1,-1,-1,-1,-1,-1,-1],"loss_changes":[4.8673564E3,1.5297764E3,1.5699861E3,3.7830884E2,9.528728E2,7.1541406E2,1.810332E2,1.3254337E2,5.7277344E1,3.488904E2,1.3279327E2,6.5460754E1,3.1093427E2,8.485889E1,1.0924952E2,3.4738525E1,9.422549E1,2.0903564E1,6.861224E1,6.774512E1,1.5747142E2,8.517656E1,4.700763E1,6.6099854E0,5.194674E1,1.4086066E2,1.12719696E2,8.678528E1,2.3250977E1,1.6221378E1,2.517913E1,6.470825E0,2.699068E1,4.643856E1,4.421264E1,1.5539429E1,8.91333E0,2.853241E1,5.556501E1,4.238171E1,4.2643005E1,7.746896E1,5.1986588E1,1.6393517E1,5.2981285E1,2.5601501E1,2.1788548E1,4.9967227E0,7.29718E0,2.4396004E1,1.37625885E1,9.488887E1,4.591464E1,7.770975E1,1.4567413E1,1.9879517E1,5.716781E1,5.3534912E1,7.8361816E0,1.2582554E1,1.0312386E1,1.9996712E1,5.967536E0,0E0,0E0,0E0,0E0,0E0,0E0,0E0,0E0,0E0,0E0,0E0,0E0,0E0,0E0,0E0,0E0,0E0,0E0,0E0,0E0,0E0,0E0,0E0,0E0,0E0,0E0,0E0,0E0,0E0,0E0,0E0,0E0,0E0,0E0,0E0,0E0,0E0,0E0,0E0,0E0,0E0,0E0,0E0,0E0,0E0,0E0,0E0,0E0,0E0,0E0,0E0,0E0,0E0,0E0,0E0,0E0,0E0,0E0,0E0,0E0,0E0,0E0,0E0,0E0],"parents":[2147483647,0,0,1,1,2,2,3,3,4,4,5,5,6,6,7,7,8,8,9,9,10,10,11,11,12,12,13,13,14,14,15,15,16,16,17,17,18,18,19,19,20,20,21,21,22,22,23,23,24,24,25,25,26,26,27,27,28,28,29,29,30,30,31,31,32,32,33,33,34,34,35,35,36,36,37,37,38,38,39,39,40,40,41,41,42,42,43,43,44,44,45,45,46,46,47,47,48,48,49,49,50,50,51,51,52,52,53,53,54,54,55,55,56,56,57,57,58,58,59,59,60,60,61,61,62,62],"right_children":[2,4,6,8,10,12,14,16,18,20,22,24,26,28,30,32,34,36,38,40,42,44,46,48,50,52,54,56,58,60,62,64,66,68,70,72,74,76,78,80,82,84,86,88,90,92,94,96,98,100,102,104,106,108,110,112,114,116,118,120,122,124,126,-1,-1,-1,-1,-1,-1,-1,-1,-1,-1,-1,-1,-1,-1,-1,-1,-1,-1,-1,-1,-1,-1,-1,-1,-1,-1,-1,-1,-1,-1,-1,-1,-1,-1,-1,-1,-1,-1,-1,-1,-1,-1,-1,-1,-1,-1,-1,-1,-1,-1,-1,-1,-1,-1,-1,-1,-1,-1,-1,-1,-1,-1,-1,-1],"split_conditions":[-2.2866204E-1,-1.7471491E-1,-4.8523572E-1,-7.690321E-1,1.6500887E-1,-3.47661E-1,1.1546935E0,-6.2268746E-1,-4.7278672E-1,-5.962526E-1,-6.45509E-1,2.0158966E-1,-2.0368117E-1,-3.9123476E-1,-3.5026732E-1,3.4944618E-1,1.6500887E-1,-4.5624214E-1,-2.4683766E-1,-2.6020384E-1,-3.075959E-1,-8.2753325E-1,-2.001634E-1,-1.5279874E0,-1.9580314E-1,1.1758978E-1,-1.2017112E-2,-8.82444E-2,-1.7471491E-1,6.3238347E-1,1.8975906E0,-5.0672054E-1,-2.5984776E-1,-2.595904E-1,-2.391137E-1,-1.9960381E-1,-6.983022E-1,-4.544941E-1,-4.0823928E-1,7.600599E-1,-5.6465584E-1,1.8161412E-1,-1.7494845E-1,-2.1579687E-1,2.6836762E-2,4.2459154E-1,-1.7420094E-1,-9.363022E-1,-8.4121853E-1,-4.3505326E-1,-7.743457E-1,-6.810643E-1,-4.080578E-1,7.481888E-1,1.7580248E0,-2.2743684E-1,-1.2382011E-2,4.8038256E-1,1.0470178E0,-1.3018097E0,-3.788937E-1,-1.0421035E-1,2.0396978E-1,-3.4167077E-2,-1.7202082E-1,-1.3833913E-1,-1.5395765E-2,-4.1828908E-2,7.827266E-2,-1.1238819E-1,8.62344E-2,-1.3841592E-1,3.07456E-2,-1.4574324E-1,-1.868503E-1,-1.1681958E-1,-1.780862E-1,2.9060498E-2,-1.22634016E-1,-5.1920105E-2,1.2776731E-1,-1.2756085E-3,1.4057933E-1,-1.861676E-2,-1.4170396E-1,1.22524895E-1,-1.1015587E-3,-1.5562935E-1,9.5093634E-4,7.602432E-2,-5.4209113E-2,-1.7898686E-1,-8.977889E-2,9.974856E-2,-8.335476E-2,-1.1111112E-1,1.0398606E-1,-7.328697E-2,-1.8887655E-1,9.0434976E-2,-6.329471E-2,9.5635705E-2,-1.4196561E-1,6.2202632E-2,-1.2030933E-1,1.2528889E-1,-8.850004E-2,9.871052E-2,-4.0679082E-2,1.8040831E-1,-6.302678E-2,8.394696E-2,1.7308879E-1,-2.7711082E-2,1.0879686E-1,1.6901825E-1,2.3306606E-2,1.9055267E-1,1.2882495E-1,7.1981415E-2,-1.5410794E-1,-9.630958E-2,9.365134E-2,5.820309E-2,1.8031119E-1,-1.3180278E-1,2.4794307E-2],"split_indices":[64,26,26,62,55,73,55,26,26,62,62,22,38,73,73,22,55,35,64,64,70,40,70,37,62,64,64,62,26,26,62,11,64,64,73,73,62,62,15,27,73,62,57,72,20,46,37,20,2,15,59,62,68,62,69,26,26,15,69,33,4,64,31,0,0,0,0,0,0,0,0,0,0,0,0,0,0,0,0,0,0,0,0,0,0,0,0,0,0,0,0,0,0,0,0,0,0,0,0,0,0,0,0,0,0,0,0,0,0,0,0,0,0,0,0,0,0,0,0,0,0,0,0,0,0,0,0],"split_type":[0,0,0,0,0,0,0,0,0,0,0,0,0,0,0,0,0,0,0,0,0,0,0,0,0,0,0,0,0,0,0,0,0,0,0,0,0,0,0,0,0,0,0,0,0,0,0,0,0,0,0,0,0,0,0,0,0,0,0,0,0,0,0,0,0,0,0,0,0,0,0,0,0,0,0,0,0,0,0,0,0,0,0,0,0,0,0,0,0,0,0,0,0,0,0,0,0,0,0,0,0,0,0,0,0,0,0,0,0,0,0,0,0,0,0,0,0,0,0,0,0,0,0,0,0,0,0],"sum_hessian":[5.721619E3,3.183781E3,2.5378381E3,1.8512162E3,1.3325648E3,8.711528E2,1.6666854E3,4.0593842E2,1.4452778E3,8.40741E2,4.9182385E2,2.6642685E2,6.0472595E2,1.5614941E3,1.0519124E2,1.6305411E2,2.428843E2,9.962147E2,4.4906308E2,4.7805988E2,3.6268115E2,1.8960458E2,3.0221927E2,1.630397E2,1.0338714E2,2.3803505E2,3.666909E2,3.706656E2,1.1908286E3,3.872652E1,6.646472E1,9.1560455E1,7.1493645E1,1.4782928E2,9.5055016E1,7.985016E1,9.1636456E2,3.509476E2,9.811547E1,5.4491833E1,4.2356805E2,2.2260367E2,1.4007747E2,6.474728E1,1.248573E2,2.7124365E2,3.0975613E1,2.3330307E0,1.6070667E2,3.9348343E1,6.4038795E1,1.7134018E2,6.669487E1,2.1252325E2,1.5416765E2,2.388354E2,1.3183018E2,2.4102405E2,9.498045E2,2.9082123E1,9.644397E0,5.8236385E1,8.228334E0,4.124546E0,8.743591E1,3.2102882E1,3.9390766E1,4.6140766E1,1.0168852E2,8.287001E1,1.2185004E1,7.435107E1,5.4990926E0,7.8538795E1,8.3782574E2,1.3030501E2,2.2064258E2,4.0535164E1,5.7580307E1,3.4725613E1,1.976622E1,2.2351067E1,4.0121698E2,1.4400261E2,7.860107E1,8.289791E1,5.7179558E1,5.720667E1,7.540608E0,5.465608E1,7.0201225E1,2.3014258E2,4.1101067E1,7.977427E0,2.2998184E1,1.25E0,1.0830308E0,7.4160614E0,1.532906E2,1.9079401E1,2.0268942E1,1.8745463E0,6.2164246E1,3.5285164E1,1.3605501E2,5.5216537E1,1.1478334E1,1.5992491E2,5.2598343E1,1.5212613E2,2.0415154E0,3.1743647E1,2.0709177E2,4.7306828E1,8.452336E1,2.1202858E2,2.8995462E1,9.1989484E2,2.9909708E1,2.1245463E0,2.6957577E1,4.062273E0,5.5821233E0,2.368319E1,3.4553196E1,3.5207577E0,4.707577E0],"tree_param":{"num_deleted":"0","num_feature":"74","num_nodes":"127","size_leaf_vector":"1"}},{"base_weights":[-6.5384204E-3,-8.222659E-1,9.1669124E-1,-1.3314537E0,-1.0423687E-1,-4.48083E-2,1.4808949E0,-6.6229105E-1,-1.5670244E0,4.957425E-1,-1.061453E0,-1.1364185E0,5.0140756E-1,1.5509397E0,3.514088E-1,-1.2504889E0,-8.241794E-2,-1.0507269E0,-1.6577133E0,1.0802267E0,-2.1138099E-1,-1.2531476E0,8.0424416E-1,-1.8882018E-1,-1.4145596E0,-2.8989083E-1,1.0233368E0,1.1687694E0,1.6713854E0,-7.9338896E-1,9.9282724E-1,-4.8151752E-1,-1.5110184E0,-7.3083603E-1,4.635952E-1,-1.4554281E0,-4.9612185E-1,-1.6701151E0,4.0392473E-1,3.8858506E-1,1.2957758E0,7.246099E-1,-6.73046E-1,-6.6743106E-1,-1.5628787E0,1.0468577E0,-1.5365075E-1,4.174294E-1,-1.2646409E0,-4.655086E-1,-1.5534412E0,-8.796316E-1,6.3943654E-1,-2.0501417E-1,1.2774857E0,1.2993144E0,-6.187725E-2,1.6909679E0,1.0626644E-1,4.3483917E-2,-1.2967877E0,3.939761E-1,1.5173883E0,3.148683E-2,-9.566955E-2,1.2625228E-2,-1.5470408E-1,1.9352462E-2,-1.2547861E-1,6.954206E-2,-7.624406E-2,-1.5211819E-1,-2.9396376E-2,1.987932E-2,-1.1742502E-1,-1.3364223E-1,-1.726326E-1,-7.7714644E-2,1.2608242E-1,-1.2767439E-1,7.3226E-2,1.3958114E-1,1.4227065E-2,1.3245365E-1,-2.4398966E-2,-1.1562468E-1,2.0588247E-2,-1.2509863E-1,-1.1315019E-2,-1.630737E-1,1.565528E-2,-2.1688778E-2,1.301954E-1,-7.16704E-2,1.0294129E-1,-1.4277251E-1,8.730842E-2,6.436999E-2,-1.1835839E-1,-6.862724E-2,-1.6203812E-1,5.454871E-2,-1.1702353E-1,-3.9997105E-2,1.15254E-1,-1.1366258E-1,4.144316E-2,1.405377E-1,-6.147292E-2,7.011317E-2,1.4766552E-1,7.3311985E-2,-9.856618E-2,1.3468719E-1,1.7330807E-1,1.6024208E-1,-1.22307494E-1,1.2247437E-1,-7.5952366E-2,-1.7404614E-1,-4.127548E-2,1.1500108E-1,-4.2329505E-2,-1.4210515E-2,1.5865575E-1],"categories":[],"categories_nodes":[],"categories_segments":[],"categories_sizes":[],"default_left":[0,0,0,0,0,0,0,0,0,0,0,0,0,0,0,0,0,0,0,0,0,0,0,0,0,0,0,0,0,0,0,0,0,0,0,0,0,0,0,0,0,0,0,0,0,0,0,0,0,0,0,0,0,0,0,0,0,0,0,0,0,0,0,0,0,0,0,0,0,0,0,0,0,0,0,0,0,0,0,0,0,0,0,0,0,0,0,0,0,0,0,0,0,0,0,0,0,0,0,0,0,0,0,0,0,0,0,0,0,0,0,0,0,0,0,0,0,0,0,0,0,0,0,0,0],"id":1,"left_children":[1,3,5,7,9,11,13,15,17,19,21,23,25,27,29,31,33,35,37,39,41,43,45,47,49,51,53,55,57,59,61,63,65,67,69,71,73,75,77,79,81,83,85,87,89,91,-1,93,95,97,99,101,103,105,107,109,111,113,115,117,119,121,123,-1,-1,-1,-1,-1,-1,-1,-1,-1,-1,-1,-1,-1,-1,-1,-1,-1,-1,-1,-1,-1,-1,-1,-1,-1,-1,-1,-1,-1,-1,-1,-1,-1,-1,-1,-1,-1,-1,-1,-1,-1,-1,-1,-1,-1,-1,-1,-1,-1,-1,-1,-1,-1,-1,-1,-1,-1,-1,-1,-1,-1,-1],"loss_changes":[4.320682E3,1.1134827E3,1.4600203E3,2.798745E2,7.2695544E2,5.945545E2,1.3363818E2,1.5874898E2,5.993799E1,3.218627E2,1.7541931E2,8.737839E1,2.748006E2,7.1545166E1,7.446073E1,4.5578125E1,8.375048E1,4.406642E1,2.9279053E1,6.3037384E1,1.5302126E2,7.92547E1,2.775842E1,5.0495697E1,3.314093E1,1.4576608E2,1.253591E2,6.2086914E1,3.6959473E1,1.5468651E1,1.974155E1,2.2991566E1,1.0349976E1,5.2591324E1,3.7055992E1,8.323853E0,4.061901E1,1.8555908E1,8.565131E0,5.9711483E1,3.724774E1,6.835713E1,1.00854904E2,4.9943848E1,3.3948914E1,1.392445E1,0E0,3.526897E1,1.0959568E1,2.8022686E1,1.1873291E1,6.793879E1,5.562558E1,4.0611504E1,8.124542E1,3.598633E1,2.8608091E1,1.5007568E1,3.386402E1,1.4882047E1,8.254036E0,2.0001825E1,4.1469955E0,0E0,0E0,0E0,0E0,0E0,0E0,0E0,0E0,0E0,0E0,0E0,0E0,0E0,0E0,0E0,0E0,0E0,0E0,0E0,0E0,0E0,0E0,0E0,0E0,0E0,0E0,0E0,0E0,0E0,0E0,0E0,0E0,0E0,0E0,0E0,0E0,0E0,0E0,0E0,0E0,0E0,0E0,0E0,0E0,0E0,0E0,0E0,0E0,0E0,0E0,0E0,0E0,0E0,0E0,0E0,0E0,0E0,0E0,0E0,0E0,0E0,0E0],"parents":[2147483647,0,0,1,1,2,2,3,3,4,4,5,5,6,6,7,7,8,8,9,9,10,10,11,11,12,12,13,13,14,14,15,15,16,16,17,17,18,18,19,19,20,20,21,21,22,22,23,23,24,24,25,25,26,26,27,27,28,28,29,29,30,30,31,31,32,32,33,33,34,34,35,35,36,36,37,37,38,38,39,39,40,40,41,41,42,42,43,43,44,44,45,45,47,47,48,48,49,49,50,50,51,51,52,52,53,53,54,54,55,55,56,56,57,57,58,58,59,59,60,60,61,61,62,62],"right_children":[2,4,6,8,10,12,14,16,18,20,22,24,26,28,30,32,34,36,38,40,42,44,46,48,50,52,54,56,58,60,62,64,66,68,70,72,74,76,78,80,82,84,86,88,90,92,-1,94,96,98,100,102,104,106,108,110,112,114,116,118,120,122,124,-1,-1,-1,-1,-1,-1,-1,-1,-1,-1,-1,-1,-1,-1,-1,-1,-1,-1,-1,-1,-1,-1,-1,-1,-1,-1,-1,-1,-1,-1,-1,-1,-1,-1,-1,-1,-1,-1,-1,-1,-1,-1,-1,-1,-1,-1,-1,-1,-1,-1,-1,-1,-1,-1,-1,-1,-1,-1,-1,-1,-1,-1],"split_conditions":[-3.0859244E-1,-1.675312E-1,-4.5373902E-1,-7.207238E-1,1.4589243E-1,-3.096625E-1,1.2287141E0,2.8843147E-1,-1.0066876E0,-6.161609E-1,-1.8732613E-1,-2.5636685E-1,-2.0368117E-1,-2.0941795E-1,-3.3999854E-1,-3.1261247E-1,-2.594814E-1,-1.1564538E-1,8.300183E-1,-4.6023458E-1,-2.1481176E-1,-6.534592E-1,9.933449E-1,-5.176835E-1,-4.4783646E-1,-2.1778798E-2,-2.0879659E-1,9.933449E-1,5.306912E0,3.7284863E-1,2.4049558E-2,-8.9284533E-1,-3.4207916E0,-1.2158042E0,-2.0382194E-1,1.3543712E0,-1.6683694E-3,-5.6532E-1,-3.3022645E-1,-2.6012006E-1,9.763294E-1,-1.8986227E-2,3.4750548E-1,-1.4106771E-1,5.12357E-1,-7.4519503E-1,-1.5365075E-1,-2.6321492E-1,2.8546417E-1,1.823624E-1,-7.6879245E-1,-7.95645E-1,-7.4742556E-1,-8.001192E-1,3.9398935E0,-1.6041255E-1,-1.921866E-1,-3.8607368E-1,-3.4508827E-1,-5.3245497E-1,6.135605E-1,1.5855244E-1,-2.4885906E-1,3.148683E-2,-9.566955E-2,1.2625228E-2,-1.5470408E-1,1.9352462E-2,-1.2547861E-1,6.954206E-2,-7.624406E-2,-1.5211819E-1,-2.9396376E-2,1.987932E-2,-1.1742502E-1,-1.3364223E-1,-1.726326E-1,-7.7714644E-2,1.2608242E-1,-1.2767439E-1,7.3226E-2,1.3958114E-1,1.4227065E-2,1.3245365E-1,-2.4398966E-2,-1.1562468E-1,2.0588247E-2,-1.2509863E-1,-1.1315019E-2,-1.630737E-1,1.565528E-2,-2.1688778E-2,1.301954E-1,-7.16704E-2,1.0294129E-1,-1.4277251E-1,8.730842E-2,6.436999E-2,-1.1835839E-1,-6.862724E-2,-1.6203812E-1,5.454871E-2,-1.1702353E-1,-3.9997105E-2,1.15254E-1,-1.1366258E-1,4.144316E-2,1.405377E-1,-6.147292E-2,7.011317E-2,1.4766552E-1,7.3311985E-2,-9.856618E-2,1.3468719E-1,1.7330807E-1,1.6024208E-1,-1.22307494E-1,1.2247437E-1,-7.5952366E-2,-1.7404614E-1,-4.127548E-2,1.1500108E-1,-4.2329505E-2,-1.4210515E-2,1.5865575E-1],"split_indices":[63,26,26,62,55,73,55,22,13,62,60,2,38,64,73,55,64,7,61,9,3,62,62,3,37,64,63,62,61,15,66,13,59,13,15,9,55,3,63,64,15,13,2,52,61,7,0,63,64,57,15,3,22,26,61,26,57,66,13,18,26,15,64,0,0,0,0,0,0,0,0,0,0,0,0,0,0,0,0,0,0,0,0,0,0,0,0,0,0,0,0,0,0,0,0,0,0,0,0,0,0,0,0,0,0,0,0,0,0,0,0,0,0,0,0,0,0,0,0,0,0,0,0,0,0],"split_type":[0,0,0,0,0,0,0,0,0,0,0,0,0,0,0,0,0,0,0,0,0,0,0,0,0,0,0,0,0,0,0,0,0,0,0,0,0,0,0,0,0,0,0,0,0,0,0,0,0,0,0,0,0,0,0,0,0,0,0,0,0,0,0,0,0,0,0,0,0,0,0,0,0,0,0,0,0,0,0,0,0,0,0,0,0,0,0,0,0,0,0,0,0,0,0,0,0,0,0,0,0,0,0,0,0,0,0,0,0,0,0,0,0,0,0,0,0,0,0,0,0,0,0,0,0],"sum_hessian":[5.7351655E3,3.0449146E3,2.690251E3,1.7810411E3,1.2638733E3,9.9519275E2,1.6950582E3,4.647324E2,1.3163087E3,7.772058E2,4.866675E2,3.31537E2,6.636558E2,1.5957264E3,9.933173E1,2.3013603E2,2.3459637E2,1.9854836E2,1.1177604E3,4.2521225E2,3.5199356E2,4.4162067E2,4.5046852E1,7.561236E1,2.5592462E2,2.6394003E2,3.9971576E2,3.84961E2,1.2107655E3,3.558429E1,6.3747444E1,5.8959915E1,1.7117612E2,1.0708685E2,1.2750952E2,1.1384798E2,8.470038E1,1.1112655E3,6.494904E0,1.01696686E2,3.2351556E2,1.1608019E2,2.3591336E2,1.5384575E2,2.8777493E2,4.131719E1,3.729664E0,4.875167E1,2.6860691E1,3.322596E1,2.2269867E2,1.6150455E2,1.024355E2,6.855752E1,3.3115823E2,3.4799088E2,3.697012E1,1.1957244E3,1.5041099E1,1.3708417E1,2.1875872E1,3.0583578E1,3.3163868E1,2.2159142E1,3.6800774E1,3.6311162E0,1.67545E2,3.8968563E1,6.811829E1,1.0759725E2,1.991227E1,1.0745494E2,6.393029E0,4.218152E1,4.2518856E1,1.6377852E2,9.47487E2,2.7700267E0,3.7248776E0,1.6932537E1,8.4764145E1,2.9750494E2,2.6010624E1,7.145516E1,4.4625034E1,1.5202203E2,8.3891335E1,7.433149E1,7.951425E1,2.7689856E2,1.0876365E1,6.9645615E0,3.4352627E1,1.7026636E1,3.1725035E1,2.526536E1,1.5953307E0,1.3097647E1,2.0128315E1,1.6765318E1,2.0593335E2,2.7206583E1,1.3429796E2,3.3927708E1,6.850779E1,2.7046377E1,4.151114E1,3.104339E2,2.0724348E1,8.070861E1,2.6728226E2,1.9981066E1,1.6989054E1,1.3398035E2,1.061744E3,6.9798985E0,8.061199E0,5.33508E0,8.373337E0,1.392067E1,7.9552026E0,1.56754875E1,1.4908091E1,1.2847986E0,3.1879068E1],"tree_param":{"num_deleted":"0","num_feature":"74","num_nodes":"125","size_leaf_vector":"1"}},{"base_weights":[-1.6462666E-3,-7.594057E-1,8.5355896E-1,-1.1548375E0,4.4496965E-2,-5.0494254E-2,1.3618194E0,-3.7606663E-1,-1.3624499E0,6.012912E-1,-9.3177354E-1,-1.091438E0,4.6390766E-1,1.4263121E0,2.877475E-1,2.4408884E-1,-8.814675E-1,-8.0997807E-1,-1.4705666E0,1.067672E0,-1.5419705E-1,-1.1080562E0,7.8731155E-1,-1.9448431E-1,-1.3342309E0,-9.562197E-2,1.1102026E0,8.0129766E-1,1.4995222E0,-7.5963145E-1,8.3749205E-1,-1.0671493E0,5.098489E-1,-1.2280024E0,-2.656759E-1,-2.612423E-1,-1.3195964E0,-1.6572888E0,-1.2840036E0,2.859153E-1,1.2225415E0,-7.985801E-1,5.4811E-1,-1.2306414E0,5.5031073E-1,9.8865676E-1,-1.2704235E-1,2.4776168E-1,-1.413051E0,-9.305564E-1,-1.5524844E0,-9.40385E-1,4.8067316E-1,1.4367776E0,2.2030456E-1,1.079823E0,-9.911883E-2,1.5484822E0,7.704587E-1,-1.1667351E-3,-1.4469428E0,2.2350582E-1,1.4132612E0,1.0901778E-1,-1.1764725E-1,-8.7261185E-2,7.097506E-2,-5.573835E-2,-1.5203618E-1,-1.19994715E-1,2.10567E-2,-1.00785375E-1,2.9943964E-2,-1.3603105E-1,6.9164775E-2,1.7242333E-2,-1.6604124E-1,-1.4480394E-1,-5.743555E-2,-5.0585043E-2,9.2668764E-2,1.3443944E-1,4.160151E-2,4.96479E-2,-1.2885615E-1,-1.0845226E-1,8.5978396E-2,-6.25246E-2,-1.4897709E-1,-6.5430805E-2,1.1465416E-1,-3.2281864E-2,1.2425369E-1,-8.3959095E-2,6.749677E-2,-1.662398E-2,-1.5589103E-1,-1.2783705E-1,1.0952075E-2,-1.5858394E-1,-4.4663046E-2,-1.4253792E-1,-2.9352034E-2,6.7461774E-2,-9.146554E-2,-5.2648105E-2,1.5365043E-1,-1.0440011E-1,7.044462E-2,1.341184E-1,4.6423342E-2,-9.260479E-2,9.123629E-2,1.5613867E-1,-4.8416775E-2,-1.0702398E-3,1.19292915E-1,-8.998672E-2,8.8387854E-2,-1.2949561E-3,-1.6601235E-1,9.588452E-2,-4.5580897E-2,1.5728171E-1,-1.16162635E-1],"categories":[],"categories_nodes":[],"categories_segments":[],"categories_sizes":[],"default_left":[0,0,0,0,0,0,0,0,0,0,0,0,0,0,0,0,0,0,0,0,0,0,0,0,0,0,0,0,0,0,0,0,0,0,0,0,0,0,0,0,0,0,0,0,0,0,0,0,0,0,0,0,0,0,0,0,0,0,0,0,0,0,0,0,0,0,0,0,0,0,0,0,0,0,0,0,0,0,0,0,0,0,0,0,0,0,0,0,0,0,0,0,0,0,0,0,0,0,0,0,0,0,0,0,0,0,0,0,0,0,0,0,0,0,0,0,0,0,0,0,0,0,0,0,0],"id":2,"left_children":[1,3,5,7,9,11,13,15,17,19,21,23,25,27,29,31,33,35,37,39,41,43,45,47,49,51,53,55,57,59,61,63,65,67,69,71,73,75,77,79,81,83,85,87,89,91,-1,93,95,97,99,101,103,105,107,109,111,113,115,117,119,121,123,-1,-1,-1,-1,-1,-1,-1,-1,-1,-1,-1,-1,-1,-1,-1,-1,-1,-1,-1,-1,-1,-1,-1,-1,-1,-1,-1,-1,-1,-1,-1,-1,-1,-1,-1,-1,-1,-1,-1,-1,-1,-1,-1,-1,-1,-1,-1,-1,-1,-1,-1,-1,-1,-1,-1,-1,-1,-1,-1,-1,-1,-1],"loss_changes":[3.6406323E3,9.4693274E2,1.2127932E3,3.2230322E2,5.3493054E2,5.0961148E2,1.16619385E2,1.3236324E2,9.294458E1,2.2095334E2,1.0918909E2,6.828473E1,2.3046797E2,7.1714355E1,5.6459988E1,6.678968E1,4.9292236E1,7.240863E1,4.374414E1,4.6573975E1,1.090751E2,6.666559E1,1.52714405E1,3.7114105E1,2.0363556E1,1.6712018E2,8.561157E1,4.254859E1,4.9682617E1,1.7668331E1,2.232869E1,8.914482E0,4.448865E1,2.8270477E1,3.80758E1,5.3264614E1,1.1966156E1,4.027832E0,7.636157E1,3.3643673E1,3.1202362E1,8.0337555E1,5.968272E1,4.6533813E1,1.7293655E1,1.0847755E1,0E0,2.4213154E1,3.0715828E0,3.2467026E1,5.1627197E0,4.3244545E1,5.587053E1,4.31221E1,5.004506E1,2.0186234E1,3.5052185E1,3.5763184E1,3.0269619E1,1.4408252E1,5.4142303E0,1.6515245E1,1.5330742E1,0E0,0E0,0E0,0E0,0E0,0E0,0E0,0E0,0E0,0E0,0E0,0E0,0E0,0E0,0E0,0E0,0E0,0E0,0E0,0E0,0E0,0E0,0E0,0E0,0E0,0E0,0E0,0E0,0E0,0E0,0E0,0E0,0E0,0E0,0E0,0E0,0E0,0E0,0E0,0E0,0E0,0E0,0E0,0E0,0E0,0E0,0E0,0E0,0E0,0E0,0E0,0E0,0E0,0E0,0E0,0E0,0E0,0E0,0E0,0E0,0E0,0E0],"parents":[2147483647,0,0,1,1,2,2,3,3,4,4,5,5,6,6,7,7,8,8,9,9,10,10,11,11,12,12,13,13,14,14,15,15,16,16,17,17,18,18,19,19,20,20,21,21,22,22,23,23,24,24,25,25,26,26,27,27,28,28,29,29,30,30,31,31,32,32,33,33,34,34,35,35,36,36,37,37,38,38,39,39,40,40,41,41,42,42,43,43,44,44,45,45,47,47,48,48,49,49,50,50,51,51,52,52,53,53,54,54,55,55,56,56,57,57,58,58,59,59,60,60,61,61,62,62],"right_children":[2,4,6,8,10,12,14,16,18,20,22,24,26,28,30,32,34,36,38,40,42,44,46,48,50,52,54,56,58,60,62,64,66,68,70,72,74,76,78,80,82,84,86,88,90,92,-1,94,96,98,100,102,104,106,108,110,112,114,116,118,120,122,124,-1,-1,-1,-1,-1,-1,-1,-1,-1,-1,-1,-1,-1,-1,-1,-1,-1,-1,-1,-1,-1,-1,-1,-1,-1,-1,-1,-1,-1,-1,-1,-1,-1,-1,-1,-1,-1,-1,-1,-1,-1,-1,-1,-1,-1,-1,-1,-1,-1,-1,-1,-1,-1,-1,-1,-1,-1,-1,-1,-1,-1,-1],"split_conditions":[-3.0859244E-1,-3.3050997E-3,-4.7926697E-1,-7.769883E-1,1.6500887E-1,-3.096625E-1,1.2287141E0,-1.1906542E-1,-1.0167572E0,-5.3882784E-1,-1.9892064E-1,-2.6650825E-1,-6.694003E-2,-2.3390384E-1,-3.651631E-1,-7.103707E-1,-2.5821427E-1,7.5360234E-3,-5.7064253E-1,-6.733738E-1,-3.3737475E-1,-1.4710958E-1,9.933449E-1,1.1678283E0,-3.2623833E-1,-2.0368117E-1,1.0879825E0,1.8161412E-1,1.0470178E0,1.0256753E0,-1.0421035E-1,-1.821694E0,-3.4711528E-1,-1.0923203E0,-1.0669761E0,-3.213478E-1,1.5321382E0,-2.86237E0,-3.286983E-1,-4.9860555E-1,1.2816976E0,-8.349082E-1,-7.34463E-1,-7.207238E-1,-2.0368117E-1,-7.704444E-1,-1.2704235E-1,-1.0973242E-1,-3.4130427E-1,-1.8725964E-1,1.1847592E-1,-8.346334E-1,1.3497425E0,-3.4067866E-1,-8.2037085E-1,-6.693735E-2,2.1083513E-1,6.4361134E0,-2.2224074E-2,-2.173349E-1,-1.0793535E0,6.8938965E-1,1.4867958E0,1.0901778E-1,-1.1764725E-1,-8.7261185E-2,7.097506E-2,-5.573835E-2,-1.5203618E-1,-1.19994715E-1,2.10567E-2,-1.00785375E-1,2.9943964E-2,-1.3603105E-1,6.9164775E-2,1.7242333E-2,-1.6604124E-1,-1.4480394E-1,-5.743555E-2,-5.0585043E-2,9.2668764E-2,1.3443944E-1,4.160151E-2,4.96479E-2,-1.2885615E-1,-1.0845226E-1,8.5978396E-2,-6.25246E-2,-1.4897709E-1,-6.5430805E-2,1.1465416E-1,-3.2281864E-2,1.2425369E-1,-8.3959095E-2,6.749677E-2,-1.662398E-2,-1.5589103E-1,-1.2783705E-1,1.0952075E-2,-1.5858394E-1,-4.4663046E-2,-1.4253792E-1,-2.9352034E-2,6.7461774E-2,-9.146554E-2,-5.2648105E-2,1.5365043E-1,-1.0440011E-1,7.044462E-2,1.341184E-1,4.6423342E-2,-9.260479E-2,9.123629E-2,1.5613867E-1,-4.8416775E-2,-1.0702398E-3,1.19292915E-1,-8.998672E-2,8.8387854E-2,-1.2949561E-3,-1.6601235E-1,9.588452E-2,-4.5580897E-2,1.5728171E-1,-1.16162635E-1],"split_indices":[63,26,26,62,55,73,55,55,13,62,60,2,64,64,73,26,64,55,26,9,63,73,62,62,62,38,65,62,69,65,64,13,63,13,50,7,2,2,63,73,20,13,9,62,38,7,0,22,11,38,66,26,65,66,22,11,61,61,26,64,13,65,65,0,0,0,0,0,0,0,0,0,0,0,0,0,0,0,0,0,0,0,0,0,0,0,0,0,0,0,0,0,0,0,0,0,0,0,0,0,0,0,0,0,0,0,0,0,0,0,0,0,0,0,0,0,0,0,0,0,0,0,0,0,0],"split_type":[0,0,0,0,0,0,0,0,0,0,0,0,0,0,0,0,0,0,0,0,0,0,0,0,0,0,0,0,0,0,0,0,0,0,0,0,0,0,0,0,0,0,0,0,0,0,0,0,0,0,0,0,0,0,0,0,0,0,0,0,0,0,0,0,0,0,0,0,0,0,0,0,0,0,0,0,0,0,0,0,0,0,0,0,0,0,0,0,0,0,0,0,0,0,0,0,0,0,0,0,0,0,0,0,0,0,0,0,0,0,0,0,0,0,0,0,0,0,0,0,0,0,0,0,0],"sum_hessian":[5.615914E3,2.9776567E3,2.6382576E3,1.9956027E3,9.82054E2,9.497747E2,1.6884828E3,4.2062296E2,1.5749797E3,6.256261E2,3.564279E2,3.1374948E2,6.3602527E2,1.5925312E3,9.595154E1,1.8910162E2,2.3152135E2,2.5916254E2,1.3158171E3,3.865725E2,2.3905359E2,3.2359995E2,3.282794E1,6.7219666E1,2.4652982E2,3.4135196E2,2.946733E2,1.682322E2,1.4242991E3,3.289598E1,6.3055553E1,3.1359747E1,1.5774187E2,1.4751407E2,8.400727E1,1.25520226E2,1.3364232E2,6.536882E2,6.6212897E2,6.438969E1,3.2218283E2,1.24596405E2,1.1445718E2,3.015663E2,2.2033634E1,3.0375319E1,2.4526217E0,4.9904755E1,1.731491E1,8.836202E1,1.5816779E2,1.3817548E2,2.0317648E2,2.151156E2,7.955772E1,1.283351E2,3.9897087E1,1.3336166E3,9.0682594E1,1.6114708E1,1.6781273E1,3.1186848E1,3.1868706E1,1.0797851E0,3.027996E1,1.9502586E1,1.3823929E2,4.5667553E1,1.0184652E2,2.7850952E1,5.615632E1,5.3492012E1,7.202821E1,1.3130788E2,2.3344488E0,1.0216645E0,6.526665E2,5.3696796E2,1.2516104E2,2.8895603E1,3.549408E1,2.793159E2,4.286694E1,3.419722E1,9.0399185E1,1.7950087E1,9.6507095E1,9.141332E1,2.10153E2,7.2627134E0,1.477092E1,4.8824377E0,2.5492882E1,1.3804169E1,3.6100586E1,2.0375526E0,1.5277358E1,6.6046265E1,2.2315754E1,1.5311545E2,5.0523467E0,7.828036E1,5.9895107E1,1.7883563E2,2.4340849E1,1.01920395E1,2.0492355E2,2.1709173E1,5.7848545E1,8.925951E1,3.9075592E1,2.1997591E1,1.7899496E1,1.3254337E3,8.182804E0,3.2171375E1,5.851122E1,7.9873624E0,8.127345E0,2.3091505E0,1.4472122E1,1.4778281E1,1.6408566E1,3.0375618E1,1.493089E0],"tree_param":{"num_deleted":"0","num_feature":"74","num_nodes":"125","size_leaf_vector":"1"}},{"base_weights":[4.3730924E-4,-5.987239E-1,8.960233E-1,-1.082957E0,1.1047881E-1,-9.522095E-3,1.2890521E0,-6.44864E-1,-1.3976002E0,5.036062E-1,-1.0026151E0,-6.972726E-1,6.1568797E-1,1.3653725E0,4.6152857E-1,-1.8912627E-1,-1.136446E0,-1.4224503E0,3.25812E-1,9.634889E-1,-2.8770405E-3,-1.1482277E0,7.652191E-1,-1.0658612E0,3.2925388E-1,-3.3447483E-1,1.119699E0,1.449999E0,9.0688396E-1,-3.1332812E-1,1.0458809E0,-8.57645E-1,3.1812558E-1,-1.2775908E0,-1.9761223E-1,-1.5292056E0,-1.2033321E0,7.553301E-1,-1.3148212E-1,-3.336163E-1,1.0691488E0,-6.57388E-1,6.352156E-1,-1.377468E0,-5.373671E-1,-1.5431638E-1,1.3210576E0,-1.2089627E0,4.7078604E-1,1.0528926E0,-3.5461977E-1,-8.96867E-1,7.5812984E-1,1.4331933E0,-2.0925911E-2,1.4655946E0,3.8377497E-1,1.573792E-1,1.238951E0,7.098059E-1,-1.5705637E0,1.47921E0,5.4276323E-1,8.0179885E-2,-1.047151E-1,5.654351E-2,-8.166235E-2,-1.3186733E-1,2.0852191E-2,-1.349334E-1,2.7779514E-2,-1.5341164E-1,5.3086825E-2,-1.396778E-1,-7.8798115E-2,-4.7403384E-2,1.2746939E-1,-1.0027055E-1,1.1363842E-1,1.1797742E-1,1.2102086E-2,5.1813025E-2,-1.1304232E-1,1.0717455E-1,-4.5735477E-3,-1.4143957E-1,3.7504237E-2,-7.4627553E-4,-1.2830783E-1,-1.4069286E-1,1.0606211E-1,-5.1385053E-3,1.5655081E-1,-8.215022E-2,-1.5464477E-1,1.13385394E-1,-4.3730583E-2,1.2345387E-1,-8.623709E-2,3.2820445E-2,-1.3705327E-1,-1.24348424E-1,1.780592E-2,1.0120304E-1,-1.4777716E-1,-2.2614216E-2,1.4901996E-1,-6.750938E-2,8.597005E-2,1.2016957E-1,1.5158294E-1,1.3211338E-1,-9.087851E-2,-4.7966257E-2,7.54847E-2,5.3165473E-2,1.4077137E-1,1.351739E-1,-1.245297E-2,-1.6734076E-1,4.4772066E-2,1.5253887E-1,-1.538605E-2,-8.152839E-2,9.500767E-2],"categories":[],"categories_nodes":[],"categories_segments":[],"categories_sizes":[],"default_left":[0,0,0,0,0,0,0,0,0,0,0,0,0,0,0,0,0,0,0,0,0,0,0,0,0,0,0,0,0,0,0,0,0,0,0,0,0,0,0,0,0,0,0,0,0,0,0,0,0,0,0,0,0,0,0,0,0,0,0,0,0,0,0,0,0,0,0,0,0,0,0,0,0,0,0,0,0,0,0,0,0,0,0,0,0,0,0,0,0,0,0,0,0,0,0,0,0,0,0,0,0,0,0,0,0,0,0,0,0,0,0,0,0,0,0,0,0,0,0,0,0,0,0,0,0],"id":3,"left_children":[1,3,5,7,9,11,13,15,17,19,21,23,25,27,29,31,33,35,37,39,41,43,45,47,49,51,53,55,57,59,61,63,65,67,69,71,73,75,-1,77,79,81,83,85,87,89,91,93,95,97,99,101,103,105,107,109,111,113,115,117,119,121,123,-1,-1,-1,-1,-1,-1,-1,-1,-1,-1,-1,-1,-1,-1,-1,-1,-1,-1,-1,-1,-1,-1,-1,-1,-1,-1,-1,-1,-1,-1,-1,-1,-1,-1,-1,-1,-1,-1,-1,-1,-1,-1,-1,-1,-1,-1,-1,-1,-1,-1,-1,-1,-1,-1,-1,-1,-1,-1,-1,-1,-1,-1],"loss_changes":[2.9570547E3,1.1340145E3,7.8618677E2,2.6957202E2,5.871326E2,2.8833035E2,9.6656006E1,1.8395059E2,4.9334717E1,2.3091362E2,9.1035126E1,1.2116325E2,1.6858798E2,5.3385986E1,5.9905968E1,1.453348E2,5.212564E1,2.4478516E1,1.2996668E1,7.156711E1,1.9786668E2,4.462799E1,1.4133049E1,5.2283783E1,4.2498768E1,7.59612E1,8.218085E1,1.9199951E1,5.514261E1,7.4870735E1,1.5601021E1,5.8961426E1,6.8923584E1,2.1242615E1,2.930778E1,8.43042E0,2.8890991E1,9.629191E0,0E0,4.0382385E1,5.0275208E1,1.3063538E2,7.1360214E1,1.5734558E1,3.5572174E1,1.8480091E1,5.814028E0,2.689862E1,1.2992966E1,1.55411E1,3.1327301E1,3.0527649E1,2.5437508E1,1.738501E1,2.9681334E1,1.3701904E1,2.3600317E1,2.6780087E1,1.7625717E1,1.7468489E1,6.153763E0,3.2395096E0,2.0907515E1,0E0,0E0,0E0,0E0,0E0,0E0,0E0,0E0,0E0,0E0,0E0,0E0,0E0,0E0,0E0,0E0,0E0,0E0,0E0,0E0,0E0,0E0,0E0,0E0,0E0,0E0,0E0,0E0,0E0,0E0,0E0,0E0,0E0,0E0,0E0,0E0,0E0,0E0,0E0,0E0,0E0,0E0,0E0,0E0,0E0,0E0,0E0,0E0,0E0,0E0,0E0,0E0,0E0,0E0,0E0,0E0,0E0,0E0,0E0,0E0,0E0,0E0],"parents":[2147483647,0,0,1,1,2,2,3,3,4,4,5,5,6,6,7,7,8,8,9,9,10,10,11,11,12,12,13,13,14,14,15,15,16,16,17,17,18,18,19,19,20,20,21,21,22,22,23,23,24,24,25,25,26,26,27,27,28,28,29,29,30,30,31,31,32,32,33,33,34,34,35,35,36,36,37,37,39,39,40,40,41,41,42,42,43,43,44,44,45,45,46,46,47,47,48,48,49,49,50,50,51,51,52,52,53,53,54,54,55,55,56,56,57,57,58,58,59,59,60,60,61,61,62,62],"right_children":[2,4,6,8,10,12,14,16,18,20,22,24,26,28,30,32,34,36,38,40,42,44,46,48,50,52,54,56,58,60,62,64,66,68,70,72,74,76,-1,78,80,82,84,86,88,90,92,94,96,98,100,102,104,106,108,110,112,114,116,118,120,122,124,-1,-1,-1,-1,-1,-1,-1,-1,-1,-1,-1,-1,-1,-1,-1,-1,-1,-1,-1,-1,-1,-1,-1,-1,-1,-1,-1,-1,-1,-1,-1,-1,-1,-1,-1,-1,-1,-1,-1,-1,-1,-1,-1,-1,-1,-1,-1,-1,-1,-1,-1,-1,-1,-1,-1,-1,-1,-1,-1,-1,-1,-1],"split_conditions":[-2.841889E-1,-1.2766738E-1,-6.112112E-1,-5.2019185E-1,4.657784E-1,-1.9517642E-1,8.464406E-1,8.3061226E-2,6.40156E-1,-6.263397E-1,-1.8732613E-1,3.4060666E-1,-1.17386915E-1,5.1231414E-1,-4.2632174E-2,-5.518043E-1,-2.691464E-1,-2.9308024E-1,-3.2744072E-2,-2.604254E-1,-3.3526084E-1,-3.3022645E-1,9.2588365E-2,-9.694128E-2,-5.35849E-1,-1.8725964E-1,1.1434885E0,5.306912E0,-2.5788453E-1,-1.8588355E-2,2.9505283E-1,-1.4515035E0,-1.7474967E-1,2.349484E0,-7.8071016E-1,1.5286123E0,-5.504605E-3,-3.3022645E-1,-1.3148212E-1,7.600599E-1,1.009841E0,-8.349082E-1,-1.414134E-1,1.5536916E-1,-4.3329783E-2,1.6810389E-1,-3.9961138E-1,-3.895652E-1,-2.5966674E-1,2.690355E0,2.9948187E-1,-7.859787E-1,1.3497425E0,-2.1684867E-1,4.802367E-1,-2.1058404E-1,4.5086235E-2,1.6371507E-2,-1.8373074E-1,-4.7909886E-1,-4.7676716E-2,2.0262072E0,5.144464E-1,8.0179885E-2,-1.047151E-1,5.654351E-2,-8.166235E-2,-1.3186733E-1,2.0852191E-2,-1.349334E-1,2.7779514E-2,-1.5341164E-1,5.3086825E-2,-1.396778E-1,-7.8798115E-2,-4.7403384E-2,1.2746939E-1,-1.0027055E-1,1.1363842E-1,1.1797742E-1,1.2102086E-2,5.1813025E-2,-1.1304232E-1,1.0717455E-1,-4.5735477E-3,-1.4143957E-1,3.7504237E-2,-7.4627553E-4,-1.2830783E-1,-1.4069286E-1,1.0606211E-1,-5.1385053E-3,1.5655081E-1,-8.215022E-2,-1.5464477E-1,1.13385394E-1,-4.3730583E-2,1.2345387E-1,-8.623709E-2,3.2820445E-2,-1.3705327E-1,-1.24348424E-1,1.780592E-2,1.0120304E-1,-1.4777716E-1,-2.2614216E-2,1.4901996E-1,-6.750938E-2,8.597005E-2,1.2016957E-1,1.5158294E-1,1.3211338E-1,-9.087851E-2,-4.7966257E-2,7.54847E-2,5.3165473E-2,1.4077137E-1,1.351739E-1,-1.245297E-2,-1.6734076E-1,4.4772066E-2,1.5253887E-1,-1.538605E-2,-8.152839E-2,9.500767E-2],"split_indices":[63,26,26,62,55,66,69,55,61,62,60,9,64,55,26,26,73,61,53,64,63,63,4,38,15,38,65,61,66,15,15,13,15,60,26,73,9,63,0,27,15,13,57,73,62,2,44,68,62,69,69,26,65,63,64,64,13,26,64,15,38,50,26,0,0,0,0,0,0,0,0,0,0,0,0,0,0,0,0,0,0,0,0,0,0,0,0,0,0,0,0,0,0,0,0,0,0,0,0,0,0,0,0,0,0,0,0,0,0,0,0,0,0,0,0,0,0,0,0,0,0,0,0,0,0],"split_type":[0,0,0,0,0,0,0,0,0,0,0,0,0,0,0,0,0,0,0,0,0,0,0,0,0,0,0,0,0,0,0,0,0,0,0,0,0,0,0,0,0,0,0,0,0,0,0,0,0,0,0,0,0,0,0,0,0,0,0,0,0,0,0,0,0,0,0,0,0,0,0,0,0,0,0,0,0,0,0,0,0,0,0,0,0,0,0,0,0,0,0,0,0,0,0,0,0,0,0,0,0,0,0,0,0,0,0,0,0,0,0,0,0,0,0,0,0,0,0,0,0,0,0,0,0],"sum_hessian":[5.5087207E3,3.3007788E3,2.207942E3,1.9611843E3,1.3395946E3,6.685552E2,1.5393868E3,8.2104834E2,1.140136E3,9.903619E2,3.4923276E2,3.1830002E2,3.5025516E2,1.4088063E3,1.3058054E2,4.267759E2,3.942724E2,1.124102E3,1.6033995E1,5.1858685E2,4.7177502E2,3.229801E2,2.6252645E1,2.3417712E2,8.412289E1,1.2151368E2,2.2874149E2,1.187465E3,2.213413E2,5.63387E1,7.424183E1,1.8382198E2,2.4295393E2,3.4243042E2,5.184198E1,7.518291E2,3.722729E2,1.313489E1,2.899106E0,3.8898808E1,4.7968802E2,2.328764E2,2.3889862E2,2.3393521E2,8.904489E1,1.0162681E1,1.6089966E1,2.1442215E2,1.975498E1,4.061095E1,4.351194E1,8.033982E1,4.1173855E1,1.7922578E2,4.9515694E1,1.1699772E3,1.7487808E1,6.840932E1,1.5293198E2,3.1301264E1,2.5037436E1,3.8845013E1,3.539682E1,1.8509468E1,1.6531252E2,1.9989099E2,4.3062946E1,3.3332843E2,9.10199E0,1.4609861E1,3.7232117E1,7.5029584E2,1.5332747E0,2.5237073E2,1.1990216E2,3.9269207E0,9.207969E0,2.6950047E1,1.1948762E1,4.2934836E2,5.0339664E1,6.67941E1,1.660823E2,1.4522615E2,9.367246E1,2.2929657E2,4.638636E0,5.264513E1,3.6399765E1,4.9259515E0,5.236729E0,2.5519702E0,1.3537995E1,1.0141899E2,1.1300316E2,1.1274203E1,8.480777E0,3.741763E1,3.1933184E0,2.642672E1,1.708522E1,6.063186E1,1.9707962E1,3.7466656E1,3.7072005E0,5.8542233E0,1.7337157E2,2.8544777E1,2.0970917E1,1.9108252E2,9.7889465E2,1.0123897E1,7.3639116E0,3.3203606E1,3.520571E1,3.0260103E1,1.2267187E2,1.7339901E1,1.3961362E1,2.3986076E1,1.0513592E0,3.784092E1,1.004094E0,7.9358463E0,2.7460974E1],"tree_param":{"num_deleted":"0","num_feature":"74","num_nodes":"125","size_leaf_vector":"1"}},{"base_weights":[-7.7031483E-3,-6.0740197E-1,7.513704E-1,1.2864603E-2,-9.4882655E-1,5.9905365E-2,1.0454376E0,5.2982855E-1,-5.690664E-1,-1.0691415E0,3.0317134E-1,-5.833977E-1,4.7708163E-1,1.1979617E0,3.7707558E-1,-1.5983024E-1,8.107016E-1,-1.2157948E0,-1.7434938E-1,-7.363079E-1,-1.393723E0,-4.1971916E-1,9.350648E-1,3.7046206E-1,-9.424387E-1,-6.258083E-2,9.807748E-1,8.877128E-1,1.3693979E0,-8.4494835E-1,7.224514E-1,-1.1676197E0,1.1361259E-1,1.1626766E0,3.9218104E-1,-1.3025528E0,4.8581007E-1,-1.0503645E0,2.2160512E-1,-3.7032023E-1,-1.2170619E0,-1.4390682E0,-5.173588E-1,5.250991E-1,-7.8298163E-1,1.1684023E0,-5.328989E-1,6.695409E-1,-1.2346015E0,-3.595054E-2,-1.1279072E0,-5.069751E-1,8.1446904E-1,5.139829E-1,1.2954378E0,1.28481E0,4.0622166E-1,1.4523754E0,1.0614214E0,-1.1375042E0,8.503014E-1,-2.8450865E-1,1.0373763E0,6.725984E-2,-1.3195388E-1,4.3363754E-2,-6.0441364E-2,-8.371042E-2,1.2283409E-1,1.3122514E-1,1.3639427E-2,-1.4400315E-1,-7.582917E-2,-8.1258036E-2,1.0871984E-1,8.099105E-2,-1.1239468E-1,-1.4988835E-2,7.5775914E-2,-7.516668E-2,2.4695577E-2,9.195299E-2,-1.2410811E-1,-1.5112919E-1,-1.2579362E-1,4.3061893E-2,-9.019779E-2,-4.1710936E-2,1.1986697E-1,1.0930884E-3,-1.0624681E-1,1.3031803E-1,-4.7184527E-2,-1.04632534E-1,8.742736E-2,-4.7103643E-2,9.2104234E-2,5.663536E-2,-1.483383E-1,6.9461636E-2,-1.3109216E-1,-1.1938812E-1,7.031988E-2,6.251381E-2,-8.6445205E-2,6.8052313E-3,1.1603965E-1,1.0730809E-1,-1.802362E-2,1.3747615E-1,-8.1118815E-2,1.334937E-1,-2.634739E-2,1.01555936E-1,-2.4961212E-3,-2.2479875E-2,1.4569148E-1,4.980804E-3,1.237235E-1,-2.5162445E-3,-1.3152534E-1,1.2996757E-1,-4.641642E-2,-1.3231248E-1,4.0846154E-2,1.1545912E-1,-2.593915E-2],"categories":[],"categories_nodes":[],"categories_segments":[],"categories_sizes":[],"default_left":[0,0,0,0,0,0,0,0,0,0,0,0,0,0,0,0,0,0,0,0,0,0,0,0,0,0,0,0,0,0,0,0,0,0,0,0,0,0,0,0,0,0,0,0,0,0,0,0,0,0,0,0,0,0,0,0,0,0,0,0,0,0,0,0,0,0,0,0,0,0,0,0,0,0,0,0,0,0,0,0,0,0,0,0,0,0,0,0,0,0,0,0,0,0,0,0,0,0,0,0,0,0,0,0,0,0,0,0,0,0,0,0,0,0,0,0,0,0,0,0,0,0,0,0,0,0,0],"id":4,"left_children":[1,3,5,7,9,11,13,15,17,19,21,23,25,27,29,31,33,35,37,39,41,43,45,47,49,51,53,55,57,59,61,63,65,67,69,71,73,75,77,79,81,83,85,87,89,91,93,95,97,99,101,103,105,107,109,111,113,115,117,119,121,123,125,-1,-1,-1,-1,-1,-1,-1,-1,-1,-1,-1,-1,-1,-1,-1,-1,-1,-1,-1,-1,-1,-1,-1,-1,-1,-1,-1,-1,-1,-1,-1,-1,-1,-1,-1,-1,-1,-1,-1,-1,-1,-1,-1,-1,-1,-1,-1,-1,-1,-1,-1,-1,-1,-1,-1,-1,-1,-1,-1,-1,-1,-1,-1,-1],"loss_changes":[2.4417068E3,6.3459143E2,4.813092E2,3.2063776E2,2.9145032E2,1.901353E2,1.6886414E2,1.0945793E2,1.2778624E2,1.894823E2,7.814835E1,9.5812965E1,1.16863144E2,7.068652E1,1.314754E2,4.53745E1,5.8648376E1,2.866336E1,1.08641365E2,1.5311453E2,3.4689453E1,2.7897593E1,3.1840134E1,3.77644E1,3.4055145E1,8.16307E1,3.1988205E1,9.201422E1,2.0662476E1,3.5080734E1,7.712645E1,1.0707752E1,3.014509E1,2.9580078E1,4.3311344E1,1.24461975E1,8.644611E0,1.42517395E1,4.315092E1,1.1717129E2,2.0478577E1,9.182495E0,1.6952192E1,1.49943695E1,1.2935719E1,1.8068573E1,1.0441767E1,1.9225744E1,6.4126835E0,3.3956985E1,2.117366E1,5.6761948E1,1.8114502E1,3.5581993E1,2.319635E1,2.0900848E1,5.788169E1,5.5177E0,3.3397873E1,1.1649651E1,6.9209356E0,4.264867E1,2.8385452E1,0E0,0E0,0E0,0E0,0E0,0E0,0E0,0E0,0E0,0E0,0E0,0E0,0E0,0E0,0E0,0E0,0E0,0E0,0E0,0E0,0E0,0E0,0E0,0E0,0E0,0E0,0E0,0E0,0E0,0E0,0E0,0E0,0E0,0E0,0E0,0E0,0E0,0E0,0E0,0E0,0E0,0E0,0E0,0E0,0E0,0E0,0E0,0E0,0E0,0E0,0E0,0E0,0E0,0E0,0E0,0E0,0E0,0E0,0E0,0E0,0E0,0E0,0E0,0E0],"parents":[2147483647,0,0,1,1,2,2,3,3,4,4,5,5,6,6,7,7,8,8,9,9,10,10,11,11,12,12,13,13,14,14,15,15,16,16,17,17,18,18,19,19,20,20,21,21,22,22,23,23,24,24,25,25,26,26,27,27,28,28,29,29,30,30,31,31,32,32,33,33,34,34,35,35,36,36,37,37,38,38,39,39,40,40,41,41,42,42,43,43,44,44,45,45,46,46,47,47,48,48,49,49,50,50,51,51,52,52,53,53,54,54,55,55,56,56,57,57,58,58,59,59,60,60,61,61,62,62],"right_children":[2,4,6,8,10,12,14,16,18,20,22,24,26,28,30,32,34,36,38,40,42,44,46,48,50,52,54,56,58,60,62,64,66,68,70,72,74,76,78,80,82,84,86,88,90,92,94,96,98,100,102,104,106,108,110,112,114,116,118,120,122,124,126,-1,-1,-1,-1,-1,-1,-1,-1,-1,-1,-1,-1,-1,-1,-1,-1,-1,-1,-1,-1,-1,-1,-1,-1,-1,-1,-1,-1,-1,-1,-1,-1,-1,-1,-1,-1,-1,-1,-1,-1,-1,-1,-1,-1,-1,-1,-1,-1,-1,-1,-1,-1,-1,-1,-1,-1,-1,-1,-1,-1,-1,-1,-1,-1],"split_conditions":[-2.2866204E-1,-6.941081E-1,-2.0368117E-1,-7.120235E-2,2.6630965E-1,-2.8391472E-1,8.336971E-1,-4.440829E-1,-2.5953656E-1,-1.1069334E-1,-1.5953207E-2,-5.178403E-1,-2.4466877E-1,-2.700617E-1,-4.418105E-1,-5.439655E-1,-3.654938E-2,2.44679E0,-8.5609144E-1,1.7602918E-1,1.506051E0,-3.6265352E-1,5.4201865E-1,2.0658798E0,-6.723454E-1,1.1758978E-1,-8.991648E-2,-1.18099995E-1,8.544485E-1,2.8126958E-1,-1.8373074E-1,-7.923998E-1,-1.0963628E-1,-2.6072535E-1,-1.2597775E0,-1.7343925E-1,-2.116579E-1,-1.9628705E0,1.220319E-1,-2.5323954E-1,-2.1173525E0,-2.4170657E-1,-5.035276E-1,-3.218656E-1,-2.4813601E-1,1.2776028E0,-2.4027026E-1,-5.9238523E-1,-2.681041E-1,9.5365804E-1,9.3958867E-1,-5.173589E-1,-6.9347215E-1,-3.4630206E-1,9.1764754E-1,3.2830377E0,-1.6787563E-1,-7.5875694E-1,-2.0048362E-1,-7.769548E-1,-8.8420376E-2,-2.764067E-1,8.7455225E-1,6.725984E-2,-1.3195388E-1,4.3363754E-2,-6.0441364E-2,-8.371042E-2,1.2283409E-1,1.3122514E-1,1.3639427E-2,-1.4400315E-1,-7.582917E-2,-8.1258036E-2,1.0871984E-1,8.099105E-2,-1.1239468E-1,-1.4988835E-2,7.5775914E-2,-7.516668E-2,2.4695577E-2,9.195299E-2,-1.2410811E-1,-1.5112919E-1,-1.2579362E-1,4.3061893E-2,-9.019779E-2,-4.1710936E-2,1.1986697E-1,1.0930884E-3,-1.0624681E-1,1.3031803E-1,-4.7184527E-2,-1.04632534E-1,8.742736E-2,-4.7103643E-2,9.2104234E-2,5.663536E-2,-1.483383E-1,6.9461636E-2,-1.3109216E-1,-1.1938812E-1,7.031988E-2,6.251381E-2,-8.6445205E-2,6.8052313E-3,1.1603965E-1,1.0730809E-1,-1.802362E-2,1.3747615E-1,-8.1118815E-2,1.334937E-1,-2.634739E-2,1.01555936E-1,-2.4961212E-3,-2.2479875E-2,1.4569148E-1,4.980804E-3,1.237235E-1,-2.5162445E-3,-1.3152534E-1,1.2996757E-1,-4.641642E-2,-1.3231248E-1,4.0846154E-2,1.1545912E-1,-2.593915E-2],"split_indices":[64,62,38,55,61,73,62,9,64,62,9,55,9,66,73,73,3,60,46,55,60,11,13,69,62,64,64,3,57,61,64,18,18,64,13,66,12,3,9,64,3,61,3,70,35,15,64,9,11,65,61,18,13,62,69,69,57,61,64,0,55,12,55,0,0,0,0,0,0,0,0,0,0,0,0,0,0,0,0,0,0,0,0,0,0,0,0,0,0,0,0,0,0,0,0,0,0,0,0,0,0,0,0,0,0,0,0,0,0,0,0,0,0,0,0,0,0,0,0,0,0,0,0,0,0,0,0],"split_type":[0,0,0,0,0,0,0,0,0,0,0,0,0,0,0,0,0,0,0,0,0,0,0,0,0,0,0,0,0,0,0,0,0,0,0,0,0,0,0,0,0,0,0,0,0,0,0,0,0,0,0,0,0,0,0,0,0,0,0,0,0,0,0,0,0,0,0,0,0,0,0,0,0,0,0,0,0,0,0,0,0,0,0,0,0,0,0,0,0,0,0,0,0,0,0,0,0,0,0,0,0,0,0,0,0,0,0,0,0,0,0,0,0,0,0,0,0,0,0,0,0,0,0,0,0,0,0],"sum_hessian":[5.3618457E3,2.9954883E3,2.3663574E3,1.0638154E3,1.9316729E3,7.064428E2,1.6599146E3,5.634017E2,5.0041373E2,1.7624504E3,1.6922247E2,2.77747E2,4.286958E2,1.3508503E3,3.090643E2,1.6317383E2,4.0022784E2,1.8887283E2,3.115409E2,8.7177765E2,8.906727E2,7.908475E1,9.0137726E1,7.594722E1,2.0179979E2,2.0738112E2,2.2131468E2,4.8297885E2,8.678714E2,6.778344E1,2.4128084E2,3.412694E1,1.2904689E2,2.1643143E2,1.8379643E2,1.7993326E2,8.939561E0,9.6465836E1,2.1507506E2,4.9597372E2,3.7580392E2,8.46244E2,4.4428734E1,2.1838625E1,5.7246124E1,7.79512E1,1.2186523E1,6.450969E1,1.1437529E1,3.4478382E1,1.6732141E2,1.3792006E2,6.946106E1,9.017562E1,1.3113907E2,2.637717E2,2.1920718E2,6.807437E2,1.8712769E2,5.808798E1,9.695466E0,5.7505585E1,1.8377527E2,2.3411303E0,3.178581E1,8.9536476E1,3.9510418E1,6.507256E0,2.0992416E2,3.908318E1,1.4471326E2,1.4233424E2,3.7599022E1,2.7187142E0,6.220846E0,3.2897215E0,9.317612E1,1.27471985E2,8.760307E1,3.064404E2,1.8953333E2,3.7633107E0,3.7204062E2,5.9975635E2,2.4648767E2,1.2788667E1,3.1640066E1,9.2626E0,1.2576024E1,1.5155662E1,4.209046E1,7.222225E1,5.7289534E0,9.11663E0,3.0698938E0,1.149701E1,5.3012676E1,1.2332678E0,1.0204261E1,2.220815E1,1.2270229E1,1.6183844E2,5.4829764E0,3.291884E1,1.0500123E2,2.2376158E1,4.7084904E1,4.9646477E1,4.052915E1,1.26715096E2,4.4239707E0,2.5563315E2,8.138543E0,9.027598E1,1.289312E2,1.7065234E0,6.7903723E2,2.7896612E1,1.5923106E2,8.160664E0,4.9927315E1,7.233733E0,2.4617333E0,2.2649464E1,3.485612E1,1.6864139E2,1.5133868E1],"tree_param":{"num_deleted":"0","num_feature":"74","num_nodes":"127","size_leaf_vector":"1"}},{"base_weights":[-3.336579E-4,-6.400246E-1,6.4511317E-1,-1.0919726E0,-1.6333789E-1,-1.8538545E-1,1.0790206E0,-4.9582806E-1,-1.2471739E0,3.7514845E-1,-7.202904E-1,-1.0018053E0,2.5895032E-1,1.1465961E0,1.3102776E-1,-8.290066E-1,4.3364834E-2,-4.862324E-1,-1.2924839E0,-1.9762094E-1,8.34148E-1,-1.651794E-1,-1.0730506E0,-3.7018085E-1,-1.2200735E0,7.7410567E-1,-7.1382415E-1,5.5466425E-1,1.2219778E0,-2.7426365E-1,1.046259E0,1.0164568E-1,-9.6386E-1,-5.8213663E-1,6.640615E-1,6.16968E-1,-7.99531E-1,-1.197205E-1,-1.3118665E0,2.5605488E-1,-1.0220052E0,1.1534892E0,-2.2807496E-2,2.4104773E-1,-1.0141195E0,-1.1724912E0,6.4518476E-1,-1.159062E0,5.564424E-1,-1.3556976E0,-7.8817326E-1,-3.0311012E-1,9.761215E-1,-1.2216518E0,-1.0121571E-1,9.1731304E-1,-1.85131E-1,9.631141E-1,1.3424748E0,1.1166152E0,-6.6921216E-1,-2.0527132E-1,1.2217886E0,-4.5090858E-2,1.1357607E-1,-4.7857877E-2,-1.1825849E-1,1.2320484E-1,-7.675193E-2,-7.193602E-2,1.01833716E-1,-4.3604743E-2,1.1215011E-1,-9.698532E-2,7.513081E-2,8.230686E-2,-7.572573E-2,-1.4225045E-1,-1.1750537E-1,-1.0495849E-1,5.2117623E-2,-1.1905638E-1,1.582789E-2,1.23095036E-1,1.258678E-2,-7.406383E-2,7.887659E-2,-7.5255455E-3,1.15465336E-1,-1.2144233E-1,1.6435184E-2,-1.2168759E-1,1.12127505E-1,-4.6161216E-2,1.329288E-1,-4.0537287E-2,-1.4514393E-1,-1.1963377E-1,9.752668E-2,-8.506374E-2,-1.4305823E-1,-3.9928313E-3,-1.0392769E-1,9.231355E-2,-7.465184E-2,-4.1544788E-2,1.0904747E-1,-1.334586E-1,1.6163617E-2,-4.5171008E-2,8.14948E-2,1.2381574E-1,2.6926836E-2,-5.4362442E-2,8.528765E-2,1.1706716E-1,-3.2800097E-2,1.3993949E-1,1.1650965E-1,-3.41434E-2,1.3388902E-1,-1.3067953E-1,-7.3979436E-3,-1.2965636E-1,1.1629295E-1,1.2992416E-1,-4.0190328E-2],"categories":[],"categories_nodes":[],"categories_segments":[],"categories_sizes":[],"default_left":[0,0,0,0,0,0,0,0,0,0,0,0,0,0,0,0,0,0,0,0,0,0,0,0,0,0,0,0,0,0,0,0,0,0,0,0,0,0,0,0,0,0,0,0,0,0,0,0,0,0,0,0,0,0,0,0,0,0,0,0,0,0,0,0,0,0,0,0,0,0,0,0,0,0,0,0,0,0,0,0,0,0,0,0,0,0,0,0,0,0,0,0,0,0,0,0,0,0,0,0,0,0,0,0,0,0,0,0,0,0,0,0,0,0,0,0,0,0,0,0,0,0,0,0,0,0,0],"id":5,"left_children":[1,3,5,7,9,11,13,15,17,19,21,23,25,27,29,31,33,35,37,39,41,43,45,47,49,51,53,55,57,59,61,63,65,67,69,71,73,75,77,79,81,83,85,87,89,91,93,95,97,99,101,103,105,107,109,111,113,115,117,119,121,123,125,-1,-1,-1,-1,-1,-1,-1,-1,-1,-1,-1,-1,-1,-1,-1,-1,-1,-1,-1,-1,-1,-1,-1,-1,-1,-1,-1,-1,-1,-1,-1,-1,-1,-1,-1,-1,-1,-1,-1,-1,-1,-1,-1,-1,-1,-1,-1,-1,-1,-1,-1,-1,-1,-1,-1,-1,-1,-1,-1,-1,-1,-1,-1,-1],"loss_changes":[2.1700625E3,5.685094E2,9.4295337E2,1.2473352E2,3.8591376E2,3.2625378E2,1.0993933E2,5.061017E1,3.6411743E1,1.7221371E2,1.23666595E2,4.3239807E1,2.9257144E2,7.089551E1,4.312176E1,2.1941566E1,4.2499256E1,2.1914608E1,2.287732E1,1.0944826E2,9.9497986E1,8.5397484E1,6.679721E1,6.1190407E1,1.27022705E1,8.3304855E1,6.2802902E1,4.927347E1,4.3062744E1,4.514813E1,8.082386E0,1.3616082E1,1.5580231E1,1.9294554E1,2.7644968E1,8.0717325E0,1.3593693E1,1.1187423E1,1.3416138E1,6.600774E1,2.0845322E1,2.0925354E1,5.864305E1,4.8580887E1,1.9108757E1,3.8598297E1,1.7112436E1,9.341679E0,2.9623306E1,5.4971924E0,1.0963032E1,3.3857277E1,5.1605164E1,1.7478622E1,3.0156902E1,2.5238556E1,2.317736E1,1.2237192E2,8.140747E0,6.3718834E0,2.4031664E1,9.333369E0,4.4721184E0,0E0,0E0,0E0,0E0,0E0,0E0,0E0,0E0,0E0,0E0,0E0,0E0,0E0,0E0,0E0,0E0,0E0,0E0,0E0,0E0,0E0,0E0,0E0,0E0,0E0,0E0,0E0,0E0,0E0,0E0,0E0,0E0,0E0,0E0,0E0,0E0,0E0,0E0,0E0,0E0,0E0,0E0,0E0,0E0,0E0,0E0,0E0,0E0,0E0,0E0,0E0,0E0,0E0,0E0,0E0,0E0,0E0,0E0,0E0,0E0,0E0,0E0,0E0,0E0],"parents":[2147483647,0,0,1,1,2,2,3,3,4,4,5,5,6,6,7,7,8,8,9,9,10,10,11,11,12,12,13,13,14,14,15,15,16,16,17,17,18,18,19,19,20,20,21,21,22,22,23,23,24,24,25,25,26,26,27,27,28,28,29,29,30,30,31,31,32,32,33,33,34,34,35,35,36,36,37,37,38,38,39,39,40,40,41,41,42,42,43,43,44,44,45,45,46,46,47,47,48,48,49,49,50,50,51,51,52,52,53,53,54,54,55,55,56,56,57,57,58,58,59,59,60,60,61,61,62,62],"right_children":[2,4,6,8,10,12,14,16,18,20,22,24,26,28,30,32,34,36,38,40,42,44,46,48,50,52,54,56,58,60,62,64,66,68,70,72,74,76,78,80,82,84,86,88,90,92,94,96,98,100,102,104,106,108,110,112,114,116,118,120,122,124,126,-1,-1,-1,-1,-1,-1,-1,-1,-1,-1,-1,-1,-1,-1,-1,-1,-1,-1,-1,-1,-1,-1,-1,-1,-1,-1,-1,-1,-1,-1,-1,-1,-1,-1,-1,-1,-1,-1,-1,-1,-1,-1,-1,-1,-1,-1,-1,-1,-1,-1,-1,-1,-1,-1,-1,-1,-1,-1,-1,-1,-1,-1,-1,-1],"split_conditions":[-3.1660727E-1,-2.8077883E-1,-5.290897E-1,-1.0167572E0,-8.8420376E-2,-2.0879659E-1,1.1546935E0,5.4535657E-2,-8.8666177E-1,-1.1802486E-1,-6.45509E-1,-6.697703E-1,1.0756311E0,-2.3789573E-1,1.5443711E-2,-8.801354E-1,4.476058E-1,-4.1173926E-1,-1.9628705E0,-3.795789E-1,1.8314399E-2,9.1282064E-1,1.8257345E0,-8.293217E-1,-6.8215567E-1,-1.8877572E-1,-3.7970226E-2,2.376276E-1,-2.2224074E-2,-2.76295E-1,-2.8613386E-1,-2.6399162E-1,-1.0074327E-1,1.9588191E-2,-2.6055828E-1,9.794872E-2,-2.4788488E-1,-1.03706576E-1,-6.169444E-1,-2.6020384E-1,1.6005561E-1,8.093912E-1,-2.4788488E-1,8.152127E-1,-3.1256148E-1,8.8255936E-1,-2.6500762E-1,-5.384172E-1,-8.719949E-1,-6.983022E-1,-5.6686443E-1,-3.964755E-1,-1.5069001E0,-1.8725964E-1,4.802367E-1,2.1535937E-1,-2.6321492E-1,4.0179858E-1,1.1854166E0,-4.3159795E-1,2.1084544E-1,-5.4923016E-1,5.863398E-1,-4.5090858E-2,1.1357607E-1,-4.7857877E-2,-1.1825849E-1,1.2320484E-1,-7.675193E-2,-7.193602E-2,1.01833716E-1,-4.3604743E-2,1.1215011E-1,-9.698532E-2,7.513081E-2,8.230686E-2,-7.572573E-2,-1.4225045E-1,-1.1750537E-1,-1.0495849E-1,5.2117623E-2,-1.1905638E-1,1.582789E-2,1.23095036E-1,1.258678E-2,-7.406383E-2,7.887659E-2,-7.5255455E-3,1.15465336E-1,-1.2144233E-1,1.6435184E-2,-1.2168759E-1,1.12127505E-1,-4.6161216E-2,1.329288E-1,-4.0537287E-2,-1.4514393E-1,-1.1963377E-1,9.752668E-2,-8.506374E-2,-1.4305823E-1,-3.9928313E-3,-1.0392769E-1,9.231355E-2,-7.465184E-2,-4.1544788E-2,1.0904747E-1,-1.334586E-1,1.6163617E-2,-4.5171008E-2,8.14948E-2,1.2381574E-1,2.6926836E-2,-5.4362442E-2,8.528765E-2,1.1706716E-1,-3.2800097E-2,1.3993949E-1,1.1650965E-1,-3.41434E-2,1.3388902E-1,-1.3067953E-1,-7.3979436E-3,-1.2965636E-1,1.1629295E-1,1.2992416E-1,-4.0190328E-2],"split_indices":[63,26,26,13,55,63,55,7,62,9,62,15,65,64,66,62,22,3,3,62,13,55,60,26,26,67,22,13,26,15,63,66,47,59,64,9,64,49,26,64,61,41,64,27,72,61,8,65,22,62,65,2,22,38,64,15,63,15,15,61,26,44,21,0,0,0,0,0,0,0,0,0,0,0,0,0,0,0,0,0,0,0,0,0,0,0,0,0,0,0,0,0,0,0,0,0,0,0,0,0,0,0,0,0,0,0,0,0,0,0,0,0,0,0,0,0,0,0,0,0,0,0,0,0,0,0,0],"split_type":[0,0,0,0,0,0,0,0,0,0,0,0,0,0,0,0,0,0,0,0,0,0,0,0,0,0,0,0,0,0,0,0,0,0,0,0,0,0,0,0,0,0,0,0,0,0,0,0,0,0,0,0,0,0,0,0,0,0,0,0,0,0,0,0,0,0,0,0,0,0,0,0,0,0,0,0,0,0,0,0,0,0,0,0,0,0,0,0,0,0,0,0,0,0,0,0,0,0,0,0,0,0,0,0,0,0,0,0,0,0,0,0,0,0,0,0,0,0,0,0,0,0,0,0,0,0,0],"sum_hessian":[5.253833E3,2.6386863E3,2.615147E3,1.3538276E3,1.2848585E3,8.97639E2,1.7175078E3,2.8051917E2,1.0733085E3,6.5342487E2,6.314336E2,3.1591818E2,5.817208E2,1.60303E3,1.14477844E2,1.730503E2,1.0746889E2,6.0977425E1,1.0123311E3,2.9094025E2,3.6248462E2,2.4591881E2,3.855148E2,8.182601E1,2.3409216E2,3.8044928E2,2.0127153E2,1.8202733E2,1.4210027E3,7.982799E1,3.4649857E1,2.1932888E1,1.511174E2,5.3558205E1,5.391068E1,1.3272492E1,4.7704933E1,1.657578E1,9.957553E2,1.8810922E2,1.02831024E2,2.6382513E2,9.865948E1,1.6681302E2,7.91058E1,3.647245E2,2.0790308E1,4.406252E1,3.7763496E1,1.7652225E2,5.7569927E1,6.0001408E1,3.2044788E2,1.0950344E2,9.176809E1,1.2198844E2,6.0038876E1,4.5421185E2,9.6679083E2,1.7250423E1,6.2577568E1,4.241123E0,3.0408731E1,1.4662373E1,7.270516E0,4.794055E1,1.0317685E2,4.44201E0,4.9116196E1,1.0781024E1,4.3129654E1,4.343298E0,8.929194E0,4.3321716E1,4.3832164E0,6.5696187E0,1.0006163E1,5.453468E2,4.504085E2,3.1250652E1,1.5685857E2,8.997308E1,1.2857937E1,2.4514822E2,1.8676916E1,5.239971E1,4.6259766E1,1.2459433E2,4.221869E1,6.7587494E1,1.1518301E1,3.5826154E2,6.4629455E0,8.065892E0,1.2724416E1,1.2982565E1,3.1079954E1,6.925184E0,3.083831E1,2.438905E1,1.521332E2,1.475666E1,4.2813263E1,1.564719E1,4.4354218E1,2.4133478E1,2.963144E2,1.0127072E2,8.232719E0,6.6741806E1,2.5026283E1,8.0983315E1,4.100513E1,4.498041E1,1.5058464E1,3.913865E2,6.282534E1,7.2670483E2,2.40086E2,2.2109895E0,1.5039434E1,2.963675E1,3.294082E1,2.3884375E0,1.8526857E0,2.9214952E1,1.1937791E0],"tree_param":{"num_deleted":"0","num_feature":"74","num_nodes":"127","size_leaf_vector":"1"}},{"base_weights":[3.1640648E-3,-4.6940264E-1,7.336541E-1,-3.9752003E-2,-9.2776775E-1,1.4240992E-1,1.0057534E0,2.9414904E-1,-7.063537E-1,-1.0454576E0,5.783188E-1,3.5891443E-1,-9.9958575E-1,1.142E0,5.783194E-1,-1.4143474E-1,6.8601924E-1,-1.1169584E0,-2.8229278E-1,-7.972531E-1,-1.3146982E0,-7.807076E-1,8.6013454E-1,-1.01472355E-1,9.0679246E-1,9.1760755E-1,-1.1494105E0,1.1769024E0,4.537053E-2,1.7104396E-1,1.0012969E0,-5.48505E-1,4.5868662E-1,1.9055581E-1,9.056394E-1,-1.1993464E0,-1.4818357E-1,-7.7929515E-1,1.9569704E-1,-1.174905E0,-3.8360593E-1,5.83417E-2,-1.3297296E0,3.9214367E-1,-1.1104347E0,1.0491462E0,-5.280928E-1,6.5997565E-1,-4.6468943E-1,1.2627523E0,6.18265E-1,1.3279548E-1,-1.1806951E-2,1.08371854E-1,-1.2409294E0,8.4412456E-1,1.2868192E0,1.4242113E-1,-6.959953E-1,-3.696685E-1,6.802127E-1,1.11786E0,1.2000816E-1,-9.6600905E-2,-6.2656696E-3,7.749456E-2,-6.2401075E-2,5.3952426E-2,-7.090998E-2,1.2453207E-1,6.286372E-2,7.49212E-2,-1.2219751E-1,1.2087846E-1,-9.6835665E-2,4.0920667E-2,-9.288636E-2,7.301005E-2,-2.7972117E-2,-6.715756E-2,-1.3035509E-1,-8.795875E-2,2.0895971E-2,-8.5134454E-2,1.0571038E-1,-1.3646634E-1,-9.288712E-2,9.707426E-2,-8.197927E-2,-1.4081554E-1,1.2840922E-2,1.181337E-1,-2.2905136E-2,8.753138E-2,-8.6987995E-2,8.093955E-2,-3.7032586E-2,1.18542565E-2,-1.03975885E-1,1.3316746E-1,-6.7361526E-2,-2.6425028E-2,7.871774E-2,5.6027062E-2,-5.76078E-2,1.44704655E-2,-1.3060285E-1,1.2129674E-1,4.6490073E-2,7.149761E-2,1.312282E-1,4.011218E-2,-1.4878684E-1,1.9461436E-2,-9.006077E-2,8.5502736E-2,-3.1020505E-2,2.0278143E-4,1.166289E-1,7.255914E-2,-1.1577063E-1],"categories":[],"categories_nodes":[],"categories_segments":[],"categories_sizes":[],"default_left":[0,0,0,0,0,0,0,0,0,0,0,0,0,0,0,0,0,0,0,0,0,0,0,0,0,0,0,0,0,0,0,0,0,0,0,0,0,0,0,0,0,0,0,0,0,0,0,0,0,0,0,0,0,0,0,0,0,0,0,0,0,0,0,0,0,0,0,0,0,0,0,0,0,0,0,0,0,0,0,0,0,0,0,0,0,0,0,0,0,0,0,0,0,0,0,0,0,0,0,0,0,0,0,0,0,0,0,0,0,0,0,0,0,0,0,0,0,0,0,0,0],"id":6,"left_children":[1,3,5,7,9,11,13,15,17,19,21,23,25,27,29,31,33,35,37,39,41,43,45,47,49,51,53,55,57,59,61,63,65,67,69,71,73,75,77,79,81,83,85,87,89,91,93,95,97,99,101,-1,103,-1,105,107,109,-1,111,113,115,117,119,-1,-1,-1,-1,-1,-1,-1,-1,-1,-1,-1,-1,-1,-1,-1,-1,-1,-1,-1,-1,-1,-1,-1,-1,-1,-1,-1,-1,-1,-1,-1,-1,-1,-1,-1,-1,-1,-1,-1,-1,-1,-1,-1,-1,-1,-1,-1,-1,-1,-1,-1,-1,-1,-1,-1,-1,-1,-1],"loss_changes":[1.7421174E3,6.034334E2,3.1876892E2,3.5248996E2,2.6338892E2,1.5511957E2,7.838953E1,1.8021591E2,9.1708405E1,9.086914E1,4.2072517E1,1.3299905E2,2.9784683E1,3.9303833E1,5.6698112E1,1.2253626E2,6.0290527E1,2.1226685E1,6.2234512E1,1.1174692E2,1.36623535E1,7.817992E0,2.417131E1,7.9743E1,2.393991E1,2.9926963E0,2.0395226E1,3.536438E1,3.4476833E1,4.688637E1,1.6479965E1,6.0531364E1,6.994414E1,5.4357952E1,3.5417725E1,1.1807129E1,2.5833363E1,2.319011E1,3.4252018E1,2.3404053E1,1.01363205E2,8.246449E0,7.850708E0,4.251564E0,5.772991E0,1.3712921E1,6.2542934E0,1.4643345E1,6.554164E1,1.5150101E1,2.0317238E1,0E0,1.41449E0,0E0,8.308258E0,3.445114E1,9.941284E0,0E0,1.9688246E1,2.498135E1,1.5430672E1,7.710037E0,1.6325266E1,0E0,0E0,0E0,0E0,0E0,0E0,0E0,0E0,0E0,0E0,0E0,0E0,0E0,0E0,0E0,0E0,0E0,0E0,0E0,0E0,0E0,0E0,0E0,0E0,0E0,0E0,0E0,0E0,0E0,0E0,0E0,0E0,0E0,0E0,0E0,0E0,0E0,0E0,0E0,0E0,0E0,0E0,0E0,0E0,0E0,0E0,0E0,0E0,0E0,0E0,0E0,0E0,0E0,0E0,0E0,0E0,0E0,0E0],"parents":[2147483647,0,0,1,1,2,2,3,3,4,4,5,5,6,6,7,7,8,8,9,9,10,10,11,11,12,12,13,13,14,14,15,15,16,16,17,17,18,18,19,19,20,20,21,21,22,22,23,23,24,24,25,25,26,26,27,27,28,28,29,29,30,30,31,31,32,32,33,33,34,34,35,35,36,36,37,37,38,38,39,39,40,40,41,41,42,42,43,43,44,44,45,45,46,46,47,47,48,48,49,49,50,50,52,52,54,54,55,55,56,56,58,58,59,59,60,60,61,61,62,62],"right_children":[2,4,6,8,10,12,14,16,18,20,22,24,26,28,30,32,34,36,38,40,42,44,46,48,50,52,54,56,58,60,62,64,66,68,70,72,74,76,78,80,82,84,86,88,90,92,94,96,98,100,102,-1,104,-1,106,108,110,-1,112,114,116,118,120,-1,-1,-1,-1,-1,-1,-1,-1,-1,-1,-1,-1,-1,-1,-1,-1,-1,-1,-1,-1,-1,-1,-1,-1,-1,-1,-1,-1,-1,-1,-1,-1,-1,-1,-1,-1,-1,-1,-1,-1,-1,-1,-1,-1,-1,-1,-1,-1,-1,-1,-1,-1,-1,-1,-1,-1,-1,-1],"split_conditions":[-2.8236964E-1,-4.6920213E-1,-2.0368117E-1,2.659409E-1,3.5050493E-1,8.464406E-1,7.61211E-1,-1.0680105E-1,-6.0626954E-1,4.5605257E-1,-3.3968338E-1,-8.580429E-2,-8.53964E-1,4.49927E0,-3.297146E-2,-3.3811915E-1,-3.442036E-1,-1.905747E-1,-3.427591E-1,-3.3833966E-1,-1.776009E0,-7.939209E-1,-2.1263635E-2,-4.4160393E-1,-3.456304E-1,4.353276E-2,-1.202543E0,-3.3646154E-1,-6.4130116E-1,-7.707338E-2,1.3687221E0,-2.724952E-1,1.0675667E-1,-6.3021386E-1,-4.3642953E-1,2.1190736E-1,-8.6889505E-2,-1.4736485E0,-3.5949263E-1,-9.935291E-1,-2.0451693E-1,7.340429E-1,-8.049979E-2,-1.8330769E-1,1.091988E-1,7.4148226E-1,-2.5966674E-1,1.2867777E0,7.817507E-1,9.989893E-1,-2.3502381E-1,1.3279548E-1,-2.9784352E-1,1.08371854E-1,-8.47757E-1,-2.2021388E-1,-1.2090026E0,1.4242113E-1,1.8055918E0,1.3283686E-1,9.1764754E-1,-1.4711423E0,2.749904E-1,-9.6600905E-2,-6.2656696E-3,7.749456E-2,-6.2401075E-2,5.3952426E-2,-7.090998E-2,1.2453207E-1,6.286372E-2,7.49212E-2,-1.2219751E-1,1.2087846E-1,-9.6835665E-2,4.0920667E-2,-9.288636E-2,7.301005E-2,-2.7972117E-2,-6.715756E-2,-1.3035509E-1,-8.795875E-2,2.0895971E-2,-8.5134454E-2,1.0571038E-1,-1.3646634E-1,-9.288712E-2,9.707426E-2,-8.197927E-2,-1.4081554E-1,1.2840922E-2,1.181337E-1,-2.2905136E-2,8.753138E-2,-8.6987995E-2,8.093955E-2,-3.7032586E-2,1.18542565E-2,-1.03975885E-1,1.3316746E-1,-6.7361526E-2,-2.6425028E-2,7.871774E-2,5.6027062E-2,-5.76078E-2,1.44704655E-2,-1.3060285E-1,1.2129674E-1,4.6490073E-2,7.149761E-2,1.312282E-1,4.011218E-2,-1.4878684E-1,1.9461436E-2,-9.006077E-2,8.5502736E-2,-3.1020505E-2,2.0278143E-4,1.166289E-1,7.255914E-2,-1.1577063E-1],"split_indices":[63,62,38,55,61,69,57,9,46,62,70,9,33,61,66,63,63,73,63,63,59,37,53,18,0,24,34,66,13,9,65,66,18,13,57,59,53,13,57,13,46,4,70,21,66,15,62,62,65,1,63,0,41,0,18,2,43,0,73,10,69,43,18,0,0,0,0,0,0,0,0,0,0,0,0,0,0,0,0,0,0,0,0,0,0,0,0,0,0,0,0,0,0,0,0,0,0,0,0,0,0,0,0,0,0,0,0,0,0,0,0,0,0,0,0,0,0,0,0,0,0],"split_type":[0,0,0,0,0,0,0,0,0,0,0,0,0,0,0,0,0,0,0,0,0,0,0,0,0,0,0,0,0,0,0,0,0,0,0,0,0,0,0,0,0,0,0,0,0,0,0,0,0,0,0,0,0,0,0,0,0,0,0,0,0,0,0,0,0,0,0,0,0,0,0,0,0,0,0,0,0,0,0,0,0,0,0,0,0,0,0,0,0,0,0,0,0,0,0,0,0,0,0,0,0,0,0,0,0,0,0,0,0,0,0,0,0,0,0,0,0,0,0,0,0],"sum_hessian":[5.0446157E3,3.0632825E3,1.9813334E3,1.5817286E3,1.4815538E3,6.2493555E2,1.3563978E3,1.0542255E3,5.275032E2,1.3744558E3,1.07098015E2,5.2591583E2,9.90197E1,1.0272769E3,3.2912097E2,4.9956857E2,5.546569E2,2.6717358E2,2.603296E2,7.1722736E2,6.5722845E2,1.809011E1,8.9007904E1,2.862186E2,2.3969724E2,6.805854E0,9.2213844E1,9.955193E2,3.1757545E1,1.683882E2,1.6073279E2,2.9771234E2,2.0185622E2,1.7092271E2,3.8373422E2,2.4601369E2,2.1159897E1,1.2731753E2,1.3301207E2,3.7396457E2,3.432628E2,7.0858603E0,6.501426E2,3.92817E0,1.4161941E1,7.855645E1,1.0451454E1,9.217209E1,1.9404651E2,1.0579731E2,1.3389992E2,4.4238605E0,2.3819933E0,3.2035391E0,8.901031E1,2.4933286E2,7.4618646E2,1.0782493E1,2.0975052E1,8.179735E1,8.659084E1,1.4171986E2,1.9012918E1,1.5958656E2,1.381258E2,1.5644301E2,4.5413204E1,1.23441246E2,4.748147E1,1.7079572E2,2.1293852E2,2.45556E0,2.4355814E2,7.7928643E0,1.3367033E1,1.4037413E1,1.1328011E2,6.236911E1,7.064296E1,7.739105E1,2.9657352E2,1.8659615E2,1.5666666E2,3.7855392E0,3.3003209E0,5.958146E2,5.432805E1,2.7935143E0,1.1346557E0,1.1307772E1,2.854169E0,7.12623E1,7.2941504E0,1.7411507E0,8.710303E0,8.068511E1,1.1486979E1,9.673366E1,9.731286E1,1.0246258E2,3.3347318E0,2.142042E1,1.1247951E2,1.1863352E0,1.1956581E0,3.9393127E0,8.507099E1,1.2528189E2,1.2405097E2,3.3048923E1,7.131375E2,8.999693E0,1.1975359E1,3.996061E1,4.183674E1,7.3716194E1,1.2874649E1,5.9383755E0,1.357815E2,1.3192393E1,5.820525E0],"tree_param":{"num_deleted":"0","num_feature":"74","num_nodes":"121","size_leaf_vector":"1"}},{"base_weights":[7.640702E-3,-4.4507605E-1,6.9647783E-1,-9.7317964E-1,-4.0125255E-3,4.553421E-2,1.1206243E0,-4.0310067E-1,-1.1097002E0,2.9094216E-1,-8.053308E-1,-3.8494143E-1,6.2654215E-1,1.1463372E0,-2.9002684E-1,-1.1802452E0,-1.3969132E-1,-5.4277885E-1,-1.1925102E0,7.174317E-1,-1.4876883E-1,-1.0120968E0,-2.752098E-1,1.2612063E-1,-8.825375E-1,8.947585E-1,-1.6137011E-1,1.2051643E0,5.317782E-1,1.0618286E0,-1.0347862E0,-3.8264057E-1,-1.3779385E0,-4.8466194E-1,6.468292E-1,-9.8512006E-1,1.12768315E-1,-1.3024089E0,-9.727612E-1,2.0606998E-1,9.2299527E-1,-7.196871E-1,3.6655712E-1,-1.1005045E0,2.0555782E-1,-6.4379144E-1,6.1696583E-1,-4.760543E-1,7.1878004E-1,-2.4300155E-1,-1.1854733E0,-3.40983E-1,1.0642956E0,1.2484334E0,-4.5957327E-1,1.2772641E0,8.369505E-1,1.0329884E0,-1.0203052E-1,-3.4543183E-3,1.2435535E-1,7.642427E-1,-1.4853005E0,-1.09198414E-1,3.842228E-2,-1.4058529E-1,-4.1064337E-2,-7.4752174E-2,4.808422E-2,1.021073E-1,-4.413115E-2,8.924365E-2,-1.11827806E-1,-8.132067E-2,4.760588E-2,-2.2686629E-2,-1.3169986E-1,-1.020451E-1,7.696002E-2,-5.851304E-2,6.5130465E-2,1.00041986E-1,-9.605194E-3,1.2261959E-2,-1.0953205E-1,7.623496E-2,-1.592655E-2,-1.1513118E-1,5.0856847E-2,6.542569E-2,-9.688651E-2,1.565032E-2,-9.807503E-2,1.2192166E-1,-2.2714429E-2,-9.251372E-2,4.0184148E-2,1.0883226E-1,-6.5159067E-3,1.10982314E-1,-6.5198615E-2,-1.3052177E-1,-5.275268E-2,-1.1854769E-1,6.323847E-2,-4.5768853E-2,1.11078896E-1,1.4475201E-1,-5.552823E-2,-8.970451E-4,-1.0999029E-1,6.303264E-2,1.2884364E-1,4.312554E-2,1.0810673E-1,1.2044757E-1,1.2373245E-2,-1.1999013E-1,7.111302E-2,1.0938469E-1,-4.3663397E-3,-1.6718598E-1,8.337746E-3],"categories":[],"categories_nodes":[],"categories_segments":[],"categories_sizes":[],"default_left":[0,0,0,0,0,0,0,0,0,0,0,0,0,0,0,0,0,0,0,0,0,0,0,0,0,0,0,0,0,0,0,0,0,0,0,0,0,0,0,0,0,0,0,0,0,0,0,0,0,0,0,0,0,0,0,0,0,0,0,0,0,0,0,0,0,0,0,0,0,0,0,0,0,0,0,0,0,0,0,0,0,0,0,0,0,0,0,0,0,0,0,0,0,0,0,0,0,0,0,0,0,0,0,0,0,0,0,0,0,0,0,0,0,0,0,0,0,0,0,0,0,0,0],"id":7,"left_children":[1,3,5,7,9,11,13,15,17,19,21,23,25,27,29,31,33,35,37,39,41,43,45,47,49,51,53,55,57,59,61,63,65,67,69,71,73,75,77,79,81,83,85,87,89,91,93,95,97,99,101,103,105,107,109,111,113,115,117,-1,-1,119,121,-1,-1,-1,-1,-1,-1,-1,-1,-1,-1,-1,-1,-1,-1,-1,-1,-1,-1,-1,-1,-1,-1,-1,-1,-1,-1,-1,-1,-1,-1,-1,-1,-1,-1,-1,-1,-1,-1,-1,-1,-1,-1,-1,-1,-1,-1,-1,-1,-1,-1,-1,-1,-1,-1,-1,-1,-1,-1,-1,-1],"loss_changes":[1.53401E3,6.913922E2,5.38558E2,1.0468616E2,3.8275684E2,1.9299533E2,4.3174194E1,5.35842E1,5.049121E1,2.220942E2,4.7480164E1,1.128451E2,6.953961E1,4.13031E1,2.3189978E1,9.932137E0,5.3828075E1,4.0901352E1,2.1666382E1,6.2992737E1,1.7198161E2,3.39292E1,4.105201E1,7.870291E1,4.325215E1,5.1718857E1,3.5989418E1,2.7019897E1,3.2871223E1,1.69419E0,1.3012125E1,8.33971E0,8.47641E-1,3.5299557E1,2.5112894E1,2.2022789E1,1.9754454E1,9.588501E0,2.7419617E1,6.154645E1,3.3899628E1,8.7849976E1,6.410219E1,2.4460907E1,1.2245525E1,2.3877934E1,1.8910648E1,4.354651E1,3.2244038E1,4.138691E1,1.1305969E1,2.568162E1,1.5778839E1,6.1819115E0,2.0263817E1,5.569214E0,1.6979324E1,8.845806E0,4.2327663E1,0E0,0E0,1.0050807E0,3.668501E0,0E0,0E0,0E0,0E0,0E0,0E0,0E0,0E0,0E0,0E0,0E0,0E0,0E0,0E0,0E0,0E0,0E0,0E0,0E0,0E0,0E0,0E0,0E0,0E0,0E0,0E0,0E0,0E0,0E0,0E0,0E0,0E0,0E0,0E0,0E0,0E0,0E0,0E0,0E0,0E0,0E0,0E0,0E0,0E0,0E0,0E0,0E0,0E0,0E0,0E0,0E0,0E0,0E0,0E0,0E0,0E0,0E0,0E0,0E0,0E0],"parents":[2147483647,0,0,1,1,2,2,3,3,4,4,5,5,6,6,7,7,8,8,9,9,10,10,11,11,12,12,13,13,14,14,15,15,16,16,17,17,18,18,19,19,20,20,21,21,22,22,23,23,24,24,25,25,26,26,27,27,28,28,29,29,30,30,31,31,32,32,33,33,34,34,35,35,36,36,37,37,38,38,39,39,40,40,41,41,42,42,43,43,44,44,45,45,46,46,47,47,48,48,49,49,50,50,51,51,52,52,53,53,54,54,55,55,56,56,57,57,58,58,61,61,62,62],"right_children":[2,4,6,8,10,12,14,16,18,20,22,24,26,28,30,32,34,36,38,40,42,44,46,48,50,52,54,56,58,60,62,64,66,68,70,72,74,76,78,80,82,84,86,88,90,92,94,96,98,100,102,104,106,108,110,112,114,116,118,-1,-1,120,122,-1,-1,-1,-1,-1,-1,-1,-1,-1,-1,-1,-1,-1,-1,-1,-1,-1,-1,-1,-1,-1,-1,-1,-1,-1,-1,-1,-1,-1,-1,-1,-1,-1,-1,-1,-1,-1,-1,-1,-1,-1,-1,-1,-1,-1,-1,-1,-1,-1,-1,-1,-1,-1,-1,-1,-1,-1,-1,-1,-1],"split_conditions":[-2.841889E-1,-3.432001E-1,-4.6120468E-1,-1.0167572E0,4.657784E-1,-8.141652E-2,5.306912E0,-7.694606E-1,-7.7638996E-1,-6.263397E-1,-3.306675E-1,-3.670939E-1,1.1539733E0,8.464406E-1,-4.7282425E-1,-8.2624453E-1,-3.426018E-1,-5.049477E-1,-5.822816E-1,-4.5231265E-1,-3.3737475E-1,-3.1810576E-1,3.2711262E-1,-1.8837649E-1,-4.9125302E-1,-2.3115171E-1,-3.0858484E-1,4.776993E-1,2.8287914E-1,-2.4238993E-1,-1.4350708E-1,8.639981E-2,1.6814857E0,4.7489867E-1,-4.29727E-1,-8.965348E-1,-6.933393E-1,-9.414021E-1,1.3418795E-1,-5.12027E-1,1.0408467E0,-7.5894326E-1,-1.3396624E-1,6.5398656E-2,-1.0911817E-1,8.7867305E-3,3.250984E-1,-7.5730455E-1,-6.09245E-2,-7.404132E-1,5.9147817E-1,-8.001192E-1,-2.3028677E0,1.2287141E0,6.887032E-1,-4.2228132E-1,-1.345165E-1,2.9498039E-2,4.6801788E-1,-3.4543183E-3,1.2435535E-1,-8.8420376E-2,1.0253692E0,-1.09198414E-1,3.842228E-2,-1.4058529E-1,-4.1064337E-2,-7.4752174E-2,4.808422E-2,1.021073E-1,-4.413115E-2,8.924365E-2,-1.11827806E-1,-8.132067E-2,4.760588E-2,-2.2686629E-2,-1.3169986E-1,-1.020451E-1,7.696002E-2,-5.851304E-2,6.5130465E-2,1.00041986E-1,-9.605194E-3,1.2261959E-2,-1.0953205E-1,7.623496E-2,-1.592655E-2,-1.1513118E-1,5.0856847E-2,6.542569E-2,-9.688651E-2,1.565032E-2,-9.807503E-2,1.2192166E-1,-2.2714429E-2,-9.251372E-2,4.0184148E-2,1.0883226E-1,-6.5159067E-3,1.10982314E-1,-6.5198615E-2,-1.3052177E-1,-5.275268E-2,-1.1854769E-1,6.323847E-2,-4.5768853E-2,1.11078896E-1,1.4475201E-1,-5.552823E-2,-8.970451E-4,-1.0999029E-1,6.303264E-2,1.2884364E-1,4.312554E-2,1.0810673E-1,1.2044757E-1,1.2373245E-2,-1.1999013E-1,7.111302E-2,1.0938469E-1,-4.3663397E-3,-1.6718598E-1,8.337746E-3],"split_indices":[63,26,26,13,55,66,61,26,3,62,63,15,65,69,13,62,63,7,26,9,63,60,27,9,68,63,11,55,15,26,32,50,7,7,15,62,26,62,73,73,15,13,57,73,13,13,65,26,3,62,9,26,1,55,62,66,63,11,26,0,0,55,1,0,0,0,0,0,0,0,0,0,0,0,0,0,0,0,0,0,0,0,0,0,0,0,0,0,0,0,0,0,0,0,0,0,0,0,0,0,0,0,0,0,0,0,0,0,0,0,0,0,0,0,0,0,0,0,0,0,0,0,0],"split_type":[0,0,0,0,0,0,0,0,0,0,0,0,0,0,0,0,0,0,0,0,0,0,0,0,0,0,0,0,0,0,0,0,0,0,0,0,0,0,0,0,0,0,0,0,0,0,0,0,0,0,0,0,0,0,0,0,0,0,0,0,0,0,0,0,0,0,0,0,0,0,0,0,0,0,0,0,0,0,0,0,0,0,0,0,0,0,0,0,0,0,0,0,0,0,0,0,0,0,0,0,0,0,0,0,0,0,0,0,0,0,0,0,0,0,0,0,0,0,0,0,0,0,0],"sum_hessian":[4.9170996E3,2.9672927E3,1.9498069E3,1.3498523E3,1.6174406E3,7.696782E2,1.1801287E3,2.6156573E2,1.0882866E3,1.1827301E3,4.3471042E2,4.42306E2,3.2737225E2,1.1591868E3,2.0941854E1,6.533254E1,1.962332E2,1.3966792E2,9.4861865E2,6.000708E2,5.8265924E2,3.1207925E2,1.2263115E2,2.185688E2,2.237372E2,2.4413103E2,8.324123E1,1.057043E3,1.02143776E2,7.287735E0,1.36541195E1,1.3559903E1,5.1772636E1,1.3667213E2,5.9561077E1,8.3095276E1,5.657265E1,6.290818E2,3.195369E2,1.7263208E2,4.2743872E2,2.762317E2,3.0642758E2,2.9104422E2,2.1035042E1,8.697702E1,3.565413E1,1.0851166E2,1.1005714E2,7.249443E1,1.5124275E2,2.9330719E1,2.1480031E2,1.3976858E1,6.926437E1,8.8189124E2,1.751518E2,5.6686665E1,4.545711E1,1.1513567E0,6.136378E0,2.595037E0,1.1059082E1,6.8238883E0,6.736015E0,4.9879807E1,1.8928311E0,1.0760287E2,2.9069258E1,4.436446E1,1.5196618E1,5.125302E0,7.796997E1,1.5592125E1,4.0980526E1,8.640732E0,6.2044104E2,3.1142722E2,8.109669E0,6.205089E1,1.1058119E2,3.9727322E2,3.01655E1,8.540227E1,1.9082942E2,1.74574E2,1.3185358E2,2.8241144E2,8.632796E0,1.5540546E1,5.494496E0,2.5929255E1,6.1047768E1,2.0548748E1,1.5105382E1,7.175299E1,3.6758667E1,7.453409E1,3.552305E1,1.6430986E1,5.6063446E1,1.27122955E2,2.41198E1,1.5588351E1,1.3742368E1,6.1050167E0,2.086953E2,1.276535E1,1.2115085E0,4.125033E1,2.8014038E1,1.5945775E1,8.6594543E2,6.683916E1,1.08312645E2,4.7418728E1,9.267934E0,1.9140028E1,2.6317083E1,1.5917264E0,1.0033104E0,9.824858E0,1.2342241E0],"tree_param":{"num_deleted":"0","num_feature":"74","num_nodes":"123","size_leaf_vector":"1"}},{"base_weights":[5.8150315E-3,-4.1337332E-1,5.490006E-1,-7.9112536E-1,2.497152E-1,-1.8687764E-2,9.074171E-1,-4.1389287E-1,-1.0202534E0,-3.5840303E-1,5.995792E-1,-2.8350753E-1,9.934059E-1,1.0181208E0,3.168109E-1,-3.518572E-2,-8.470041E-1,-5.932216E-1,-1.1293364E0,-6.200071E-1,2.5962034E-1,6.9833446E-1,-4.0906802E-1,9.316495E-2,-8.845089E-1,1.0811785E0,-4.5168403E-1,8.3638597E-1,1.1631868E0,-2.355361E-1,8.0616784E-1,1.4140162E-1,-9.3114144E-1,9.916183E-1,-9.05784E-1,-8.8898E-1,9.4861984E-2,-1.244981E0,-9.320357E-1,1.9816968E-1,-8.286796E-1,9.490057E-1,-2.580984E-1,2.523316E-1,8.857272E-1,1.3288079E-1,-6.6695076E-1,-7.932062E-1,3.3618605E-1,6.034987E-1,-9.4328946E-1,1.1635259E0,-1.9107857E-1,-1.2459272E-1,1.1912121E-1,-1.3442539E-1,9.031746E-1,-8.117424E-3,1.1852432E0,-7.370998E-1,2.8665814E-1,1.0005982E0,2.7142072E-1,-1.6141772E-2,6.551068E-2,-1.2955064E-1,-4.3607578E-2,1.1944187E-2,1.476725E-1,-1.175426E-1,-5.6510504E-2,-1.0454681E-1,1.8970727E-3,4.0525857E-2,-8.580984E-2,-1.058409E-1,-1.304485E-1,-4.3844506E-2,-1.02644816E-1,-5.6335267E-2,7.571142E-2,-1.0606334E-1,-4.2046655E-2,-6.458654E-2,1.0532182E-1,-8.278314E-2,3.0229587E-2,-1.8298762E-2,5.6850195E-2,1.0885321E-1,5.0254073E-2,-8.337134E-2,7.384159E-2,-1.1500241E-1,-4.9247784E-3,5.579129E-2,-4.9583692E-2,-3.549797E-2,1.4972936E-1,-5.9104305E-2,-1.17499046E-1,-8.4106974E-2,1.21117674E-1,9.57055E-2,-1.2067298E-1,-8.993012E-2,2.7831538E-2,1.01053536E-1,3.3663627E-2,-1.1519046E-1,7.897127E-2,1.19289935E-1,-6.8715684E-2,-1.1127933E-1,-6.4739073E-3,5.896742E-2,-4.4877734E-2,1.09548524E-1,-1.1382078E-2,-6.7928635E-2,6.935908E-2],"categories":[],"categories_nodes":[],"categories_segments":[],"categories_sizes":[],"default_left":[0,0,0,0,0,0,0,0,0,0,0,0,0,0,0,0,0,0,0,0,0,0,0,0,0,0,0,0,0,0,0,0,0,0,0,0,0,0,0,0,0,0,0,0,0,0,0,0,0,0,0,0,0,0,0,0,0,0,0,0,0,0,0,0,0,0,0,0,0,0,0,0,0,0,0,0,0,0,0,0,0,0,0,0,0,0,0,0,0,0,0,0,0,0,0,0,0,0,0,0,0,0,0,0,0,0,0,0,0,0,0,0,0,0,0,0,0,0,0,0,0],"id":8,"left_children":[1,3,5,7,9,11,13,15,17,19,21,23,25,27,29,31,33,35,37,39,41,43,45,47,49,51,53,55,57,59,61,63,65,67,69,71,73,75,77,79,81,83,85,87,89,-1,91,93,95,97,99,101,103,-1,-1,105,107,109,111,113,115,117,119,-1,-1,-1,-1,-1,-1,-1,-1,-1,-1,-1,-1,-1,-1,-1,-1,-1,-1,-1,-1,-1,-1,-1,-1,-1,-1,-1,-1,-1,-1,-1,-1,-1,-1,-1,-1,-1,-1,-1,-1,-1,-1,-1,-1,-1,-1,-1,-1,-1,-1,-1,-1,-1,-1,-1,-1,-1,-1],"loss_changes":[1.0815319E3,6.71728E2,4.2098035E2,1.4722424E2,2.073895E2,2.1515186E2,8.259802E1,1.06119385E2,4.880127E1,5.7758522E1,6.189435E1,1.4410649E2,2.1605148E1,2.717273E1,5.4694153E1,5.4922867E1,3.352072E1,4.4488663E1,1.8115967E1,4.29486E1,3.831083E1,4.6890656E1,2.5888287E1,8.4705124E1,2.2016602E1,1.6696518E1,1.4843754E1,3.1079681E1,1.5281372E1,2.5224312E1,1.0868546E1,4.5243034E1,9.743954E0,3.9820585E0,2.6253403E1,2.1715904E1,2.0017214E1,4.4995117E0,1.4283997E1,2.24462E1,1.8478394E1,8.318584E0,1.99487E1,2.3250996E1,3.0268951E1,0E0,1.2156679E1,2.2413475E1,5.716132E1,9.036789E0,1.8589691E1,1.51392975E1,1.3303427E1,0E0,0E0,1.022751E1,2.683957E1,1.1786225E1,9.137268E0,1.2303608E1,1.0851784E1,8.394325E0,1.2488723E1,0E0,0E0,0E0,0E0,0E0,0E0,0E0,0E0,0E0,0E0,0E0,0E0,0E0,0E0,0E0,0E0,0E0,0E0,0E0,0E0,0E0,0E0,0E0,0E0,0E0,0E0,0E0,0E0,0E0,0E0,0E0,0E0,0E0,0E0,0E0,0E0,0E0,0E0,0E0,0E0,0E0,0E0,0E0,0E0,0E0,0E0,0E0,0E0,0E0,0E0,0E0,0E0,0E0,0E0,0E0,0E0,0E0,0E0],"parents":[2147483647,0,0,1,1,2,2,3,3,4,4,5,5,6,6,7,7,8,8,9,9,10,10,11,11,12,12,13,13,14,14,15,15,16,16,17,17,18,18,19,19,20,20,21,21,22,22,23,23,24,24,25,25,26,26,27,27,28,28,29,29,30,30,31,31,32,32,33,33,34,34,35,35,36,36,37,37,38,38,39,39,40,40,41,41,42,42,43,43,44,44,46,46,47,47,48,48,49,49,50,50,51,51,52,52,55,55,56,56,57,57,58,58,59,59,60,60,61,61,62,62],"right_children":[2,4,6,8,10,12,14,16,18,20,22,24,26,28,30,32,34,36,38,40,42,44,46,48,50,52,54,56,58,60,62,64,66,68,70,72,74,76,78,80,82,84,86,88,90,-1,92,94,96,98,100,102,104,-1,-1,106,108,110,112,114,116,118,120,-1,-1,-1,-1,-1,-1,-1,-1,-1,-1,-1,-1,-1,-1,-1,-1,-1,-1,-1,-1,-1,-1,-1,-1,-1,-1,-1,-1,-1,-1,-1,-1,-1,-1,-1,-1,-1,-1,-1,-1,-1,-1,-1,-1,-1,-1,-1,-1,-1,-1,-1,-1,-1,-1,-1,-1,-1,-1],"split_conditions":[-1.2766738E-1,-2.792863E-1,-4.61127E-1,-5.9048456E-1,6.0957675E-3,-2.5522217E-1,5.691418E-1,2.5361715E-2,-4.2254618E-1,-8.580429E-2,1.8512472E0,2.223635E-1,1.1304574E0,-2.1248308E-1,-2.1248308E-1,-1.5967047E-1,-1.9628705E0,-1.8795379E-1,-2.4262942E-1,-7.162565E-1,-3.477651E-1,-8.293217E-1,-3.5402536E-1,-6.6641855E-1,-1.9029484E0,1.6295713E0,-8.049979E-2,-1.0127516E0,-2.1513627E0,-6.2097585E-1,-3.2744072E-2,-4.7010025E-1,2.6830524E-2,-2.1274402E0,-4.7002298E-1,-1.8222477E-1,5.011593E-1,-3.200841E-1,-7.30076E-1,-1.1061968E0,-6.8725044E-1,-6.4887714E-1,9.9452965E-2,2.3830427E-1,-1.975366E-1,1.3288079E-1,7.473708E-1,3.3235946E-1,2.5541383E-1,1.3543712E0,8.0059916E-1,-1.1041305E0,-8.099353E-2,-1.2459272E-1,1.1912121E-1,1.1087921E-1,5.16747E-1,-3.7796035E-1,9.5829064E-1,-2.5437996E-1,-1.6940381E-2,3.9398935E0,-6.563736E-1,-1.6141772E-2,6.551068E-2,-1.2955064E-1,-4.3607578E-2,1.1944187E-2,1.476725E-1,-1.175426E-1,-5.6510504E-2,-1.0454681E-1,1.8970727E-3,4.0525857E-2,-8.580984E-2,-1.058409E-1,-1.304485E-1,-4.3844506E-2,-1.02644816E-1,-5.6335267E-2,7.571142E-2,-1.0606334E-1,-4.2046655E-2,-6.458654E-2,1.0532182E-1,-8.278314E-2,3.0229587E-2,-1.8298762E-2,5.6850195E-2,1.0885321E-1,5.0254073E-2,-8.337134E-2,7.384159E-2,-1.1500241E-1,-4.9247784E-3,5.579129E-2,-4.9583692E-2,-3.549797E-2,1.4972936E-1,-5.9104305E-2,-1.17499046E-1,-8.4106974E-2,1.21117674E-1,9.57055E-2,-1.2067298E-1,-8.993012E-2,2.7831538E-2,1.01053536E-1,3.3663627E-2,-1.1519046E-1,7.897127E-2,1.19289935E-1,-6.8715684E-2,-1.1127933E-1,-6.4739073E-3,5.896742E-2,-4.4877734E-2,1.09548524E-1,-1.1382078E-2,-6.7928635E-2,6.935908E-2],"split_indices":[26,73,73,62,22,60,55,55,3,9,62,55,62,73,73,15,3,61,46,62,3,26,11,9,3,58,70,9,43,46,53,73,50,2,46,60,55,55,41,50,26,61,73,73,15,0,60,12,41,9,55,9,15,0,0,2,41,9,18,70,62,61,28,0,0,0,0,0,0,0,0,0,0,0,0,0,0,0,0,0,0,0,0,0,0,0,0,0,0,0,0,0,0,0,0,0,0,0,0,0,0,0,0,0,0,0,0,0,0,0,0,0,0,0,0,0,0,0,0,0,0],"split_type":[0,0,0,0,0,0,0,0,0,0,0,0,0,0,0,0,0,0,0,0,0,0,0,0,0,0,0,0,0,0,0,0,0,0,0,0,0,0,0,0,0,0,0,0,0,0,0,0,0,0,0,0,0,0,0,0,0,0,0,0,0,0,0,0,0,0,0,0,0,0,0,0,0,0,0,0,0,0,0,0,0,0,0,0,0,0,0,0,0,0,0,0,0,0,0,0,0,0,0,0,0,0,0,0,0,0,0,0,0,0,0,0,0,0,0,0,0,0,0,0,0],"sum_hessian":[4.7478745E3,2.6799424E3,2.067932E3,1.7071886E3,9.727539E2,8.006875E2,1.2672444E3,6.4616315E2,1.0610254E3,3.5524988E2,6.17504E2,6.3520306E2,1.6548444E2,1.0665969E3,2.0064748E2,3.4530978E2,3.0085336E2,2.171962E2,8.438292E2,2.4959515E2,1.0565472E2,5.6271686E2,5.4787163E1,3.9099515E2,2.442079E2,1.562461E2,9.238338E0,4.7646307E2,5.901339E2,9.4501E1,1.06146484E2,2.8916025E2,5.614952E1,8.828537E0,2.920248E2,1.5169942E2,6.5496796E1,5.2865576E2,3.151735E2,5.073204E1,1.9886311E2,4.49573E1,6.0697422E1,1.6717642E2,3.9554047E2,6.5427446E0,4.824442E1,8.364665E1,3.073485E2,8.928153E0,2.3527975E2,1.4682805E2,9.418047E0,6.390525E0,2.8478138E0,3.0603949E1,4.4585913E2,1.0918884E1,5.79215E2,4.799276E1,4.6508236E1,7.720435E1,2.8942135E1,1.8235265E2,1.068076E2,3.1412962E1,2.4736559E1,3.600819E0,5.2277174E0,1.616395E2,1.3038533E2,1.2926817E2,2.2431236E1,4.983829E1,1.56585045E1,1.3237796E2,3.9627777E2,5.1511913E1,2.636616E2,2.1471186E1,2.9260855E1,1.2578923E2,7.3073875E1,2.438641E0,4.2518658E1,2.9861282E1,3.0836138E1,7.0512505E1,9.6663925E1,2.5744482E2,1.3809564E2,4.349054E1,4.7538795E0,5.616361E1,2.7483046E1,2.4293729E2,6.441121E1,4.599079E0,4.3290734E0,9.476417E1,1.4051558E2,3.022565E0,1.4380548E2,4.447784E0,4.970263E0,1.031315E1,2.0290798E1,3.741692E2,7.1689926E1,4.3043194E0,6.6145654E0,5.772177E2,1.9972945E0,3.036867E1,1.762409E1,3.3077682E1,1.3430554E1,7.116225E1,6.042104E0,8.712642E0,2.0229494E1],"tree_param":{"num_deleted":"0","num_feature":"74","num_nodes":"121","size_leaf_vector":"1"}},{"base_weights":[-4.7844225E-3,-5.442208E-1,4.808766E-1,-1.3510804E-2,-8.244112E-1,-1.21472634E-1,9.1408145E-1,1.9968764E-1,-9.034379E-1,-9.08803E-1,3.2138658E-1,-6.0262215E-1,3.5479707E-1,9.910323E-1,1.267835E-1,-3.7940884E-1,5.196414E-1,-1.0919036E0,-4.1918713E-1,-6.0229605E-1,-1.1373212E0,-6.781603E-1,9.464344E-1,-1.1166745E0,-2.673264E-1,7.9283863E-1,-5.13418E-1,1.0352848E0,2.4200992E-1,-2.9297748E-1,6.944791E-1,6.4391965E-1,-5.671112E-1,6.80947E-1,-2.205502E-1,4.8628974E-1,-1.1321517E0,-1.0479221E0,1.528411E-1,-9.96359E-1,-2.1995223E-1,-1.1655861E0,-7.3467575E-2,-1.0149995E0,4.1840753E-1,1.0998952E0,-5.532452E-1,-1.2360611E0,-4.9632847E-1,4.865383E-1,-8.1594837E-1,8.966345E-1,-8.106948E-1,1.1055775E0,-7.0931417E-1,4.7483087E-1,1.0849099E0,7.080898E-1,-4.7449622E-1,3.2105732E-1,-8.108834E-1,8.47487E-1,-7.0333934E-1,-7.5264364E-2,1.0345081E-1,1.858898E-2,-8.412989E-2,9.092283E-2,1.2672345E-2,1.4618869E-2,-9.7515695E-2,-7.462675E-2,1.3830616E-1,-1.16166584E-1,8.929523E-2,-1.2250506E-1,5.6946743E-2,-7.3727235E-2,6.695383E-2,-3.6441304E-2,-1.0575517E-1,-6.80617E-2,3.1491503E-2,-1.20927505E-1,-7.210151E-2,7.034787E-2,-6.951147E-2,-1.1882656E-1,1.5774388E-2,9.445699E-2,-7.6507926E-2,-4.990864E-4,1.3061666E-1,-1.2128025E-1,9.466564E-2,-9.4049126E-2,-1.3593714E-1,4.7767772E-3,-1.1531277E-1,9.7639956E-2,-2.8357053E-2,-3.6102764E-2,-1.0586472E-1,4.0765293E-2,1.1473663E-1,1.04761936E-1,-1.112385E-1,1.3084286E-1,-2.3302894E-2,3.5065882E-2,-8.891979E-2,-2.8834412E-2,7.9592645E-2,1.1282226E-1,5.5758834E-2,1.1297281E-1,8.899181E-3,-1.5846337E-1,5.214976E-2,1.11566894E-1,-4.565524E-2,6.0293686E-2,-9.781935E-2,9.979819E-2,-3.924003E-2,7.190194E-2,-1.16522126E-1],"categories":[],"categories_nodes":[],"categories_segments":[],"categories_sizes":[],"default_left":[0,0,0,0,0,0,0,0,0,0,0,0,0,0,0,0,0,0,0,0,0,0,0,0,0,0,0,0,0,0,0,0,0,0,0,0,0,0,0,0,0,0,0,0,0,0,0,0,0,0,0,0,0,0,0,0,0,0,0,0,0,0,0,0,0,0,0,0,0,0,0,0,0,0,0,0,0,0,0,0,0,0,0,0,0,0,0,0,0,0,0,0,0,0,0,0,0,0,0,0,0,0,0,0,0,0,0,0,0,0,0,0,0,0,0,0,0,0,0,0,0,0,0,0,0,0,0],"id":9,"left_children":[1,3,5,7,9,11,13,15,17,19,21,23,25,27,29,31,33,35,37,39,41,43,45,47,49,51,53,55,57,59,61,63,65,67,69,71,73,75,77,79,81,83,85,87,89,91,93,95,97,99,101,103,105,107,109,111,113,115,117,119,121,123,125,-1,-1,-1,-1,-1,-1,-1,-1,-1,-1,-1,-1,-1,-1,-1,-1,-1,-1,-1,-1,-1,-1,-1,-1,-1,-1,-1,-1,-1,-1,-1,-1,-1,-1,-1,-1,-1,-1,-1,-1,-1,-1,-1,-1,-1,-1,-1,-1,-1,-1,-1,-1,-1,-1,-1,-1,-1,-1,-1,-1,-1,-1,-1,-1],"loss_changes":[1.2070322E3,3.2456995E2,6.327604E2,1.4347243E2,1.3842755E2,2.3283685E2,8.5319214E1,1.1323779E2,1.2880066E1,9.252869E1,6.233021E1,8.6802795E1,1.946637E2,4.2330444E1,3.040112E1,4.2180832E1,4.7120445E1,7.19326E0,1.5469297E1,8.574277E1,2.2805786E1,1.4671659E1,1.4685677E1,1.413797E1,1.27436935E2,5.7297714E1,5.5300674E1,3.321277E1,2.4703709E1,2.3652449E1,1.2180899E1,1.9439604E1,3.8246395E1,4.078195E1,1.983174E1,4.679941E0,7.150345E0,6.543453E0,1.1145795E1,1.0468658E1,7.188048E1,1.3530273E1,1.0520506E1,6.2425556E0,6.807791E0,1.2729118E1,7.423539E0,4.7849426E0,1.2139959E1,4.932208E1,1.9288002E1,3.8728333E1,1.3044291E1,5.449074E0,2.9665298E1,2.4837738E1,2.4797241E1,1.1544609E1,3.3286133E1,2.1747496E1,1.0095562E1,9.586197E0,4.7077074E0,0E0,0E0,0E0,0E0,0E0,0E0,0E0,0E0,0E0,0E0,0E0,0E0,0E0,0E0,0E0,0E0,0E0,0E0,0E0,0E0,0E0,0E0,0E0,0E0,0E0,0E0,0E0,0E0,0E0,0E0,0E0,0E0,0E0,0E0,0E0,0E0,0E0,0E0,0E0,0E0,0E0,0E0,0E0,0E0,0E0,0E0,0E0,0E0,0E0,0E0,0E0,0E0,0E0,0E0,0E0,0E0,0E0,0E0,0E0,0E0,0E0,0E0,0E0,0E0],"parents":[2147483647,0,0,1,1,2,2,3,3,4,4,5,5,6,6,7,7,8,8,9,9,10,10,11,11,12,12,13,13,14,14,15,15,16,16,17,17,18,18,19,19,20,20,21,21,22,22,23,23,24,24,25,25,26,26,27,27,28,28,29,29,30,30,31,31,32,32,33,33,34,34,35,35,36,36,37,37,38,38,39,39,40,40,41,41,42,42,43,43,44,44,45,45,46,46,47,47,48,48,49,49,50,50,51,51,52,52,53,53,54,54,55,55,56,56,57,57,58,58,59,59,60,60,61,61,62,62],"right_children":[2,4,6,8,10,12,14,16,18,20,22,24,26,28,30,32,34,36,38,40,42,44,46,48,50,52,54,56,58,60,62,64,66,68,70,72,74,76,78,80,82,84,86,88,90,92,94,96,98,100,102,104,106,108,110,112,114,116,118,120,122,124,126,-1,-1,-1,-1,-1,-1,-1,-1,-1,-1,-1,-1,-1,-1,-1,-1,-1,-1,-1,-1,-1,-1,-1,-1,-1,-1,-1,-1,-1,-1,-1,-1,-1,-1,-1,-1,-1,-1,-1,-1,-1,-1,-1,-1,-1,-1,-1,-1,-1,-1,-1,-1,-1,-1,-1,-1,-1,-1,-1,-1,-1,-1,-1,-1],"split_conditions":[-3.218776E-1,-7.207238E-1,-4.0750325E-1,7.4526864E-1,1.8257345E0,-1.4026974E-1,1.0302783E0,-3.432001E-1,4.2231777E-1,-3.167179E-1,-2.644795E-1,-8.293217E-1,1.1638136E0,1.6203785E0,-1.6002628E-1,-1.4056621E0,3.9999762E-1,-1.9628705E0,-4.8380998E-1,-3.8496366E-1,4.145217E-1,6.334096E-1,1.2867777E0,-8.259683E-3,-4.5094317E-1,8.464406E-1,-9.291608E-1,-8.2037085E-1,1.9425812E-1,-2.7711022E-1,1.0809696E0,-6.7164296E-1,-3.1901714E-1,5.32996E-1,2.3457499E-1,-1.6004846E0,3.8509793E0,8.6605346E-1,-1.12223834E-1,-1.4736485E0,-1.8837649E-1,7.2654986E-1,-1.4181535E-1,7.776413E-1,1.0922364E0,-7.040446E-1,7.7634513E-1,-4.0908387E-1,-1.5117559E-1,-6.5102905E-2,-1.5967047E-1,-6.1113966E-1,-9.463502E-1,4.526698E-1,-2.340506E-1,-2.841889E-1,1.4895741E0,-2.1342148E-1,6.900616E-1,-7.375748E-2,-6.9960845E-1,6.559912E-2,8.046462E-2,-7.5264364E-2,1.0345081E-1,1.858898E-2,-8.412989E-2,9.092283E-2,1.2672345E-2,1.4618869E-2,-9.7515695E-2,-7.462675E-2,1.3830616E-1,-1.16166584E-1,8.929523E-2,-1.2250506E-1,5.6946743E-2,-7.3727235E-2,6.695383E-2,-3.6441304E-2,-1.0575517E-1,-6.80617E-2,3.1491503E-2,-1.20927505E-1,-7.210151E-2,7.034787E-2,-6.951147E-2,-1.1882656E-1,1.5774388E-2,9.445699E-2,-7.6507926E-2,-4.990864E-4,1.3061666E-1,-1.2128025E-1,9.466564E-2,-9.4049126E-2,-1.3593714E-1,4.7767772E-3,-1.1531277E-1,9.7639956E-2,-2.8357053E-2,-3.6102764E-2,-1.0586472E-1,4.0765293E-2,1.1473663E-1,1.04761936E-1,-1.112385E-1,1.3084286E-1,-2.3302894E-2,3.5065882E-2,-8.891979E-2,-2.8834412E-2,7.9592645E-2,1.1282226E-1,5.5758834E-2,1.1297281E-1,8.899181E-3,-1.5846337E-1,5.214976E-2,1.11566894E-1,-4.565524E-2,6.0293686E-2,-9.781935E-2,9.979819E-2,-3.924003E-2,7.190194E-2,-1.16522126E-1],"split_indices":[63,62,26,55,60,63,55,26,22,13,26,26,65,69,63,13,41,3,45,26,61,12,62,60,15,69,33,22,15,62,10,7,3,3,6,0,24,58,25,13,9,45,55,9,46,9,46,65,65,62,15,13,33,11,37,63,62,11,26,53,37,68,65,0,0,0,0,0,0,0,0,0,0,0,0,0,0,0,0,0,0,0,0,0,0,0,0,0,0,0,0,0,0,0,0,0,0,0,0,0,0,0,0,0,0,0,0,0,0,0,0,0,0,0,0,0,0,0,0,0,0,0,0,0,0,0,0],"split_type":[0,0,0,0,0,0,0,0,0,0,0,0,0,0,0,0,0,0,0,0,0,0,0,0,0,0,0,0,0,0,0,0,0,0,0,0,0,0,0,0,0,0,0,0,0,0,0,0,0,0,0,0,0,0,0,0,0,0,0,0,0,0,0,0,0,0,0,0,0,0,0,0,0,0,0,0,0,0,0,0,0,0,0,0,0,0,0,0,0,0,0,0,0,0,0,0,0,0,0,0,0,0,0,0,0,0,0,0,0,0,0,0,0,0,0,0,0,0,0,0,0,0,0,0,0,0,0],"sum_hessian":[4.6052896E3,2.1817937E3,2.4234958E3,7.542374E2,1.4275564E3,1.01412555E3,1.4093702E3,6.0909344E2,1.4514395E2,1.3298177E3,9.7738594E1,5.0434637E2,5.0977917E2,1.2836472E3,1.2572304E2,2.1669789E2,3.9239557E2,1.03577705E2,4.156625E1,5.6954034E2,7.602774E2,3.7571327E1,6.0167263E1,1.9818E2,3.0616638E2,3.3888693E2,1.7089223E2,1.2116788E3,7.1968376E1,7.255725E1,5.3165787E1,3.321012E1,1.8348778E2,3.2224966E2,7.014592E1,2.3002198E0,1.0127749E2,1.9405302E1,2.2160948E1,2.79681E2,2.8985934E2,7.405077E2,1.976975E1,2.879927E1,8.772056E0,5.4823776E1,5.3434896E0,1.653631E2,3.28169E1,1.2900838E2,1.77158E2,3.186986E2,2.0188353E1,1.7944569E1,1.5294766E2,9.942043E1,1.1122583E3,4.3611374E1,2.8357004E1,3.3371605E1,3.9185646E1,4.82752E1,4.890588E0,7.055603E0,2.6154518E1,4.9064392E1,1.3442339E2,2.277856E2,9.446406E1,4.77471E1,2.2398819E1,1.0394244E0,1.2607954E0,1.00242905E2,1.0345836E0,1.7708529E1,1.6967744E0,7.9825416E0,1.4178407E1,2.530525E1,2.5437576E2,1.5558566E2,1.3427367E2,6.7268176E2,6.782591E1,8.728754E0,1.10409975E1,2.508053E1,3.7187402E0,6.21211E0,2.5599456E0,8.77839E0,4.6045383E1,3.8443925E0,1.4990973E0,5.1219387E1,1.1414371E2,1.8455515E1,1.43613825E1,7.868774E1,5.0320633E1,6.249791E1,1.14660095E2,1.0891548E2,2.0978311E2,2.4743924E0,1.771396E1,1.5602694E1,2.341875E0,2.2052565E1,1.308951E2,2.9472546E1,6.994789E1,1.0267821E3,8.54763E1,2.5452255E1,1.8159119E1,1.3130597E1,1.5226407E1,1.6290344E1,1.7081263E1,3.8709822E0,3.5314663E1,4.322388E1,5.051318E0,1.062357E0,3.8282309E0],"tree_param":{"num_deleted":"0","num_feature":"74","num_nodes":"127","size_leaf_vector":"1"}},{"base_weights":[-2.3029721E-3,-4.621416E-1,5.272932E-1,-6.987138E-1,1.276772E-1,-2.5804627E-1,8.1294197E-1,-1.5733778E-1,-8.868173E-1,4.8692176E-1,-5.1902616E-1,-1.0481962E0,8.084935E-2,9.288784E-1,1.2586753E-1,-9.0480465E-1,5.130821E-2,-4.599621E-1,-1.0304933E0,-5.080906E-1,6.938287E-1,-6.75446E-1,4.5755944E-1,-3.0936345E-1,-1.1554127E0,5.964571E-1,-6.0372454E-1,5.6304723E-1,1.0888139E0,-8.1238914E-1,5.211345E-1,1.0001432E0,-1.0155354E0,2.6669103E-1,-8.338003E-1,-7.9939973E-1,2.7106984E-2,-1.1493514E0,-7.454819E-1,-6.648649E-1,8.8294935E-1,8.453339E-1,-6.164632E-1,-3.585082E-1,-1.0476935E0,6.9988513E-1,-9.5090646E-1,8.0073804E-1,-8.8748974E-1,-1.1886595E0,4.031718E-1,-1.2000314E-3,9.5194954E-1,-8.724335E-1,5.759677E-1,1.6941924E-1,9.168341E-1,2.8996474E-1,1.1174858E0,-1.0463399E0,4.9302578E-1,1.0799487E0,-8.9018E-2,-3.4636278E-2,1.3943288E-1,-1.10112146E-1,4.9380362E-2,-9.020055E-2,4.1737985E-2,3.3294873E-3,-1.12605594E-1,-8.851794E-2,2.949347E-2,-8.5210524E-2,5.9448253E-2,-1.1685175E-1,-2.5195772E-2,1.2352707E-2,-9.144243E-2,2.3244547E-2,-8.7312646E-2,1.2726901E-1,-4.5945484E-2,-3.5192516E-2,9.510883E-2,-1.1544579E-1,1.6939275E-2,-9.214176E-2,8.709893E-4,-1.2924711E-1,-2.6898934E-2,-8.1808135E-2,8.9853466E-2,-1.2988958E-1,1.5501511E-2,1.3808514E-1,-2.503768E-2,6.312624E-2,-1.1563925E-1,-6.52573E-3,-1.2102306E-1,1.2629281E-1,-5.6796122E-2,5.99727E-2,-5.8027506E-2,1.0481923E-1,-2.1618558E-2,-1.0469293E-1,2.5442773E-2,-1.4865421E-2,1.1349904E-1,-5.0314266E-2,5.502295E-2,6.270646E-2,1.1241894E-1,1.0029365E-1,-8.0566846E-2,1.1635846E-1,7.556675E-2,-4.168471E-2,-1.3257794E-1,-9.507286E-2,1.1623019E-1,-2.9165728E-2,1.1547247E-1,9.8530374E-2,-6.1181616E-2],"categories":[],"categories_nodes":[],"categories_segments":[],"categories_sizes":[],"default_left":[0,0,0,0,0,0,0,0,0,0,0,0,0,0,0,0,0,0,0,0,0,0,0,0,0,0,0,0,0,0,0,0,0,0,0,0,0,0,0,0,0,0,0,0,0,0,0,0,0,0,0,0,0,0,0,0,0,0,0,0,0,0,0,0,0,0,0,0,0,0,0,0,0,0,0,0,0,0,0,0,0,0,0,0,0,0,0,0,0,0,0,0,0,0,0,0,0,0,0,0,0,0,0,0,0,0,0,0,0,0,0,0,0,0,0,0,0,0,0,0,0,0,0,0,0,0,0],"id":10,"left_children":[1,3,5,7,9,11,13,15,17,19,21,23,25,27,29,31,33,35,37,39,41,43,45,47,49,51,53,55,57,59,61,63,65,67,69,71,73,75,77,79,81,83,85,87,89,91,93,95,97,99,101,103,105,107,109,111,113,115,117,119,121,123,125,-1,-1,-1,-1,-1,-1,-1,-1,-1,-1,-1,-1,-1,-1,-1,-1,-1,-1,-1,-1,-1,-1,-1,-1,-1,-1,-1,-1,-1,-1,-1,-1,-1,-1,-1,-1,-1,-1,-1,-1,-1,-1,-1,-1,-1,-1,-1,-1,-1,-1,-1,-1,-1,-1,-1,-1,-1,-1,-1,-1,-1,-1,-1,-1],"loss_changes":[1.0790541E3,3.3101624E2,4.621665E2,1.7225311E2,1.5818246E2,1.4736159E2,1.201864E2,6.831431E1,7.656293E1,9.04296E1,3.7466904E1,1.2725601E1,1.3654941E2,7.498462E1,8.171805E1,2.1176605E1,6.5641396E1,5.2618797E1,3.0952576E1,1.7138662E1,7.251007E1,2.4408203E1,1.2330826E1,1.5019471E1,7.93396E0,4.6866356E1,5.3204445E1,5.4867767E1,2.0243164E1,2.047847E1,5.289065E1,3.5372162E0,1.2276215E1,4.911583E1,1.7118557E1,1.7863205E1,6.61653E1,1.1071045E1,4.1101547E1,1.3056295E1,4.831473E0,4.154457E1,1.6330338E1,2.377647E1,1.7967033E1,9.702114E0,2.2953572E0,5.3218575E0,6.91101E0,3.3405762E0,3.849512E0,2.9323748E1,1.5776375E1,2.6970879E1,1.2906961E1,4.8491318E1,1.1784302E1,2.6166323E1,1.3573364E1,9.254253E0,1.1360815E1,8.633766E0,4.2695217E1,0E0,0E0,0E0,0E0,0E0,0E0,0E0,0E0,0E0,0E0,0E0,0E0,0E0,0E0,0E0,0E0,0E0,0E0,0E0,0E0,0E0,0E0,0E0,0E0,0E0,0E0,0E0,0E0,0E0,0E0,0E0,0E0,0E0,0E0,0E0,0E0,0E0,0E0,0E0,0E0,0E0,0E0,0E0,0E0,0E0,0E0,0E0,0E0,0E0,0E0,0E0,0E0,0E0,0E0,0E0,0E0,0E0,0E0,0E0,0E0,0E0,0E0,0E0,0E0],"parents":[2147483647,0,0,1,1,2,2,3,3,4,4,5,5,6,6,7,7,8,8,9,9,10,10,11,11,12,12,13,13,14,14,15,15,16,16,17,17,18,18,19,19,20,20,21,21,22,22,23,23,24,24,25,25,26,26,27,27,28,28,29,29,30,30,31,31,32,32,33,33,34,34,35,35,36,36,37,37,38,38,39,39,40,40,41,41,42,42,43,43,44,44,45,45,46,46,47,47,48,48,49,49,50,50,51,51,52,52,53,53,54,54,55,55,56,56,57,57,58,58,59,59,60,60,61,61,62,62],"right_children":[2,4,6,8,10,12,14,16,18,20,22,24,26,28,30,32,34,36,38,40,42,44,46,48,50,52,54,56,58,60,62,64,66,68,70,72,74,76,78,80,82,84,86,88,90,92,94,96,98,100,102,104,106,108,110,112,114,116,118,120,122,124,126,-1,-1,-1,-1,-1,-1,-1,-1,-1,-1,-1,-1,-1,-1,-1,-1,-1,-1,-1,-1,-1,-1,-1,-1,-1,-1,-1,-1,-1,-1,-1,-1,-1,-1,-1,-1,-1,-1,-1,-1,-1,-1,-1,-1,-1,-1,-1,-1,-1,-1,-1,-1,-1,-1,-1,-1,-1,-1,-1,-1,-1,-1,-1,-1],"split_conditions":[-2.3390384E-1,1.3321511E-1,-6.933393E-1,-7.769883E-1,4.1831762E-1,-2.1684867E-1,1.0980266E0,-2.6024285E-1,-8.349082E-1,-7.1183664E-1,-2.2929813E-1,-6.635054E-1,8.349569E-1,-3.3899584E-1,-2.8012663E-1,-1.7416683E0,-9.766764E-2,-3.4363636E-1,-2.4991159E-1,1.4957533E0,7.008727E-1,1.828795E-1,1.1398723E-1,-2.7430868E-1,8.563894E-1,-1.9923337E-1,4.802367E-1,1.220319E-1,-3.2929686E-1,1.9783278E-1,1.0256753E0,-5.478614E-1,2.367989E0,-8.1791866E-1,-2.0883755E-1,1.957943E0,-6.112112E-1,2.6227817E-1,-2.805748E-1,-7.537E-1,-2.7711022E-1,-3.7998232E-1,-3.3526084E-1,-4.5961854E-1,-3.2046968E-1,4.2356998E-1,1.2941322E0,1.1738241E-1,-6.1321956E-1,-1.202543E0,-1.3046293E-1,-7.005623E-1,1.2493743E0,4.617018E-1,6.083687E-1,-7.330333E-1,-1.7660503E-1,-1.9580314E-1,7.4526864E-1,-2.386531E-1,-1.4138517E-1,-2.109402E-1,-4.0333453E-1,-3.4636278E-2,1.3943288E-1,-1.10112146E-1,4.9380362E-2,-9.020055E-2,4.1737985E-2,3.3294873E-3,-1.12605594E-1,-8.851794E-2,2.949347E-2,-8.5210524E-2,5.9448253E-2,-1.1685175E-1,-2.5195772E-2,1.2352707E-2,-9.144243E-2,2.3244547E-2,-8.7312646E-2,1.2726901E-1,-4.5945484E-2,-3.5192516E-2,9.510883E-2,-1.1544579E-1,1.6939275E-2,-9.214176E-2,8.709893E-4,-1.2924711E-1,-2.6898934E-2,-8.1808135E-2,8.9853466E-2,-1.2988958E-1,1.5501511E-2,1.3808514E-1,-2.503768E-2,6.312624E-2,-1.1563925E-1,-6.52573E-3,-1.2102306E-1,1.2629281E-1,-5.6796122E-2,5.99727E-2,-5.8027506E-2,1.0481923E-1,-2.1618558E-2,-1.0469293E-1,2.5442773E-2,-1.4865421E-2,1.1349904E-1,-5.0314266E-2,5.502295E-2,6.270646E-2,1.1241894E-1,1.0029365E-1,-8.0566846E-2,1.1635846E-1,7.556675E-2,-4.168471E-2,-1.3257794E-1,-9.507286E-2,1.1623019E-1,-2.9165728E-2,1.1547247E-1,9.8530374E-2,-6.1181616E-2],"split_indices":[64,26,26,62,15,63,62,64,13,9,60,62,65,66,63,13,15,63,64,27,13,13,62,70,73,66,64,9,63,61,65,9,60,26,36,60,26,73,11,33,62,70,63,45,63,26,60,21,39,34,11,20,32,9,61,44,27,62,55,55,52,67,13,0,0,0,0,0,0,0,0,0,0,0,0,0,0,0,0,0,0,0,0,0,0,0,0,0,0,0,0,0,0,0,0,0,0,0,0,0,0,0,0,0,0,0,0,0,0,0,0,0,0,0,0,0,0,0,0,0,0,0,0,0,0,0,0],"split_type":[0,0,0,0,0,0,0,0,0,0,0,0,0,0,0,0,0,0,0,0,0,0,0,0,0,0,0,0,0,0,0,0,0,0,0,0,0,0,0,0,0,0,0,0,0,0,0,0,0,0,0,0,0,0,0,0,0,0,0,0,0,0,0,0,0,0,0,0,0,0,0,0,0,0,0,0,0,0,0,0,0,0,0,0,0,0,0,0,0,0,0,0,0,0,0,0,0,0,0,0,0,0,0,0,0,0,0,0,0,0,0,0,0,0,0,0,0,0,0,0,0,0,0,0,0,0,0],"sum_hessian":[4.4289087E3,2.370647E3,2.0582617E3,1.6918666E3,6.7878033E2,5.4899524E2,1.5092665E3,4.3673816E2,1.2551284E3,4.3653284E2,2.4224748E2,1.6415881E2,3.8483643E2,1.2910616E3,2.1820477E2,9.457828E1,3.4215988E2,3.1713498E2,9.379934E2,7.4897285E1,3.6163556E2,2.090692E2,3.317828E1,2.129557E1,1.4286325E2,2.1958101E2,1.6525543E2,3.9410938E2,8.9695233E2,6.436482E1,1.5383995E2,4.754384E0,8.98239E1,2.7575598E2,6.640392E1,1.8651308E2,1.306219E2,6.598033E2,2.7819012E2,6.778029E1,7.1169977E0,3.244726E2,3.716296E1,1.1398421E2,9.5085E1,2.8737156E1,4.4411225E0,7.1607146E0,1.4134856E1,1.401118E2,2.751439E0,8.226797E1,1.3731303E2,1.348092E2,3.0446228E1,1.8725067E2,2.0685869E2,3.1462538E1,8.654898E2,5.475104E1,9.613779E0,7.989623E1,7.394372E1,1.1041199E0,3.6502638E0,8.5259766E1,4.5641346E0,3.092502E1,2.4483095E2,1.6962843E1,4.9441082E1,1.7313313E2,1.33799515E1,5.1035233E1,7.958667E1,6.457104E2,1.4092937E1,4.5323433E1,2.3286668E2,1.2746202E1,5.5034084E1,5.555887E0,1.5611104E0,2.6145735E1,2.9832687E2,2.1782013E1,1.5380948E1,4.4405594E1,6.957861E1,7.184233E1,2.3242666E1,2.9646654E0,2.5772491E1,3.2454255E0,1.1956972E0,4.412011E0,2.7487037E0,1.9234929E0,1.2211364E1,2.7155187E0,1.3739629E2,1.3000342E0,1.451405E0,4.035474E1,4.1913227E1,1.2695582E2,1.03572235E1,1.1679439E2,1.8014814E1,1.3578914E1,1.6867315E1,6.757787E1,1.196728E2,8.796113E1,1.1889756E2,1.9110916E1,1.2351622E1,7.65715E2,9.977474E1,1.7598549E1,3.7152493E1,2.9118464E0,6.701933E0,3.980583E0,7.591565E1,2.3915009E1,5.002871E1],"tree_param":{"num_deleted":"0","num_feature":"74","num_nodes":"127","size_leaf_vector":"1"}},{"base_weights":[1.6926436E-3,-4.4895223E-1,4.5807227E-1,-1.6688024E-1,-8.9314735E-1,-1.1495852E-1,8.0277324E-1,-7.1455777E-1,1.6804431E-1,-2.747694E-1,-1.014222E0,-7.777057E-1,2.0310369E-1,-2.509163E-1,8.7945104E-1,-1.648551E-1,-9.0576357E-1,5.408072E-1,-3.124523E-1,-9.2202324E-1,1.1347044E-1,-1.1400212E0,-7.4400645E-1,-1.0577366E0,-2.4247165E-1,-3.155969E-1,5.472361E-1,4.383058E-1,-9.2972904E-1,4.5979849E-1,9.9947226E-1,-8.6450887E-1,1.6704683E-1,-4.8605937E-1,-1.0474744E0,-3.1106472E-1,6.968939E-1,-7.5598E-1,2.3583002E-1,1.5167376E-1,-1.0333285E0,-1.0188957E0,3.3119613E-1,-1.1495745E0,6.243686E-1,-1.1415967E0,-4.7651333E-1,-2.3749651E-1,-1.118031E0,6.667087E-1,-4.8014355E-1,-5.965194E-1,4.8425758E-1,-4.0177342E-1,7.442767E-1,-3.3036798E-1,9.450687E-1,3.1956598E-1,-1.0940021E0,8.2270306E-1,-9.6113704E-2,1.0473863E0,4.8271936E-1,-4.0926365E-3,-1.0417668E-1,-8.023531E-2,4.0228583E-2,-6.5664016E-2,6.324689E-2,-1.1585831E-1,-7.684041E-2,1.5966967E-2,-1.0241186E-1,-9.6448854E-4,8.599831E-2,-8.373275E-2,3.6466558E-2,6.47858E-2,-4.044724E-2,7.00151E-2,-7.642329E-2,2.3429535E-2,-1.0983155E-1,-1.2639217E-1,2.251978E-2,6.74755E-2,-4.993167E-2,-8.864342E-2,-1.1995504E-1,1.037921E-3,9.0180814E-2,-1.18232824E-1,-2.5027564E-2,-7.788945E-2,3.1058807E-2,-1.009525E-1,6.449285E-2,-5.5974156E-2,-1.20236985E-1,1.0318088E-1,-6.0725983E-2,2.4972513E-2,-7.6110534E-2,3.1048149E-2,-7.7673905E-2,9.361052E-2,-4.2058E-2,-1.1080426E-1,2.0973463E-2,8.939894E-2,-1.0143637E-2,4.4336088E-2,-8.365254E-2,-3.5762183E-2,1.1945506E-1,-8.3431825E-2,1.1734227E-1,-1.15520574E-1,5.1849432E-2,3.8430538E-2,1.12091206E-1,-1.2555806E-1,7.1378976E-2,1.1557814E-1,8.861083E-2,1.5543832E-2,1.1578796E-1],"categories":[],"categories_nodes":[],"categories_segments":[],"categories_sizes":[],"default_left":[0,0,0,0,0,0,0,0,0,0,0,0,0,0,0,0,0,0,0,0,0,0,0,0,0,0,0,0,0,0,0,0,0,0,0,0,0,0,0,0,0,0,0,0,0,0,0,0,0,0,0,0,0,0,0,0,0,0,0,0,0,0,0,0,0,0,0,0,0,0,0,0,0,0,0,0,0,0,0,0,0,0,0,0,0,0,0,0,0,0,0,0,0,0,0,0,0,0,0,0,0,0,0,0,0,0,0,0,0,0,0,0,0,0,0,0,0,0,0,0,0,0,0,0,0,0,0],"id":11,"left_children":[1,3,5,7,9,11,13,15,17,19,21,23,25,27,29,31,33,35,37,39,41,43,45,47,49,51,53,55,57,59,61,63,65,67,69,71,73,75,77,79,81,83,85,87,89,91,93,95,97,99,101,103,105,107,109,111,113,115,117,119,121,123,125,-1,-1,-1,-1,-1,-1,-1,-1,-1,-1,-1,-1,-1,-1,-1,-1,-1,-1,-1,-1,-1,-1,-1,-1,-1,-1,-1,-1,-1,-1,-1,-1,-1,-1,-1,-1,-1,-1,-1,-1,-1,-1,-1,-1,-1,-1,-1,-1,-1,-1,-1,-1,-1,-1,-1,-1,-1,-1,-1,-1,-1,-1,-1,-1],"loss_changes":[8.793264E2,2.693957E2,4.1968207E2,2.4169516E2,6.225995E1,1.6852888E2,1.0739484E2,5.2398697E1,1.4668771E2,3.4817635E1,2.2884216E1,3.8597137E1,9.665559E1,4.2870018E1,6.1831604E1,3.0389343E1,2.1539215E1,6.151738E1,8.723781E1,6.3594933E0,2.1845299E1,8.71582E0,2.334896E1,8.136505E0,1.9840984E1,4.8871395E1,6.1128326E1,1.8119644E1,9.799404E0,5.594134E1,2.3284546E1,6.0987225E0,2.0658663E1,1.8624924E1,7.676056E0,2.4358856E1,4.4940872E1,1.836876E1,4.2700356E1,3.4221659E0,4.141945E0,4.647977E0,2.1429409E1,5.147644E0,5.363219E-1,2.9584427E0,3.2614838E1,9.441236E0,6.7658844E0,9.529183E0,1.49953575E1,2.6470165E1,2.3596489E1,2.4668102E1,3.424144E1,7.7744265E0,9.465393E0,7.0136757E0,4.637474E0,2.1485031E1,1.0443814E2,1.4332764E1,1.824554E1,0E0,0E0,0E0,0E0,0E0,0E0,0E0,0E0,0E0,0E0,0E0,0E0,0E0,0E0,0E0,0E0,0E0,0E0,0E0,0E0,0E0,0E0,0E0,0E0,0E0,0E0,0E0,0E0,0E0,0E0,0E0,0E0,0E0,0E0,0E0,0E0,0E0,0E0,0E0,0E0,0E0,0E0,0E0,0E0,0E0,0E0,0E0,0E0,0E0,0E0,0E0,0E0,0E0,0E0,0E0,0E0,0E0,0E0,0E0,0E0,0E0,0E0,0E0,0E0],"parents":[2147483647,0,0,1,1,2,2,3,3,4,4,5,5,6,6,7,7,8,8,9,9,10,10,11,11,12,12,13,13,14,14,15,15,16,16,17,17,18,18,19,19,20,20,21,21,22,22,23,23,24,24,25,25,26,26,27,27,28,28,29,29,30,30,31,31,32,32,33,33,34,34,35,35,36,36,37,37,38,38,39,39,40,40,41,41,42,42,43,43,44,44,45,45,46,46,47,47,48,48,49,49,50,50,51,51,52,52,53,53,54,54,55,55,56,56,57,57,58,58,59,59,60,60,61,61,62,62],"right_children":[2,4,6,8,10,12,14,16,18,20,22,24,26,28,30,32,34,36,38,40,42,44,46,48,50,52,54,56,58,60,62,64,66,68,70,72,74,76,78,80,82,84,86,88,90,92,94,96,98,100,102,104,106,108,110,112,114,116,118,120,122,124,126,-1,-1,-1,-1,-1,-1,-1,-1,-1,-1,-1,-1,-1,-1,-1,-1,-1,-1,-1,-1,-1,-1,-1,-1,-1,-1,-1,-1,-1,-1,-1,-1,-1,-1,-1,-1,-1,-1,-1,-1,-1,-1,-1,-1,-1,-1,-1,-1,-1,-1,-1,-1,-1,-1,-1,-1,-1,-1,-1,-1,-1,-1,-1,-1],"split_conditions":[-2.3959266E-1,-1.3143706E-1,-4.7278672E-1,-4.4063094E-1,-5.986926E-1,-3.3999854E-1,-3.306675E-1,-1.1852901E0,-8.8420376E-2,-3.3789647E-1,-1.149177E-1,3.61302E-1,-2.0368117E-1,6.3447183E-1,-3.7984076E-1,8.058357E-2,-3.0635193E-1,-2.6020384E-1,-3.427591E-1,-2.2949855E0,-6.6460323E-1,2.3231285E0,-3.495253E-1,-1.1303344E0,-7.2571254E-1,9.840156E-2,-2.3829828E-1,1.6122848E-1,-9.0081847E-1,2.7079126E-1,9.8936296E-1,-4.625673E-1,-8.2384276E-1,4.8909312E-1,-1.6180638E-2,3.8812596E-1,-6.7164296E-1,2.4303412E0,-7.26017E-2,-4.3868643E-1,-4.0811947E-1,-2.6568162E-1,3.3011976E-1,-6.29095E-1,-3.0190143E-1,1.9731294E0,6.615041E-1,-1.905707E-1,-1.5653116E-1,9.446223E-1,-2.1490386E-1,-7.95645E-1,1.1762079E0,-8.1233215E-1,1.3396866E0,-4.2126676E-1,-6.499408E-1,-4.9622148E-1,1.9094164E0,-6.914905E-2,5.144464E-1,4.0663004E-2,7.1423817E-3,-4.0926365E-3,-1.0417668E-1,-8.023531E-2,4.0228583E-2,-6.5664016E-2,6.324689E-2,-1.1585831E-1,-7.684041E-2,1.5966967E-2,-1.0241186E-1,-9.6448854E-4,8.599831E-2,-8.373275E-2,3.6466558E-2,6.47858E-2,-4.044724E-2,7.00151E-2,-7.642329E-2,2.3429535E-2,-1.0983155E-1,-1.2639217E-1,2.251978E-2,6.74755E-2,-4.993167E-2,-8.864342E-2,-1.1995504E-1,1.037921E-3,9.0180814E-2,-1.18232824E-1,-2.5027564E-2,-7.788945E-2,3.1058807E-2,-1.009525E-1,6.449285E-2,-5.5974156E-2,-1.20236985E-1,1.0318088E-1,-6.0725983E-2,2.4972513E-2,-7.6110534E-2,3.1048149E-2,-7.7673905E-2,9.361052E-2,-4.2058E-2,-1.1080426E-1,2.0973463E-2,8.939894E-2,-1.0143637E-2,4.4336088E-2,-8.365254E-2,-3.5762183E-2,1.1945506E-1,-8.3431825E-2,1.1734227E-1,-1.15520574E-1,5.1849432E-2,3.8430538E-2,1.12091206E-1,-1.2555806E-1,7.1378976E-2,1.1557814E-1,8.861083E-2,1.5543832E-2,1.1578796E-1],"split_indices":[64,13,26,26,3,73,63,13,55,63,45,22,38,13,66,22,3,64,63,3,26,72,26,3,3,64,63,22,55,15,55,3,26,7,46,56,7,60,53,20,11,63,55,55,43,36,2,64,37,44,57,3,65,26,65,18,46,7,60,26,26,57,64,0,0,0,0,0,0,0,0,0,0,0,0,0,0,0,0,0,0,0,0,0,0,0,0,0,0,0,0,0,0,0,0,0,0,0,0,0,0,0,0,0,0,0,0,0,0,0,0,0,0,0,0,0,0,0,0,0,0,0,0,0,0,0,0],"split_type":[0,0,0,0,0,0,0,0,0,0,0,0,0,0,0,0,0,0,0,0,0,0,0,0,0,0,0,0,0,0,0,0,0,0,0,0,0,0,0,0,0,0,0,0,0,0,0,0,0,0,0,0,0,0,0,0,0,0,0,0,0,0,0,0,0,0,0,0,0,0,0,0,0,0,0,0,0,0,0,0,0,0,0,0,0,0,0,0,0,0,0,0,0,0,0,0,0,0,0,0,0,0,0,0,0,0,0,0,0,0,0,0,0,0,0,0,0,0,0,0,0,0,0,0,0,0,0],"sum_hessian":[4.273525E3,2.1502805E3,2.1232444E3,1.315983E3,8.342975E2,7.977431E2,1.3255013E3,4.989512E2,8.170318E2,1.3713939E2,6.971581E2,2.5822784E2,5.3951526E2,8.976043E1,1.2357408E3,1.2924458E2,3.6970663E2,4.6002502E2,3.5700677E2,5.0902473E1,8.6236916E1,4.7350037E2,2.2365773E2,1.6888966E2,8.933817E1,2.152134E2,3.2430188E2,4.4714527E1,4.5045902E1,2.7589807E2,9.598428E2,4.106799E1,8.817659E1,9.443853E1,2.752681E2,7.10831E1,3.8894193E2,1.9714743E2,1.5985934E2,4.7471175E0,4.6155357E1,1.3313778E1,7.292314E1,4.71297E2,2.2033923E0,8.863971E1,1.3501802E2,1.1902858E1,1.569868E2,1.8140207E1,7.119797E1,1.5946188E2,5.575151E1,5.5578632E1,2.6872324E2,1.7904503E1,2.6810024E1,5.125E0,3.9920902E1,1.666364E2,1.0926168E2,8.7745703E2,8.238578E1,7.491515E0,3.3576473E1,1.6748137E1,7.142845E1,8.2300285E1,1.2138238E1,1.9462769E2,8.064041E1,4.3284313E1,2.7798788E1,7.311825E1,3.1582367E2,1.8404079E2,1.3106653E1,9.726106E1,6.2598286E1,3.116445E0,1.6306725E0,2.1237903E0,4.4031567E1,1.1109757E1,2.20402E0,5.1716915E1,2.1206228E1,7.821345E1,3.9308356E2,1.0086355E0,1.1947566E0,8.445386E1,4.1858525E0,9.755188E1,3.7466133E1,6.2717266E0,5.631131E0,2.1605267E1,1.3538153E2,1.4247245E1,3.892962E0,1.9820478E1,5.1377487E1,2.631288E1,1.33149E2,3.7160275E1,1.8591236E1,2.5414194E1,3.0164438E1,2.2825858E2,4.046466E1,7.1297684E0,1.0774734E1,4.239526E0,2.2570498E1,2.1893036E0,2.9356966E0,3.8734303E1,1.1866009E0,6.838791E1,9.824848E1,4.4707558E1,6.455412E1,5.210751E2,3.5638196E2,5.6316715E1,2.6069063E1],"tree_param":{"num_deleted":"0","num_feature":"74","num_nodes":"127","size_leaf_vector":"1"}},{"base_weights":[2.5031115E-3,-3.9400083E-1,4.74386E-1,-9.042687E-2,-7.723591E-1,-1.450686E-1,6.8094885E-1,-5.4431796E-1,1.9843327E-1,-9.0891415E-1,2.7103737E-1,3.918237E-1,-4.7587126E-1,8.503253E-1,2.5151083E-1,7.2105336E-1,-6.2263477E-1,-5.962167E-1,3.979294E-1,-6.563532E-1,-1.1555959E0,8.7072265E-1,-2.1072567E-1,-1.11213155E-1,8.316497E-1,-6.235427E-1,7.6860803E-1,9.715382E-1,3.2949328E-1,-5.107117E-1,5.7438993E-1,-9.7346586E-1,1.0529927E0,-3.0408291E-2,-7.5997716E-1,-7.5999445E-1,9.5450604E-1,5.245532E-1,-4.1549098E-1,-9.9838096E-1,-2.6031506E-1,-1.1715941E0,-4.9671985E-2,-4.9275476E-1,9.9308085E-1,7.496421E-2,-9.884486E-1,3.1692803E-1,-6.8651605E-1,1.0559227E0,