{"learner":{"attributes":{"scikit_learn":"{\"_estimator_type\": \"classifier\"}"},"feature_names":[],"feature_types":[],"gradient_booster":{"model":{"cats":{"enc":[],"feature_segments":[],"sorted_idx":[]},"gbtree_model_param":{"num_parallel_tree":"1","num_trees":"500"},"iteration_indptr":[0,1,2,3,4,5,6,7,8,9,10,11,12,13,14,15,16,17,18,19,20,21,22,23,24,25,26,27,28,29,30,31,32,33,34,35,36,37,38,39,40,41,42,43,44,45,46,47,48,49,50,51,52,53,54,55,56,57,58,59,60,61,62,63,64,65,66,67,68,69,70,71,72,73,74,75,76,77,78,79,80,81,82,83,84,85,86,87,88,89,90,91,92,93,94,95,96,97,98,99,100,101,102,103,104,105,106,107,108,109,110,111,112,113,114,115,116,117,118,119,120,121,122,123,124,125,126,127,128,129,130,131,132,133,134,135,136,137,138,139,140,141,142,143,144,145,146,147,148,149,150,151,152,153,154,155,156,157,158,159,160,161,162,163,164,165,166,167,168,169,170,171,172,173,174,175,176,177,178,179,180,181,182,183,184,185,186,187,188,189,190,191,192,193,194,195,196,197,198,199,200,201,202,203,204,205,206,207,208,209,210,211,212,213,214,215,216,217,218,219,220,221,222,223,224,225,226,227,228,229,230,231,232,233,234,235,236,237,238,239,240,241,242,243,244,245,246,247,248,249,250,251,252,253,254,255,256,257,258,259,260,261,262,263,264,265,266,267,268,269,270,271,272,273,274,275,276,277,278,279,280,281,282,283,284,285,286,287,288,289,290,291,292,293,294,295,296,297,298,299,300,301,302,303,304,305,306,307,308,309,310,311,312,313,314,315,316,317,318,319,320,321,322,323,324,325,326,327,328,329,330,331,332,333,334,335,336,337,338,339,340,341,342,343,344,345,346,347,348,349,350,351,352,353,354,355,356,357,358,359,360,361,362,363,364,365,366,367,368,369,370,371,372,373,374,375,376,377,378,379,380,381,382,383,384,385,386,387,388,389,390,391,392,393,394,395,396,397,398,399,400,401,402,403,404,405,406,407,408,409,410,411,412,413,414,415,416,417,418,419,420,421,422,423,424,425,426,427,428,429,430,431,432,433,434,435,436,437,438,439,440,441,442,443,444,445,446,447,448,449,450,451,452,453,454,455,456,457,458,459,460,461,462,463,464,465,466,467,468,469,470,471,472,473,474,475,476,477,478,479,480,481,482,483,484,485,486,487,488,489,490,491,492,493,494,495,496,497,498,499,500],"tree_info":[0,0,0,0,0,0,0,0,0,0,0,0,0,0,0,0,0,0,0,0,0,0,0,0,0,0,0,0,0,0,0,0,0,0,0,0,0,0,0,0,0,0,0,0,0,0,0,0,0,0,0,0,0,0,0,0,0,0,0,0,0,0,0,0,0,0,0,0,0,0,0,0,0,0,0,0,0,0,0,0,0,0,0,0,0,0,0,0,0,0,0,0,0,0,0,0,0,0,0,0,0,0,0,0,0,0,0,0,0,0,0,0,0,0,0,0,0,0,0,0,0,0,0,0,0,0,0,0,0,0,0,0,0,0,0,0,0,0,0,0,0,0,0,0,0,0,0,0,0,0,0,0,0,0,0,0,0,0,0,0,0,0,0,0,0,0,0,0,0,0,0,0,0,0,0,0,0,0,0,0,0,0,0,0,0,0,0,0,0,0,0,0,0,0,0,0,0,0,0,0,0,0,0,0,0,0,0,0,0,0,0,0,0,0,0,0,0,0,0,0,0,0,0,0,0,0,0,0,0,0,0,0,0,0,0,0,0,0,0,0,0,0,0,0,0,0,0,0,0,0,0,0,0,0,0,0,0,0,0,0,0,0,0,0,0,0,0,0,0,0,0,0,0,0,0,0,0,0,0,0,0,0,0,0,0,0,0,0,0,0,0,0,0,0,0,0,0,0,0,0,0,0,0,0,0,0,0,0,0,0,0,0,0,0,0,0,0,0,0,0,0,0,0,0,0,0,0,0,0,0,0,0,0,0,0,0,0,0,0,0,0,0,0,0,0,0,0,0,0,0,0,0,0,0,0,0,0,0,0,0,0,0,0,0,0,0,0,0,0,0,0,0,0,0,0,0,0,0,0,0,0,0,0,0,0,0,0,0,0,0,0,0,0,0,0,0,0,0,0,0,0,0,0,0,0,0,0,0,0,0,0,0,0,0,0,0,0,0,0,0,0,0,0,0,0,0,0,0,0,0,0,0,0,0,0,0,0,0,0,0,0,0,0,0,0,0,0,0,0,0,0,0,0,0,0,0,0,0,0,0,0,0,0,0,0,0,0,0,0,0,0,0,0,0,0,0,0,0,0,0,0,0,0,0,0,0,0,0,0,0,0,0,0,0,0,0,0,0,0,0],"trees":[{"base_weights":[-4.7622984E-3,-8.6365086E-1,1.1175699E0,-4.4603716E-3,-1.3004711E0,3.0561095E-1,1.6214573E0,5.5400646E-1,-9.691695E-1,-9.12212E-1,-1.7272091E0,-1.1826108E0,1.0875782E0,7.633209E-1,1.7776809E0,-2.8905421E-1,1.1168351E0,-1.667224E0,-5.570243E-1,-1.4597385E0,-2.327665E-1,-1.7991072E0,-1.1598616E0,-1.7190223E0,-6.4038044E-1,1.363527E0,-4.3672237E-1,-2.7870607E-1,1.5875251E0,1.8094968E0,3.9941037E-1,-9.428013E-1,1.305343E-1,-6.5084046E-1,1.2365717E0,-1.8183817E0,-1.1739411E0,-8.775413E-1,4.9164808E-1,-1.7919348E0,-1.2054245E0,-7.051675E-1,5.9852266E-1,-2.5607744E-1,-1.8215067E0,-1.7728446E0,-3.7998563E-1,-1.7719127E0,1.6039906E-1,2.5764212E-1,-1.1906714E0,1.5771328E0,7.384098E-1,2.6254827E-1,-1.1777964E0,-1.3543211E0,5.044399E-1,1.7924074E0,-2.999662E-1,1.506105E0,1.8861533E0,-7.2537905E-1,1.30651E0,-1.4799263E-1,-4.5338918E-2,-3.0669589E-2,6.7738496E-2,-1.2472301E-1,5.54303E-2,-8.190262E-3,1.3154735E-1,-7.544689E-2,-1.8515319E-1,-1.4937948E-1,-2.946714E-2,-6.131447E-2,-1.5612768E-1,-1.4476702E-1,7.54402E-2,-7.18725E-2,-1.8482219E-1,-1.30709E-1,1.1047725E-1,-8.6680435E-2,5.686108E-2,1.3972276E-1,9.238153E-3,-1.3379298E-1,5.38108E-2,-1.8249212E-1,5.4509282E-2,-1.817034E-1,-1.3372238E-2,4.551864E-2,-9.9440865E-2,-8.041684E-2,-1.8167965E-1,1.1861011E-1,-1.2727273E-1,1.221051E-1,-5.582857E-2,-3.9720543E-2,-1.4914197E-1,1.6842195E-1,8.685558E-2,-9.6650235E-2,1.0892741E-1,-4.533999E-2,1.0061635E-1,-1.5360017E-1,5.38108E-2,-5.4714543E-5,-1.5826838E-1,-3.8642403E-2,1.06398396E-1,-4.744361E-2,1.815757E-1,-1.228053E-1,1.4350215E-1,7.950973E-2,1.6490291E-1,1.7230259E-1,1.935E-1,1.1066017E-1,-1.4156002E-1,1.813847E-1,4.1268498E-2],"categories":[],"categories_nodes":[],"categories_segments":[],"categories_sizes":[],"default_left":[0,0,0,0,0,0,0,0,0,0,0,0,0,0,0,0,0,0,0,0,0,0,0,0,0,0,0,0,0,0,0,0,0,0,0,0,0,0,0,0,0,0,0,0,0,0,0,0,0,0,0,0,0,0,0,0,0,0,0,0,0,0,0,0,0,0,0,0,0,0,0,0,0,0,0,0,0,0,0,0,0,0,0,0,0,0,0,0,0,0,0,0,0,0,0,0,0,0,0,0,0,0,0,0,0,0,0,0,0,0,0,0,0,0,0,0,0,0,0,0,0,0,0,0,0,0,0],"id":0,"left_children":[1,3,5,7,9,11,13,15,17,19,21,23,25,27,29,31,33,35,37,39,41,43,45,47,49,51,53,55,57,59,61,63,65,67,69,71,73,75,77,79,81,83,85,87,89,91,93,95,97,99,101,103,105,107,109,111,113,115,117,119,121,123,125,-1,-1,-1,-1,-1,-1,-1,-1,-1,-1,-1,-1,-1,-1,-1,-1,-1,-1,-1,-1,-1,-1,-1,-1,-1,-1,-1,-1,-1,-1,-1,-1,-1,-1,-1,-1,-1,-1,-1,-1,-1,-1,-1,-1,-1,-1,-1,-1,-1,-1,-1,-1,-1,-1,-1,-1,-1,-1,-1,-1,-1,-1,-1,-1],"loss_changes":[5.5411367E3,1.2221345E3,1.01906396E3,5.9238965E2,3.561023E2,1.1132482E3,2.0475879E2,3.3076703E2,1.1505548E2,4.2095618E2,3.981836E1,9.476721E1,2.6428906E2,2.0531264E2,5.6280273E1,7.6816345E1,8.923779E1,8.987152E0,8.6135956E1,5.0804077E1,1.9934377E2,3.098413E1,5.5908234E1,1.6695404E1,8.20957E1,6.974603E1,5.0498726E1,9.0142715E1,5.210266E1,2.6703125E1,3.2182774E1,2.8092728E1,4.1134888E1,2.0213047E1,4.08515E1,2.5655518E0,1.0192814E1,3.4412354E1,3.1834463E1,1.4968628E1,8.556012E1,6.708887E1,7.429127E1,1.2906644E1,8.241455E0,4.537384E0,2.7835125E1,5.517517E0,9.500234E0,5.0759815E1,2.3939041E1,2.8503601E1,8.308206E1,2.7421156E1,2.983937E1,1.3916054E1,3.1408506E1,7.2356873E0,2.416566E1,2.5231018E1,4.7148438E0,1.9661016E1,7.0982094E0,0E0,0E0,0E0,0E0,0E0,0E0,0E0,0E0,0E0,0E0,0E0,0E0,0E0,0E0,0E0,0E0,0E0,0E0,0E0,0E0,0E0,0E0,0E0,0E0,0E0,0E0,0E0,0E0,0E0,0E0,0E0,0E0,0E0,0E0,0E0,0E0,0E0,0E0,0E0,0E0,0E0,0E0,0E0,0E0,0E0,0E0,0E0,0E0,0E0,0E0,0E0,0E0,0E0,0E0,0E0,0E0,0E0,0E0,0E0,0E0,0E0,0E0,0E0,0E0],"parents":[2147483647,0,0,1,1,2,2,3,3,4,4,5,5,6,6,7,7,8,8,9,9,10,10,11,11,12,12,13,13,14,14,15,15,16,16,17,17,18,18,19,19,20,20,21,21,22,22,23,23,24,24,25,25,26,26,27,27,28,28,29,29,30,30,31,31,32,32,33,33,34,34,35,35,36,36,37,37,38,38,39,39,40,40,41,41,42,42,43,43,44,44,45,45,46,46,47,47,48,48,49,49,50,50,51,51,52,52,53,53,54,54,55,55,56,56,57,57,58,58,59,59,60,60,61,61,62,62],"right_children":[2,4,6,8,10,12,14,16,18,20,22,24,26,28,30,32,34,36,38,40,42,44,46,48,50,52,54,56,58,60,62,64,66,68,70,72,74,76,78,80,82,84,86,88,90,92,94,96,98,100,102,104,106,108,110,112,114,116,118,120,122,124,126,-1,-1,-1,-1,-1,-1,-1,-1,-1,-1,-1,-1,-1,-1,-1,-1,-1,-1,-1,-1,-1,-1,-1,-1,-1,-1,-1,-1,-1,-1,-1,-1,-1,-1,-1,-1,-1,-1,-1,-1,-1,-1,-1,-1,-1,-1,-1,-1,-1,-1,-1,-1,-1,-1,-1,-1,-1,-1,-1,-1,-1,-1,-1,-1],"split_conditions":[-2.2328018E-1,-6.838495E-1,-2.374347E-1,2.0208828E-1,1.5379068E-1,-5.1208997E-1,-8.800938E-1,-2.7670202E-1,-8.889102E-1,-1.9700807E-1,-2.2053678E-1,-8.8350534E-2,6.5668815E-1,-5.6200895E-2,1.3323299E0,-6.7489E-1,-5.4459316E-1,1.16551585E-1,-3.4337768E-1,-6.874573E-1,-2.437121E-1,-7.430858E-1,-4.4727793E-1,1.6548144E0,-2.8630266E-1,3.0774388E-1,2.5730576E-2,-1.9452003E-1,-1.0056699E-1,-1.7835797E-1,-2.6948488E-1,2.9961044E-1,-4.392916E-1,5.023567E-1,-2.556433E-1,-5.521323E-1,-2.4615416E-1,1.0626953E0,-8.6648136E-1,-1.2690146E0,2.1097596E-1,1.180975E0,-2.2322847E-1,-2.9185414E-1,2.8665168E0,-2.2486494E-1,-2.151077E-1,-8.1231195E-1,5.1940936E-1,-4.8596528E-1,-5.861924E-1,9.4777477E-1,-4.966863E-1,-2.527533E-1,-1.16378024E-1,-7.220991E-1,2.4435544E-2,-3.5832486E0,-1.556471E-1,-6.1003053E-1,8.338483E-2,-4.5402363E-1,1.7992672E-1,-1.4799263E-1,-4.5338918E-2,-3.0669589E-2,6.7738496E-2,-1.2472301E-1,5.54303E-2,-8.190262E-3,1.3154735E-1,-7.544689E-2,-1.8515319E-1,-1.4937948E-1,-2.946714E-2,-6.131447E-2,-1.5612768E-1,-1.4476702E-1,7.54402E-2,-7.18725E-2,-1.8482219E-1,-1.30709E-1,1.1047725E-1,-8.6680435E-2,5.686108E-2,1.3972276E-1,9.238153E-3,-1.3379298E-1,5.38108E-2,-1.8249212E-1,5.4509282E-2,-1.817034E-1,-1.3372238E-2,4.551864E-2,-9.9440865E-2,-8.041684E-2,-1.8167965E-1,1.1861011E-1,-1.2727273E-1,1.221051E-1,-5.582857E-2,-3.9720543E-2,-1.4914197E-1,1.6842195E-1,8.685558E-2,-9.6650235E-2,1.0892741E-1,-4.533999E-2,1.0061635E-1,-1.5360017E-1,5.38108E-2,-5.4714543E-5,-1.5826838E-1,-3.8642403E-2,1.06398396E-1,-4.744361E-2,1.815757E-1,-1.228053E-1,1.4350215E-1,7.950973E-2,1.6490291E-1,1.7230259E-1,1.935E-1,1.1066017E-1,-1.4156002E-1,1.813847E-1,4.1268498E-2],"split_indices":[64,62,73,55,55,26,26,26,46,26,73,22,55,64,69,26,73,26,73,26,64,59,26,44,62,62,62,38,69,64,26,22,73,5,64,21,64,55,26,34,73,5,11,8,70,64,11,2,42,15,17,69,73,27,64,62,73,22,38,26,72,17,15,0,0,0,0,0,0,0,0,0,0,0,0,0,0,0,0,0,0,0,0,0,0,0,0,0,0,0,0,0,0,0,0,0,0,0,0,0,0,0,0,0,0,0,0,0,0,0,0,0,0,0,0,0,0,0,0,0,0,0,0,0,0,0,0],"split_type":[0,0,0,0,0,0,0,0,0,0,0,0,0,0,0,0,0,0,0,0,0,0,0,0,0,0,0,0,0,0,0,0,0,0,0,0,0,0,0,0,0,0,0,0,0,0,0,0,0,0,0,0,0,0,0,0,0,0,0,0,0,0,0,0,0,0,0,0,0,0,0,0,0,0,0,0,0,0,0,0,0,0,0,0,0,0,0,0,0,0,0,0,0,0,0,0,0,0,0,0,0,0,0,0,0,0,0,0,0,0,0,0,0,0,0,0,0,0,0,0,0,0,0,0,0,0,0],"sum_hessian":[5.746315E3,3.2553328E3,2.490982E3,1.09755E3,2.1577827E3,9.5450665E2,1.5364753E3,6.95407E2,4.0214304E2,1.1314725E3,1.0263102E3,3.286036E2,6.25903E2,2.3754207E2,1.2989333E3,2.7859146E2,4.1681555E2,1.4815915E2,2.5398389E2,6.25926E2,5.0554648E2,9.089506E2,1.1735962E2,1.6409715E2,1.6450645E2,5.3005164E2,9.585141E1,1.0520062E2,1.3234146E2,1.2693196E3,2.9613718E1,1.0841955E2,1.701719E2,2.6161198E1,3.9065433E2,1.1135126E2,3.6807884E1,1.9465314E2,5.933075E1,2.687831E2,3.5714288E2,3.2245502E2,1.8309146E2,1.318391E1,8.957667E2,6.499795E1,5.2361668E1,1.596612E2,4.4359617E0,6.2706776E1,1.0179968E2,3.939231E2,1.3612852E2,4.9648888E1,4.6202522E1,4.401656E1,6.118406E1,1.1942821E2,1.2913248E1,2.6018906E2,1.00913055E3,1.3309936E1,1.6303782E1,5.0725235E1,5.7694317E1,9.480804E1,7.536387E1,1.7477287E1,8.68391E0,2.2055834E1,3.685985E2,4.0826497E0,1.0726861E2,2.6477287E1,1.0330599E1,1.417399E2,5.2913246E1,6.5413246E0,5.2789425E1,1.4080599E1,2.5470251E2,3.425044E2,1.4638483E1,2.8642807E2,3.6026966E1,7.033705E1,1.127544E2,5.2913246E0,7.8925858E0,8.947047E2,1.0619872E0,6.3185963E1,1.8119872E0,2.2303782E1,3.0057884E1,7.9152994E0,1.517459E2,2.6859615E0,1.75E0,2.8526966E1,3.417981E1,2.861782E1,7.318186E1,3.410097E2,5.29134E1,2.293391E1,1.1319462E2,2.5493847E1,2.4155043E1,3.8309937E1,7.8925858E0,6.4979486E0,3.7518612E1,2.3723185E1,3.7460876E1,1.0206624E0,1.1840755E2,8.603312E0,4.309936E0,4.464684E1,2.1554222E2,2.408998E2,7.682307E2,3.4772863E0,9.832649E0,9.743846E0,6.559936E0],"tree_param":{"num_deleted":"0","num_feature":"74","num_nodes":"127","size_leaf_vector":"1"}},{"base_weights":[-5.628093E-3,-7.30157E-1,1.1394371E0,-2.4188057E-2,-1.1905845E0,2.814043E-1,1.5333191E0,-9.228146E-1,4.6962702E-1,-1.289063E0,4.739867E-1,-8.4621775E-1,1.1340914E0,1.0920122E0,1.6834661E0,-1.3087566E0,-4.5764622E-1,8.2248825E-1,-8.2949895E-1,-1.457618E0,-5.9117466E-1,-3.2005003E-1,1.2810355E0,7.1603364E-1,-1.1015036E0,-4.9199307E-1,1.389449E0,1.5050806E0,4.5364925E-1,6.494707E-1,1.7198658E0,-1.5839828E0,-9.313232E-1,2.6233792E-1,-8.461735E-1,-5.952674E-1,1.0074551E0,-1.1661301E0,2.1534514E-1,-1.5286003E0,-3.183265E-1,-1.5926678E0,1.05760984E-1,-1.046224E0,2.0891277E-1,1.5383078E0,-1.4862895E-1,-6.07084E-1,1.3540545E0,-1.4465412E0,-4.2710462E-1,5.970686E-1,-1.1879507E0,5.125728E-1,1.552726E0,1.5724665E0,-8.9699894E-2,1.3095453E0,-4.4381108E-2,-3.8218397E-1,1.1727905E0,-5.02257E-2,1.7257471E0,-1.6191147E-1,2.0367038E-2,1.4550862E-2,-1.1027061E-1,7.1923606E-2,-5.8044817E-2,-1.1082573E-1,7.647163E-3,2.4780793E-2,-1.2446451E-1,-4.047059E-2,1.1046622E-1,-1.314507E-1,6.813341E-2,-6.9522426E-2,7.320252E-2,-1.2663071E-1,-1.7523305E-1,-1.4442591E-1,5.3278845E-2,-1.2281856E-2,-1.6501558E-1,4.6498958E-2,-1.2322115E-1,3.7279498E-2,-1.3151765E-1,-1.4086412E-2,1.5267432E-1,-3.690089E-2,1.6688883E-1,-9.7441636E-2,1.0972088E-1,-1.2942247E-1,9.979736E-2,1.5449028E-1,-4.772507E-2,-4.9926516E-2,-1.5869941E-1,-1.1933555E-1,1.5138517E-2,-6.733246E-2,1.6279525E-1,-1.3168418E-1,1.1071841E-1,9.886309E-2,-5.1138263E-2,7.769259E-2,1.6403085E-1,-1.1906792E-1,1.5959768E-1,1.2603877E-1,-1.43647E-1,1.5447949E-1,1.991258E-2,-1.0220281E-1,8.7335356E-2,3.779098E-2,-1.290952E-1,-1.1129806E-1,1.3264015E-1,-1.0550033E-1,1.12684585E-1,1.557135E-1,1.7682068E-1],"categories":[],"categories_nodes":[],"categories_segments":[],"categories_sizes":[],"default_left":[0,0,0,0,0,0,0,0,0,0,0,0,0,0,0,0,0,0,0,0,0,0,0,0,0,0,0,0,0,0,0,0,0,0,0,0,0,0,0,0,0,0,0,0,0,0,0,0,0,0,0,0,0,0,0,0,0,0,0,0,0,0,0,0,0,0,0,0,0,0,0,0,0,0,0,0,0,0,0,0,0,0,0,0,0,0,0,0,0,0,0,0,0,0,0,0,0,0,0,0,0,0,0,0,0,0,0,0,0,0,0,0,0,0,0,0,0,0,0,0,0,0,0,0,0,0,0],"id":1,"left_children":[1,3,5,7,9,11,13,15,17,19,21,23,25,27,29,31,33,35,37,39,41,43,45,47,49,51,53,55,57,59,61,63,65,67,69,71,73,75,77,79,81,83,85,87,89,91,93,95,97,99,101,103,105,107,109,111,113,115,117,119,121,123,125,-1,-1,-1,-1,-1,-1,-1,-1,-1,-1,-1,-1,-1,-1,-1,-1,-1,-1,-1,-1,-1,-1,-1,-1,-1,-1,-1,-1,-1,-1,-1,-1,-1,-1,-1,-1,-1,-1,-1,-1,-1,-1,-1,-1,-1,-1,-1,-1,-1,-1,-1,-1,-1,-1,-1,-1,-1,-1,-1,-1,-1,-1,-1,-1],"loss_changes":[4.7803315E3,1.1470713E3,7.542278E2,6.190636E2,3.507439E2,6.776376E2,9.955347E1,8.821951E1,4.13411E2,2.3639209E2,7.7333664E1,1.2187167E2,1.6726031E2,1.0249869E2,4.17854E1,2.6557251E1,6.340762E1,1.864047E2,6.806761E1,1.3083447E2,2.7520197E2,2.376775E1,2.2198563E1,3.7331936E1,6.0197266E1,4.2537228E1,4.888214E1,2.5625793E1,6.619677E1,2.2243229E1,1.1543701E1,1.0041138E1,2.1609802E1,3.1196829E1,3.5617706E1,4.541994E1,8.65354E1,4.0912613E1,2.3010298E1,8.746973E1,9.3247375E1,1.3465393E1,1.12700645E2,1.041452E1,1.6949005E1,1.3245529E1,1.1379145E1,1.7571255E1,1.10435295E1,2.2155365E1,4.0020016E1,3.014629E1,1.1517239E1,2.77836E1,1.8567322E1,1.668451E1,2.1011389E1,1.4610191E1,8.976467E1,1.039352E1,1.0966747E1,6.648418E0,5.0996094E0,0E0,0E0,0E0,0E0,0E0,0E0,0E0,0E0,0E0,0E0,0E0,0E0,0E0,0E0,0E0,0E0,0E0,0E0,0E0,0E0,0E0,0E0,0E0,0E0,0E0,0E0,0E0,0E0,0E0,0E0,0E0,0E0,0E0,0E0,0E0,0E0,0E0,0E0,0E0,0E0,0E0,0E0,0E0,0E0,0E0,0E0,0E0,0E0,0E0,0E0,0E0,0E0,0E0,0E0,0E0,0E0,0E0,0E0,0E0,0E0,0E0,0E0,0E0,0E0],"parents":[2147483647,0,0,1,1,2,2,3,3,4,4,5,5,6,6,7,7,8,8,9,9,10,10,11,11,12,12,13,13,14,14,15,15,16,16,17,17,18,18,19,19,20,20,21,21,22,22,23,23,24,24,25,25,26,26,27,27,28,28,29,29,30,30,31,31,32,32,33,33,34,34,35,35,36,36,37,37,38,38,39,39,40,40,41,41,42,42,43,43,44,44,45,45,46,46,47,47,48,48,49,49,50,50,51,51,52,52,53,53,54,54,55,55,56,56,57,57,58,58,59,59,60,60,61,61,62,62],"right_children":[2,4,6,8,10,12,14,16,18,20,22,24,26,28,30,32,34,36,38,40,42,44,46,48,50,52,54,56,58,60,62,64,66,68,70,72,74,76,78,80,82,84,86,88,90,92,94,96,98,100,102,104,106,108,110,112,114,116,118,120,122,124,126,-1,-1,-1,-1,-1,-1,-1,-1,-1,-1,-1,-1,-1,-1,-1,-1,-1,-1,-1,-1,-1,-1,-1,-1,-1,-1,-1,-1,-1,-1,-1,-1,-1,-1,-1,-1,-1,-1,-1,-1,-1,-1,-1,-1,-1,-1,-1,-1,-1,-1,-1,-1,-1,-1,-1,-1,-1,-1,-1,-1,-1,-1,-1,-1],"split_conditions":[-2.6738536E-1,-6.123094E-1,-6.030134E-1,-4.13154E-1,5.3437775E-1,-1.3345061E-1,-3.3853802E-1,3.189661E-1,5.185538E-1,-3.0372497E-1,2.070724E-1,-7.7987564E-1,-2.0727731E-1,-1.4281036E-1,-2.3174246E-1,-4.7350967E-1,-9.701172E-2,-5.372634E-1,-3.8220218E-1,2.0432978E0,-5.179305E-1,-3.1207106E-1,6.644407E-3,-1.0112501E0,-3.1869867E-1,-5.461066E-1,-8.6095795E-2,1.3284323E0,-1.0173218E-2,-3.605581E-1,-1.6161104E0,1.9133513E0,-7.929033E-1,-5.9316254E-1,-2.4916317E-1,2.6619053E-1,-1.004246E0,-3.2907292E-1,-2.5329566E-1,-3.634117E-2,-2.9210305E-1,-3.300206E-1,9.6191615E-1,-9.344588E-1,1.3473351E0,-3.4924603E-1,3.641517E-2,-1.556471E-1,4.9394515E-1,-3.8900557E-1,-1.9452003E-1,-9.0681577E-1,1.3887736E0,-1.9975992E-1,-2.9366577E-1,-1.4897317E0,1.2510589E-1,5.5245745E-1,4.8328456E-1,9.7452365E-2,-1.6126412E0,-1.0872891E-1,-1.7413124E-1,-1.6191147E-1,2.0367038E-2,1.4550862E-2,-1.1027061E-1,7.1923606E-2,-5.8044817E-2,-1.1082573E-1,7.647163E-3,2.4780793E-2,-1.2446451E-1,-4.047059E-2,1.1046622E-1,-1.314507E-1,6.813341E-2,-6.9522426E-2,7.320252E-2,-1.2663071E-1,-1.7523305E-1,-1.4442591E-1,5.3278845E-2,-1.2281856E-2,-1.6501558E-1,4.6498958E-2,-1.2322115E-1,3.7279498E-2,-1.3151765E-1,-1.4086412E-2,1.5267432E-1,-3.690089E-2,1.6688883E-1,-9.7441636E-2,1.0972088E-1,-1.2942247E-1,9.979736E-2,1.5449028E-1,-4.772507E-2,-4.9926516E-2,-1.5869941E-1,-1.1933555E-1,1.5138517E-2,-6.733246E-2,1.6279525E-1,-1.3168418E-1,1.1071841E-1,9.886309E-2,-5.1138263E-2,7.769259E-2,1.6403085E-1,-1.1906792E-1,1.5959768E-1,1.2603877E-1,-1.43647E-1,1.5447949E-1,1.991258E-2,-1.0220281E-1,8.7335356E-2,3.779098E-2,-1.290952E-1,-1.1129806E-1,1.3264015E-1,-1.0550033E-1,1.12684585E-1,1.557135E-1,1.7682068E-1],"split_indices":[63,62,26,26,61,73,66,22,55,63,9,15,64,3,64,44,47,73,73,60,26,44,11,26,73,15,63,55,15,50,9,5,3,15,64,3,9,60,64,62,26,11,62,55,61,70,44,38,21,2,38,26,5,15,66,9,15,62,26,62,43,63,64,0,0,0,0,0,0,0,0,0,0,0,0,0,0,0,0,0,0,0,0,0,0,0,0,0,0,0,0,0,0,0,0,0,0,0,0,0,0,0,0,0,0,0,0,0,0,0,0,0,0,0,0,0,0,0,0,0,0,0,0,0,0,0,0],"split_type":[0,0,0,0,0,0,0,0,0,0,0,0,0,0,0,0,0,0,0,0,0,0,0,0,0,0,0,0,0,0,0,0,0,0,0,0,0,0,0,0,0,0,0,0,0,0,0,0,0,0,0,0,0,0,0,0,0,0,0,0,0,0,0,0,0,0,0,0,0,0,0,0,0,0,0,0,0,0,0,0,0,0,0,0,0,0,0,0,0,0,0,0,0,0,0,0,0,0,0,0,0,0,0,0,0,0,0,0,0,0,0,0,0,0,0,0,0,0,0,0,0,0,0,0,0,0,0],"sum_hessian":[5.7599814E3,3.528022E3,2.2319595E3,1.3930795E3,2.1349426E3,7.027668E2,1.5291929E3,4.9373322E2,8.9934625E2,2.0159044E3,1.1903823E2,3.0260257E2,4.001642E2,3.9030212E2,1.1388907E3,2.6885526E2,2.2487796E2,7.075362E2,1.9181006E2,1.6228602E3,3.930442E2,6.0307E1,5.873123E1,4.224914E1,2.6035342E2,5.4186295E1,3.459779E2,2.3614255E2,1.5415958E2,3.936969E1,1.099521E3,1.5363045E2,1.152248E2,7.893236E1,1.459456E2,8.139929E1,6.261369E2,1.4498294E2,4.6827126E1,1.527358E3,9.5502205E1,1.6075491E2,2.3228928E2,2.500357E1,3.530343E1,4.9709816E1,9.021418E0,1.3760766E1,2.8488377E1,1.7147702E2,8.88764E1,2.1181986E1,3.300431E1,5.4959274E1,2.9101865E2,2.265825E2,9.560043E0,5.6106915E1,9.805266E1,1.334046E1,2.602923E1,3.6162298E0,1.0959048E3,1.5076187E2,2.8685787E0,1.5841371E1,9.938343E1,5.1279102E1,2.7653254E1,1.1350309E2,3.2442513E1,3.568652E1,4.571277E1,4.0121017E1,5.8601587E2,1.344715E2,1.0511434E1,1.6826841E1,3.0000286E1,7.061513E2,8.212067E2,4.0813488E1,5.4688717E1,6.168761E0,1.5458615E2,1.8363742E2,4.8651848E1,3.9224184E0,2.1081152E1,2.8604397E1,6.699034E0,3.068214E0,4.66416E1,5.556335E0,3.465083E0,9.7712555E0,3.9895103E0,2.5941313E1,2.5470638E0,2.273008E1,1.4874693E2,3.7776226E1,5.1100178E1,9.644092E0,1.1537894E1,3.1652975E1,1.351335E0,3.7540447E1,1.7418829E1,3.0522581E1,2.6049606E2,1.4927628E0,2.2508974E2,4.806173E0,4.753871E0,4.5975517E1,1.0131395E1,4.7421597E1,5.0631058E1,7.5825577E0,5.757902E0,1.2458094E0,2.478342E1,2.0068433E0,1.6093863E0,2.2803337E2,8.678714E2],"tree_param":{"num_deleted":"0","num_feature":"74","num_nodes":"127","size_leaf_vector":"1"}},{"base_weights":[-1.0045724E-3,-6.5745527E-1,1.0327413E0,-3.560459E-2,-1.094695E0,2.783001E-1,1.4164264E0,3.9128903E-1,-8.765496E-1,-1.1882825E0,6.390153E-1,-7.5419277E-1,1.0414042E0,1.4912341E0,5.6127363E-1,-6.7146707E-1,7.647713E-1,-1.3337516E0,-4.002956E-1,-1.3665694E0,-6.4503556E-1,-7.652824E-1,9.6423346E-1,3.1163856E-1,-1.1765536E0,-3.406162E-1,1.261779E0,1.0064269E0,1.5597793E0,1.2351718E0,-7.446626E-2,7.079843E-2,-9.9568737E-1,-3.360695E-1,9.3283343E-1,-1.4307157E0,-3.0268392E-1,-8.7558377E-1,3.9608148E-1,-7.195099E-1,-1.4916115E0,1.294745E-1,-1.1349684E0,-1.2458057E0,2.715475E-1,1.4171341E-1,1.3820102E0,-8.3815706E-1,7.595218E-1,-1.9578809E-1,-1.379189E0,-1.0832574E0,5.448331E-1,1.3409318E0,-5.552762E-1,1.2213938E0,8.436474E-3,1.2718141E0,1.6091317E0,1.4047154E0,-4.968203E-2,9.178793E-1,-5.751298E-1,-8.9215174E-2,6.3478686E-2,-1.1321338E-1,5.8339246E-2,-1.114828E-1,3.7602615E-2,1.10300384E-1,1.4994285E-2,-1.538919E-1,-8.6840734E-2,1.16051115E-1,-8.903306E-2,-1.2555723E-2,-1.1043286E-1,8.756665E-2,-2.5600512E-2,-1.0518628E-1,2.6669115E-2,-1.5383932E-1,-7.463279E-2,-1.5433092E-1,4.324162E-2,-1.2349143E-1,3.5623584E-2,-1.5262689E-1,1.09732985E-1,1.4661233E-1,-9.0200715E-2,7.681409E-2,-6.0961194E-2,1.5478778E-1,-3.1640116E-2,-1.1529656E-1,9.448455E-2,1.5187541E-2,1.5837006E-1,-1.287744E-1,7.117264E-2,-5.3720474E-2,-1.504207E-1,-1.4261489E-1,2.1659736E-2,1.2401041E-1,-7.6868767E-3,7.586785E-2,1.4908576E-1,-1.3243937E-1,7.7801816E-2,8.004905E-2,1.5723105E-1,7.105636E-2,-1.23154335E-1,4.948015E-2,1.4734834E-1,1.6156077E-1,3.2521964E-3,1.480794E-1,-1.7147566E-3,1.0687943E-1,-8.472293E-2,1.3829404E-1,-7.6144943E-3,3.4496952E-3,-1.2345032E-1],"categories":[],"categories_nodes":[],"categories_segments":[],"categories_sizes":[],"default_left":[0,0,0,0,0,0,0,0,0,0,0,0,0,0,0,0,0,0,0,0,0,0,0,0,0,0,0,0,0,0,0,0,0,0,0,0,0,0,0,0,0,0,0,0,0,0,0,0,0,0,0,0,0,0,0,0,0,0,0,0,0,0,0,0,0,0,0,0,0,0,0,0,0,0,0,0,0,0,0,0,0,0,0,0,0,0,0,0,0,0,0,0,0,0,0,0,0,0,0,0,0,0,0,0,0,0,0,0,0,0,0,0,0,0,0,0,0,0,0,0,0,0,0,0,0,0,0],"id":2,"left_children":[1,3,5,7,9,11,13,15,17,19,21,23,25,27,29,31,33,35,37,39,41,43,45,47,49,51,53,55,57,59,61,63,65,67,69,71,73,75,77,79,81,83,85,87,89,91,93,95,97,99,101,103,105,107,109,111,113,115,117,119,121,123,125,-1,-1,-1,-1,-1,-1,-1,-1,-1,-1,-1,-1,-1,-1,-1,-1,-1,-1,-1,-1,-1,-1,-1,-1,-1,-1,-1,-1,-1,-1,-1,-1,-1,-1,-1,-1,-1,-1,-1,-1,-1,-1,-1,-1,-1,-1,-1,-1,-1,-1,-1,-1,-1,-1,-1,-1,-1,-1,-1,-1,-1,-1,-1,-1],"loss_changes":[3.8320564E3,9.390316E2,6.3447046E2,5.125919E2,3.297871E2,5.843203E2,9.215234E1,3.764532E2,1.04148895E2,1.8549927E2,4.8467926E1,1.4231897E2,1.302608E2,4.2829346E1,5.087439E1,5.9471695E1,1.3006302E2,2.4046906E1,9.0016495E1,1.1608081E2,1.8129652E2,1.0407123E1,2.9115883E1,4.7130936E1,4.465445E1,3.965911E1,5.365387E1,3.610025E1,1.4563232E1,1.2616562E1,3.1299887E1,4.182594E1,3.7688873E1,5.233717E1,8.092731E1,1.2264709E1,2.0221424E1,2.5368073E1,2.8129627E1,7.7774315E1,4.1127686E1,9.485896E1,4.4036804E1,1.0867521E1,1.14457245E1,1.4515551E1,1.6393456E1,1.5562752E1,3.2562256E1,4.0428425E1,1.8894745E1,1.486013E1,1.2097471E1,2.9667358E1,1.7502537E1,1.9195526E1,2.7722998E1,2.6813538E1,1.0095947E1,5.533203E0,7.75641E0,9.884838E0,1.6837597E1,0E0,0E0,0E0,0E0,0E0,0E0,0E0,0E0,0E0,0E0,0E0,0E0,0E0,0E0,0E0,0E0,0E0,0E0,0E0,0E0,0E0,0E0,0E0,0E0,0E0,0E0,0E0,0E0,0E0,0E0,0E0,0E0,0E0,0E0,0E0,0E0,0E0,0E0,0E0,0E0,0E0,0E0,0E0,0E0,0E0,0E0,0E0,0E0,0E0,0E0,0E0,0E0,0E0,0E0,0E0,0E0,0E0,0E0,0E0,0E0,0E0,0E0,0E0,0E0],"parents":[2147483647,0,0,1,1,2,2,3,3,4,4,5,5,6,6,7,7,8,8,9,9,10,10,11,11,12,12,13,13,14,14,15,15,16,16,17,17,18,18,19,19,20,20,21,21,22,22,23,23,24,24,25,25,26,26,27,27,28,28,29,29,30,30,31,31,32,32,33,33,34,34,35,35,36,36,37,37,38,38,39,39,40,40,41,41,42,42,43,43,44,44,45,45,46,46,47,47,48,48,49,49,50,50,51,51,52,52,53,53,54,54,55,55,56,56,57,57,58,58,59,59,60,60,61,61,62,62],"right_children":[2,4,6,8,10,12,14,16,18,20,22,24,26,28,30,32,34,36,38,40,42,44,46,48,50,52,54,56,58,60,62,64,66,68,70,72,74,76,78,80,82,84,86,88,90,92,94,96,98,100,102,104,106,108,110,112,114,116,118,120,122,124,126,-1,-1,-1,-1,-1,-1,-1,-1,-1,-1,-1,-1,-1,-1,-1,-1,-1,-1,-1,-1,-1,-1,-1,-1,-1,-1,-1,-1,-1,-1,-1,-1,-1,-1,-1,-1,-1,-1,-1,-1,-1,-1,-1,-1,-1,-1,-1,-1,-1,-1,-1,-1,-1,-1,-1,-1,-1,-1,-1,-1,-1,-1,-1,-1],"split_conditions":[-2.6929232E-1,-5.870545E-1,-5.449456E-1,2.506489E-1,5.8499634E-1,-1.4404026E-1,8.164419E-1,-4.985525E-1,-4.6371245E-1,-2.3522373E-1,-3.415387E-1,-7.9510115E-2,-2.0727731E-1,-2.1444632E-1,-2.1775684E-1,-1.0335188E0,-2.552005E-1,-1.6679718E-1,-3.263993E-1,-9.967789E-1,2.5730576E-2,-3.2149592E-1,-2.28444E-2,-1.9452003E-1,-2.9004565E-1,-8.800938E-1,4.838456E-1,5.5245745E-1,-3.6305687E-1,1.2868952E0,-6.3137776E-1,-3.508259E-1,1.3887736E0,4.7667902E-2,3.599817E-2,-3.1773394E-1,-8.9358196E-2,-8.670701E-1,-1.1560575E-2,2.2858012E-1,1.6093768E0,-7.35081E-1,2.0774474E0,1.2422936E0,1.0864419E0,-1.0988696E-1,1.1524823E0,-4.921939E-2,-1.585398E-1,-1.9537362E-1,-5.0537264E-1,-1.7897086E-1,-2.9004565E-1,-4.1411646E-2,-3.957974E-1,-2.28444E-2,-6.405948E-2,-1.9700807E-1,2.8935843E0,1.4337434E0,-5.653113E-1,9.043493E-1,-7.1226254E-2,-8.9215174E-2,6.3478686E-2,-1.1321338E-1,5.8339246E-2,-1.114828E-1,3.7602615E-2,1.10300384E-1,1.4994285E-2,-1.538919E-1,-8.6840734E-2,1.16051115E-1,-8.903306E-2,-1.2555723E-2,-1.1043286E-1,8.756665E-2,-2.5600512E-2,-1.0518628E-1,2.6669115E-2,-1.5383932E-1,-7.463279E-2,-1.5433092E-1,4.324162E-2,-1.2349143E-1,3.5623584E-2,-1.5262689E-1,1.09732985E-1,1.4661233E-1,-9.0200715E-2,7.681409E-2,-6.0961194E-2,1.5478778E-1,-3.1640116E-2,-1.1529656E-1,9.448455E-2,1.5187541E-2,1.5837006E-1,-1.287744E-1,7.117264E-2,-5.3720474E-2,-1.504207E-1,-1.4261489E-1,2.1659736E-2,1.2401041E-1,-7.6868767E-3,7.586785E-2,1.4908576E-1,-1.3243937E-1,7.7801816E-2,8.004905E-2,1.5723105E-1,7.105636E-2,-1.23154335E-1,4.948015E-2,1.4734834E-1,1.6156077E-1,3.2521964E-3,1.480794E-1,-1.7147566E-3,1.0687943E-1,-8.472293E-2,1.3829404E-1,-7.6144943E-3,3.4496952E-3,-1.2345032E-1],"split_indices":[63,62,26,55,61,73,69,26,48,64,70,65,64,64,11,13,64,73,63,13,62,63,9,38,2,26,69,62,72,12,62,7,5,26,11,63,53,62,57,9,60,26,60,69,65,13,0,64,63,63,68,38,2,63,44,9,53,26,0,62,39,33,53,0,0,0,0,0,0,0,0,0,0,0,0,0,0,0,0,0,0,0,0,0,0,0,0,0,0,0,0,0,0,0,0,0,0,0,0,0,0,0,0,0,0,0,0,0,0,0,0,0,0,0,0,0,0,0,0,0,0,0,0,0,0,0,0],"split_type":[0,0,0,0,0,0,0,0,0,0,0,0,0,0,0,0,0,0,0,0,0,0,0,0,0,0,0,0,0,0,0,0,0,0,0,0,0,0,0,0,0,0,0,0,0,0,0,0,0,0,0,0,0,0,0,0,0,0,0,0,0,0,0,0,0,0,0,0,0,0,0,0,0,0,0,0,0,0,0,0,0,0,0,0,0,0,0,0,0,0,0,0,0,0,0,0,0,0,0,0,0,0,0,0,0,0,0,0,0,0,0,0,0,0,0,0,0,0,0,0,0,0,0,0,0,0,0],"sum_hessian":[5.6449766E3,3.4527627E3,2.1922139E3,1.4259008E3,2.0268618E3,7.396208E2,1.4525931E3,9.461408E2,4.7976004E2,1.9233518E3,1.0350993E2,3.1433368E2,4.252871E2,1.33506E3,1.1753308E2,2.4582884E2,7.0031195E2,2.4385739E2,2.3590265E2,1.4469614E3,4.7639044E2,1.9209564E1,8.430037E1,8.9284805E1,2.2504887E2,5.8413975E1,3.6687314E2,1.6732013E2,1.1677399E3,5.6596584E1,6.0936497E1,7.497158E1,1.7085727E2,9.26217E1,6.0769025E2,2.2254144E2,2.1315952E1,1.4767114E2,8.823151E1,2.3542972E2,1.2115317E3,1.8487175E2,2.9151868E2,1.2988456E1,6.2211084E0,2.8846502E1,5.545387E1,2.4785261E1,6.449954E1,3.8872116E1,1.8617676E2,3.1647383E1,2.6766592E1,3.5181E2,1.5063167E1,1.3748256E2,2.9837566E1,1.7476703E2,9.9297284E2,4.991653E1,6.6800523E0,2.0154913E1,4.0781586E1,2.7476507E1,4.749507E1,1.5752844E2,1.3328814E1,4.396994E1,4.8651752E1,4.988504E2,1.0883985E2,1.8517245E2,3.7368977E1,5.828526E0,1.5487427E1,3.487363E1,1.127975E2,5.0642788E1,3.7588722E1,1.7603783E2,5.9391884E1,1.1389738E3,7.2557884E1,2.7718931E1,1.5715283E2,2.733684E2,1.8150269E1,1.1911341E1,1.0771148E0,2.9593985E0,3.2617097E0,1.5718562E1,1.3127941E1,5.0600803E1,4.8530636E0,2.1366186E1,3.419075E0,3.7808537E1,2.6691006E1,1.745301E1,2.1419106E1,2.4754492E1,1.6142226E2,2.4964725E1,6.682656E0,1.2166111E1,1.460048E1,7.327994E1,2.7853006E2,9.556898E0,5.5062685E0,6.399981E1,7.348276E1,1.9323032E1,1.0514534E1,3.6724525E1,1.3804251E2,9.888862E2,4.086637E0,4.734199E1,2.5745392E0,2.6390126E0,4.0410395E0,1.3464294E1,6.690618E0,2.1682556E1,1.909903E1],"tree_param":{"num_deleted":"0","num_feature":"74","num_nodes":"127","size_leaf_vector":"1"}},{"base_weights":[-1.3168289E-3,-6.615171E-1,8.82766E-1,5.711909E-2,-9.8926616E-1,3.2290958E-2,1.1839808E0,5.2474976E-1,-6.224896E-1,-1.1004515E0,1.9575778E-1,-8.8896286E-1,9.5457053E-1,5.8735734E-1,1.4033995E0,-6.679296E-1,7.390457E-1,-1.0154068E0,-5.476371E-2,-7.603532E-1,-1.388675E0,-4.3321827E-1,7.6941293E-1,-1.3086332E0,-3.485874E-1,-6.887838E-1,1.1770015E0,1.1219829E0,-4.43513E-2,1.441631E0,6.235921E-1,1.2044938E0,-9.31939E-1,2.728764E-1,1.0574918E0,-1.2381395E0,-4.6587983E-1,-7.082025E-1,4.257086E-1,-1.198417E0,-2.4245568E-1,-1.4547158E0,-7.855326E-1,5.5059004E-1,-8.1767094E-1,1.0775E0,-3.7239376E-1,-1.3802072E0,-1.0189558E-1,-1.2201568E0,1.4575239E-1,-1.3975431E0,5.0613993E-1,6.1292106E-1,1.4266247E0,1.2455338E0,-5.2983385E-1,-1.0798326E0,3.1251454E-1,-9.478458E-1,1.450319E0,1.2757905E0,-1.5994222E-1,-5.2193016E-2,1.4634904E-1,5.0664194E-2,-1.0814553E-1,1.130438E-1,-6.9121593E-3,-9.4268955E-3,1.146029E-1,-1.3017373E-1,6.086142E-3,-1.3749434E-1,-1.5942065E-2,-9.6243665E-2,4.546233E-2,-1.2982975E-2,9.4053484E-2,-1.410697E-1,-7.915745E-2,-1.2291781E-1,1.7082348E-2,-1.4690205E-1,-2.5787575E-2,-1.3585299E-1,-6.7273774E-3,-6.509435E-2,1.3665566E-1,-9.474819E-2,7.8851804E-2,-6.727256E-2,1.2713216E-1,5.329829E-2,-9.951069E-2,-7.442477E-2,-1.4622827E-1,-8.889405E-2,9.2936955E-2,-1.646821E-2,-1.4497186E-1,-8.242064E-2,8.8329434E-2,-2.0707974E-2,-1.5619023E-1,1.0275193E-1,-9.015643E-2,-7.2603814E-2,1.0135629E-1,1.4557795E-1,2.0562145E-3,4.891599E-2,1.3687085E-1,-9.7989775E-2,9.025731E-2,-1.220294E-1,7.3700406E-2,8.2744114E-2,-5.069008E-2,4.6725854E-2,-1.4372087E-1,1.2263968E-1,1.515442E-1,-7.910406E-2,1.3962406E-1,8.2456395E-2,-7.923674E-2],"categories":[],"categories_nodes":[],"categories_segments":[],"categories_sizes":[],"default_left":[0,0,0,0,0,0,0,0,0,0,0,0,0,0,0,0,0,0,0,0,0,0,0,0,0,0,0,0,0,0,0,0,0,0,0,0,0,0,0,0,0,0,0,0,0,0,0,0,0,0,0,0,0,0,0,0,0,0,0,0,0,0,0,0,0,0,0,0,0,0,0,0,0,0,0,0,0,0,0,0,0,0,0,0,0,0,0,0,0,0,0,0,0,0,0,0,0,0,0,0,0,0,0,0,0,0,0,0,0,0,0,0,0,0,0,0,0,0,0,0,0,0,0,0,0,0,0],"id":3,"left_children":[1,3,5,7,9,11,13,15,17,19,21,23,25,27,29,31,33,35,37,39,41,43,45,47,49,51,53,55,57,59,61,63,65,67,69,71,73,75,77,79,81,83,85,87,89,91,93,95,97,99,101,103,105,107,109,111,113,115,117,119,121,123,125,-1,-1,-1,-1,-1,-1,-1,-1,-1,-1,-1,-1,-1,-1,-1,-1,-1,-1,-1,-1,-1,-1,-1,-1,-1,-1,-1,-1,-1,-1,-1,-1,-1,-1,-1,-1,-1,-1,-1,-1,-1,-1,-1,-1,-1,-1,-1,-1,-1,-1,-1,-1,-1,-1,-1,-1,-1,-1,-1,-1,-1,-1,-1,-1],"loss_changes":[3.2363147E3,7.4770654E2,6.072135E2,3.1660727E2,2.8745972E2,5.284831E2,2.2832812E2,1.5131142E2,9.053616E1,1.9433057E2,6.811324E1,7.011542E1,1.1442172E2,1.5958684E2,3.7233887E1,4.5811115E1,7.403793E1,2.8792633E1,5.278418E1,2.0764941E2,4.1784424E1,3.458345E1,3.5088776E1,1.49565735E1,5.9374893E1,3.262259E1,3.7724426E1,5.2882812E1,8.070749E1,2.6671387E1,3.1652325E1,5.9539948E0,1.7710777E1,6.007149E1,3.0407257E1,1.4135254E1,1.9507591E1,2.1488731E1,2.785212E1,4.1745483E1,1.719956E2,1.6230469E1,4.4575417E1,2.6335747E1,1.4360264E1,2.7285027E1,1.2762401E1,7.5204163E0,9.646084E0,1.1835358E1,6.4085144E1,4.356819E0,1.17626095E1,4.6788292E1,7.7292175E0,2.1539429E1,1.2816961E1,1.5182457E1,6.8994835E1,4.1473856E0,1.5851807E1,9.49316E0,1.8612371E1,0E0,0E0,0E0,0E0,0E0,0E0,0E0,0E0,0E0,0E0,0E0,0E0,0E0,0E0,0E0,0E0,0E0,0E0,0E0,0E0,0E0,0E0,0E0,0E0,0E0,0E0,0E0,0E0,0E0,0E0,0E0,0E0,0E0,0E0,0E0,0E0,0E0,0E0,0E0,0E0,0E0,0E0,0E0,0E0,0E0,0E0,0E0,0E0,0E0,0E0,0E0,0E0,0E0,0E0,0E0,0E0,0E0,0E0,0E0,0E0,0E0,0E0,0E0,0E0],"parents":[2147483647,0,0,1,1,2,2,3,3,4,4,5,5,6,6,7,7,8,8,9,9,10,10,11,11,12,12,13,13,14,14,15,15,16,16,17,17,18,18,19,19,20,20,21,21,22,22,23,23,24,24,25,25,26,26,27,27,28,28,29,29,30,30,31,31,32,32,33,33,34,34,35,35,36,36,37,37,38,38,39,39,40,40,41,41,42,42,43,43,44,44,45,45,46,46,47,47,48,48,49,49,50,50,51,51,52,52,53,53,54,54,55,55,56,56,57,57,58,58,59,59,60,60,61,61,62,62],"right_children":[2,4,6,8,10,12,14,16,18,20,22,24,26,28,30,32,34,36,38,40,42,44,46,48,50,52,54,56,58,60,62,64,66,68,70,72,74,76,78,80,82,84,86,88,90,92,94,96,98,100,102,104,106,108,110,112,114,116,118,120,122,124,126,-1,-1,-1,-1,-1,-1,-1,-1,-1,-1,-1,-1,-1,-1,-1,-1,-1,-1,-1,-1,-1,-1,-1,-1,-1,-1,-1,-1,-1,-1,-1,-1,-1,-1,-1,-1,-1,-1,-1,-1,-1,-1,-1,-1,-1,-1,-1,-1,-1,-1,-1,-1,-1,-1,-1,-1,-1,-1,-1,-1,-1,-1,-1,-1],"split_conditions":[-2.2328018E-1,-7.1404237E-1,-6.7489E-1,7.6377295E-2,3.925571E-1,-8.715521E-2,-3.5119763E-1,-6.7489E-1,5.761105E-2,-2.4123404E-2,-2.28444E-2,-3.53874E-1,-1.916563E-1,-2.0855777E-1,8.164419E-1,-1.4548905E0,-4.8035434E-1,-2.4985124E-1,-3.233516E-1,-2.4180005E-1,-2.6197192E-1,-3.2087478E-1,3.9501548E-1,1.9069661E0,-1.9961882E-1,-8.92743E-1,-1.9452003E-1,1.2182022E0,-3.0218205E-1,-3.2456222E-1,-1.3205433E-1,-6.7775863E-1,-1.0889739E0,-5.9914935E-1,-1.0142574E0,5.2815497E-2,-6.311439E-1,-2.3271209E-1,-2.28444E-2,2.6402142E-2,-6.891488E-1,1.9133513E0,-2.9210305E-1,-3.226786E-1,7.513366E-1,-6.6932386E-1,-4.1524333E-1,-6.2693936E-1,-3.0153665E-1,-8.4306854E-1,-1.9452003E-1,-4.098208E-1,1.3776876E0,-1.2076389E-1,4.838456E-1,-3.7842885E-1,4.350189E-1,4.897786E-1,6.336305E-1,-1.3293286E-1,-1.9452003E-1,-2.044082E0,3.25083E-2,-5.2193016E-2,1.4634904E-1,5.0664194E-2,-1.0814553E-1,1.130438E-1,-6.9121593E-3,-9.4268955E-3,1.146029E-1,-1.3017373E-1,6.086142E-3,-1.3749434E-1,-1.5942065E-2,-9.6243665E-2,4.546233E-2,-1.2982975E-2,9.4053484E-2,-1.410697E-1,-7.915745E-2,-1.2291781E-1,1.7082348E-2,-1.4690205E-1,-2.5787575E-2,-1.3585299E-1,-6.7273774E-3,-6.509435E-2,1.3665566E-1,-9.474819E-2,7.8851804E-2,-6.727256E-2,1.2713216E-1,5.329829E-2,-9.951069E-2,-7.442477E-2,-1.4622827E-1,-8.889405E-2,9.2936955E-2,-1.646821E-2,-1.4497186E-1,-8.242064E-2,8.8329434E-2,-2.0707974E-2,-1.5619023E-1,1.0275193E-1,-9.015643E-2,-7.2603814E-2,1.0135629E-1,1.4557795E-1,2.0562145E-3,4.891599E-2,1.3687085E-1,-9.7989775E-2,9.025731E-2,-1.220294E-1,7.3700406E-2,8.2744114E-2,-5.069008E-2,4.6725854E-2,-1.4372087E-1,1.2263968E-1,1.515442E-1,-7.910406E-2,1.3962406E-1,8.2456395E-2,-7.923674E-2],"split_indices":[64,62,26,55,61,73,73,26,50,55,9,73,63,62,69,13,73,64,26,26,60,11,15,60,63,26,38,55,63,63,57,7,49,1,9,73,26,73,9,9,9,5,26,63,73,26,2,62,61,15,38,36,57,64,69,26,48,61,65,72,38,4,15,0,0,0,0,0,0,0,0,0,0,0,0,0,0,0,0,0,0,0,0,0,0,0,0,0,0,0,0,0,0,0,0,0,0,0,0,0,0,0,0,0,0,0,0,0,0,0,0,0,0,0,0,0,0,0,0,0,0,0,0,0,0,0,0],"split_type":[0,0,0,0,0,0,0,0,0,0,0,0,0,0,0,0,0,0,0,0,0,0,0,0,0,0,0,0,0,0,0,0,0,0,0,0,0,0,0,0,0,0,0,0,0,0,0,0,0,0,0,0,0,0,0,0,0,0,0,0,0,0,0,0,0,0,0,0,0,0,0,0,0,0,0,0,0,0,0,0,0,0,0,0,0,0,0,0,0,0,0,0,0,0,0,0,0,0,0,0,0,0,0,0,0,0,0,0,0,0,0,0,0,0,0,0,0,0,0,0,0,0,0,0,0,0,0],"sum_hessian":[5.542751E3,3.1733E3,2.369451E3,9.9420056E2,2.1790996E3,6.199996E2,1.7494514E3,5.890856E2,4.0511496E2,1.9922474E3,1.868521E2,3.1019034E2,3.0980923E2,4.7138388E2,1.2780675E3,8.940099E1,4.996846E2,2.3895093E2,1.6616403E2,9.1555164E2,1.0766958E3,8.924524E1,9.7606865E1,1.7379482E2,1.3639552E2,3.668419E1,2.7312503E2,2.5489006E2,2.164938E2,1.2175273E3,6.0540222E1,1.0607505E1,7.879349E1,2.0355698E2,2.9612762E2,1.6914177E2,6.9809166E1,7.020787E1,9.595616E1,4.952935E2,4.2025812E2,9.691654E2,1.07530396E2,2.495462E1,6.429062E1,7.691079E1,2.0696074E1,1.6392818E2,9.866641E0,4.8831882E1,8.756364E1,2.2919882E1,1.3764307E1,8.484769E1,1.8827734E2,2.3738068E2,1.7509386E1,5.4969254E1,1.6152455E2,4.0192637E0,1.213508E3,3.2696255E1,2.7843967E1,1.2513089E0,9.356196E0,7.193373E0,7.160012E1,5.7377426E1,1.4617955E2,2.1134102E1,2.7499353E2,1.6124525E2,7.8965063E0,1.6721344E1,5.3087822E1,5.775332E1,1.24545555E1,4.6512886E1,4.9443275E1,3.2384967E2,1.7144382E2,1.2347703E2,2.967811E2,9.574941E2,1.1671323E1,5.931773E1,4.821267E1,1.0174551E1,1.4780069E1,5.9862667E1,4.42795E0,7.4216623E0,6.948913E1,8.492594E0,1.2203479E1,1.9888739E1,1.4403943E2,5.674196E0,4.192445E0,9.030234E0,3.9801647E1,3.777169E1,4.9791946E1,3.0546675E0,1.9865213E1,1.0241265E1,3.5230412E0,1.9353945E1,6.549374E1,1.8441808E2,3.8592782E0,3.3939674E1,2.03441E2,1.3563597E1,3.945789E0,5.1329277E1,3.6399753E0,9.918573E1,6.233883E1,1.0443774E0,2.9748864E0,2.778762E2,9.356319E2,1.4939443E0,3.120231E1,1.0771692E1,1.7072275E1],"tree_param":{"num_deleted":"0","num_feature":"74","num_nodes":"127","size_leaf_vector":"1"}},{"base_weights":[-8.254924E-3,-6.299206E-1,8.088978E-1,4.6340413E-2,-9.344229E-1,1.9231795E-1,1.1643275E0,5.122044E-1,-5.25905E-1,-1.0089953E0,6.570778E-1,5.67296E-1,-6.680918E-1,7.542937E-1,1.312007E0,1.043171E0,1.597674E-1,-1.1979984E0,-1.6528094E-1,-1.1085259E0,-4.925799E-2,1.007631E0,-6.148118E-1,7.2595465E-1,-8.80375E-1,-2.0777605E-1,-1.2247194E0,1.4886707E-1,1.1842594E0,1.3284332E0,-3.2935992E-1,1.6053904E-2,1.2587612E0,6.834711E-1,-1.8137732E-1,-1.2708507E0,4.8182693E-1,-8.0323106E-1,2.7381954E-1,-8.832252E-1,-1.4387281E0,8.1843776E-1,-5.002368E-1,1.1654162E0,-6.407518E-1,4.6635088E-1,-1.0370845E0,1.2272859E0,2.663527E-1,1.0020757E0,-1.2105364E0,-9.299432E-1,3.4695715E-1,-1.3976327E0,-1.8855031E-1,1.0429482E0,-2.3199624E-1,1.2760389E0,-1.0808636E0,1.4023503E0,9.8889375E-1,8.6836076E-1,-1.1618603E0,9.3101576E-2,-7.286262E-2,-1.6125893E-2,1.3142766E-1,-1.07425965E-1,8.157398E-2,-4.7342073E-2,5.637462E-2,-7.479706E-2,-1.4742275E-1,-1.1628058E-1,1.3582568E-1,-4.8564002E-2,-1.3261847E-1,-3.633794E-2,6.681146E-2,-1.1235565E-1,-3.4698695E-2,-1.4525782E-1,-2.2898307E-2,-2.5717808E-2,1.2981687E-1,9.953705E-3,-1.1476481E-1,1.2765564E-1,-6.1972793E-2,1.0519691E-1,-1.2979273E-1,-3.3475876E-2,1.2316459E-1,3.0514134E-2,-1.4639466E-1,-7.5566895E-2,1.2663907E-1,9.814703E-2,-1.951471E-2,9.694594E-3,1.4585947E-1,4.2108987E-2,-1.4757432E-1,1.4089728E-2,-1.149856E-1,1.0140127E-1,-2.375869E-2,-1.4328332E-1,5.634358E-2,-1.2374028E-1,1.0077325E-1,1.273594E-1,8.232679E-3,5.1567864E-2,-6.372711E-2,-7.0995145E-2,1.2969865E-1,-1.5153585E-1,9.488697E-2,1.2500888E-1,1.4651465E-1,1.8533813E-2,1.1944201E-1,1.2777956E-1,-4.436099E-2,-1.5899684E-1,8.962442E-3],"categories":[],"categories_nodes":[],"categories_segments":[],"categories_sizes":[],"default_left":[0,0,0,0,0,0,0,0,0,0,0,0,0,0,0,0,0,0,0,0,0,0,0,0,0,0,0,0,0,0,0,0,0,0,0,0,0,0,0,0,0,0,0,0,0,0,0,0,0,0,0,0,0,0,0,0,0,0,0,0,0,0,0,0,0,0,0,0,0,0,0,0,0,0,0,0,0,0,0,0,0,0,0,0,0,0,0,0,0,0,0,0,0,0,0,0,0,0,0,0,0,0,0,0,0,0,0,0,0,0,0,0,0,0,0,0,0,0,0,0,0,0,0,0,0,0,0],"id":4,"left_children":[1,3,5,7,9,11,13,15,17,19,21,23,25,27,29,31,33,35,37,39,41,43,45,47,49,51,53,55,57,59,61,63,65,67,69,71,73,75,77,79,81,83,85,87,89,91,93,95,97,99,101,103,105,107,109,111,113,115,117,119,121,123,125,-1,-1,-1,-1,-1,-1,-1,-1,-1,-1,-1,-1,-1,-1,-1,-1,-1,-1,-1,-1,-1,-1,-1,-1,-1,-1,-1,-1,-1,-1,-1,-1,-1,-1,-1,-1,-1,-1,-1,-1,-1,-1,-1,-1,-1,-1,-1,-1,-1,-1,-1,-1,-1,-1,-1,-1,-1,-1,-1,-1,-1,-1,-1,-1],"loss_changes":[2.743633E3,6.3167957E2,5.111759E2,2.5440424E2,2.51682E2,2.7606915E2,8.8632935E1,9.826372E1,1.036083E2,1.9297705E2,4.309893E1,1.3745613E2,6.631902E1,1.0245546E2,2.9739258E1,4.6407516E1,5.681729E1,1.8895615E1,7.862459E1,1.3493555E2,7.511978E1,2.0271149E1,1.0165369E1,1.2349332E2,3.806059E1,5.777832E1,2.0771545E1,5.6383568E1,4.9276337E1,2.5624146E1,1.2545207E1,2.6151936E1,1.387204E1,3.0026585E1,4.225356E1,1.4153503E1,1.15756E1,1.8349976E1,4.2082367E1,1.4019843E2,1.208252E1,3.422192E1,4.913671E1,1.4453941E1,9.378207E0,4.4869385E0,9.36195E0,2.0865875E1,9.313937E1,3.7401848E0,2.2643822E1,1.4898815E1,3.2152832E1,7.7420044E0,2.3764502E1,1.0847717E1,3.5610283E1,1.0151459E1,9.827591E0,6.5963135E0,3.2114914E1,3.4227047E0,4.028595E0,0E0,0E0,0E0,0E0,0E0,0E0,0E0,0E0,0E0,0E0,0E0,0E0,0E0,0E0,0E0,0E0,0E0,0E0,0E0,0E0,0E0,0E0,0E0,0E0,0E0,0E0,0E0,0E0,0E0,0E0,0E0,0E0,0E0,0E0,0E0,0E0,0E0,0E0,0E0,0E0,0E0,0E0,0E0,0E0,0E0,0E0,0E0,0E0,0E0,0E0,0E0,0E0,0E0,0E0,0E0,0E0,0E0,0E0,0E0,0E0,0E0,0E0,0E0,0E0],"parents":[2147483647,0,0,1,1,2,2,3,3,4,4,5,5,6,6,7,7,8,8,9,9,10,10,11,11,12,12,13,13,14,14,15,15,16,16,17,17,18,18,19,19,20,20,21,21,22,22,23,23,24,24,25,25,26,26,27,27,28,28,29,29,30,30,31,31,32,32,33,33,34,34,35,35,36,36,37,37,38,38,39,39,40,40,41,41,42,42,43,43,44,44,45,45,46,46,47,47,48,48,49,49,50,50,51,51,52,52,53,53,54,54,55,55,56,56,57,57,58,58,59,59,60,60,61,61,62,62],"right_children":[2,4,6,8,10,12,14,16,18,20,22,24,26,28,30,32,34,36,38,40,42,44,46,48,50,52,54,56,58,60,62,64,66,68,70,72,74,76,78,80,82,84,86,88,90,92,94,96,98,100,102,104,106,108,110,112,114,116,118,120,122,124,126,-1,-1,-1,-1,-1,-1,-1,-1,-1,-1,-1,-1,-1,-1,-1,-1,-1,-1,-1,-1,-1,-1,-1,-1,-1,-1,-1,-1,-1,-1,-1,-1,-1,-1,-1,-1,-1,-1,-1,-1,-1,-1,-1,-1,-1,-1,-1,-1,-1,-1,-1,-1,-1,-1,-1,-1,-1,-1,-1,-1,-1,-1,-1,-1],"split_conditions":[-2.2414292E-1,-7.1404237E-1,-2.701169E-1,-3.194188E-2,7.4552506E-1,3.2896233E-1,-1.9452003E-1,-2.7019155E-1,-2.546027E-1,8.331723E-1,3.3995563E-1,2.3747063E0,2.3584308E-1,-8.793602E-2,2.013065E0,-3.3325574E-1,-2.1880561E-1,2.9692607E0,-5.172728E-1,1.1367993E-1,-3.1669268E-1,3.0683973E-1,-2.7019155E-1,-1.3320376E-1,-2.7712396E-1,-9.283446E-1,3.1307024E-1,-7.1226734E-1,1.1611857E0,1.0204954E0,-7.6858915E-2,-8.562031E-2,-2.5559774E-1,-1.1229326E0,-2.4899542E-1,-3.482323E-1,-4.8699203E-1,1.8896726E-1,-4.3633562E-1,-2.471722E-1,5.228132E-1,-5.6691855E-1,-1.5653549E-1,3.2910373E-2,-9.572959E-1,1.7727563E-1,-5.508407E-1,-8.0870855E-1,-3.0455822E-1,-5.849354E-1,-2.826614E-1,-7.7627546E-1,-9.777159E-2,5.6444585E-1,-3.8592172E-1,2.719714E-1,-3.7916258E-1,-1.724345E0,3.272477E-1,3.8272485E-2,-1.8372436E-1,5.656028E-1,1.078093E0,9.3101576E-2,-7.286262E-2,-1.6125893E-2,1.3142766E-1,-1.07425965E-1,8.157398E-2,-4.7342073E-2,5.637462E-2,-7.479706E-2,-1.4742275E-1,-1.1628058E-1,1.3582568E-1,-4.8564002E-2,-1.3261847E-1,-3.633794E-2,6.681146E-2,-1.1235565E-1,-3.4698695E-2,-1.4525782E-1,-2.2898307E-2,-2.5717808E-2,1.2981687E-1,9.953705E-3,-1.1476481E-1,1.2765564E-1,-6.1972793E-2,1.0519691E-1,-1.2979273E-1,-3.3475876E-2,1.2316459E-1,3.0514134E-2,-1.4639466E-1,-7.5566895E-2,1.2663907E-1,9.814703E-2,-1.951471E-2,9.694594E-3,1.4585947E-1,4.2108987E-2,-1.4757432E-1,1.4089728E-2,-1.149856E-1,1.0140127E-1,-2.375869E-2,-1.4328332E-1,5.634358E-2,-1.2374028E-1,1.0077325E-1,1.273594E-1,8.232679E-3,5.1567864E-2,-6.372711E-2,-7.0995145E-2,1.2969865E-1,-1.5153585E-1,9.488697E-2,1.2500888E-1,1.4651465E-1,1.8533813E-2,1.1944201E-1,1.2777956E-1,-4.436099E-2,-1.5899684E-1,8.962442E-3],"split_indices":[64,62,73,55,61,55,38,3,64,60,15,69,62,64,69,9,49,60,48,62,3,18,3,3,11,44,61,3,69,57,57,47,64,14,64,11,17,13,9,64,73,7,18,53,3,14,10,61,70,40,65,3,57,66,66,62,39,9,61,73,64,32,29,0,0,0,0,0,0,0,0,0,0,0,0,0,0,0,0,0,0,0,0,0,0,0,0,0,0,0,0,0,0,0,0,0,0,0,0,0,0,0,0,0,0,0,0,0,0,0,0,0,0,0,0,0,0,0,0,0,0,0,0,0,0,0,0],"split_type":[0,0,0,0,0,0,0,0,0,0,0,0,0,0,0,0,0,0,0,0,0,0,0,0,0,0,0,0,0,0,0,0,0,0,0,0,0,0,0,0,0,0,0,0,0,0,0,0,0,0,0,0,0,0,0,0,0,0,0,0,0,0,0,0,0,0,0,0,0,0,0,0,0,0,0,0,0,0,0,0,0,0,0,0,0,0,0,0,0,0,0,0,0,0,0,0,0,0,0,0,0,0,0,0,0,0,0,0,0,0,0,0,0,0,0,0,0,0,0,0,0,0,0,0,0,0,0],"sum_hessian":[5.398894E3,3.0663413E3,2.3325527E3,9.5228503E2,2.1140562E3,8.53496E2,1.4790568E3,5.249936E2,4.272914E2,2.0197821E3,9.427421E1,5.94671E2,2.5882492E2,3.9326343E2,1.0857933E3,2.0866615E2,3.1632745E2,1.4839897E2,2.7889246E2,1.8298595E3,1.8992258E2,7.4067726E1,2.0206484E1,5.3638416E2,5.8286903E1,1.4242043E2,1.1640451E2,1.6386893E2,2.2939452E2,1.0752235E3,1.0569811E1,3.6386707E1,1.7227945E2,1.2438147E2,1.91946E2,1.4246393E2,5.9350467E0,1.1336298E2,1.6552946E2,1.0898899E3,7.3996954E2,6.467373E1,1.2524885E2,6.786463E1,6.2030945E0,5.6461143E0,1.4560369E1,2.5574672E2,2.8063742E2,8.393773E0,4.9893127E1,6.1578907E1,8.084152E1,9.9458305E1,1.6946201E1,4.8433147E1,1.15435776E2,2.2088138E2,8.513129E0,8.8042615E2,1.9479735E2,4.316531E0,6.25328E0,1.6214413E1,2.0172295E1,6.410155E0,1.658693E2,8.206233E0,1.1617523E2,1.3816019E2,5.37858E1,4.1204716E1,1.0125922E2,1.9496843E0,3.9853623E0,7.172989E1,4.1633095E1,6.3304638E1,1.0222482E2,7.5183655E2,3.3805338E2,7.313952E2,8.574329E0,2.0091047E1,4.458268E1,6.545571E1,5.9793133E1,6.415533E1,3.7093055E0,1.5667619E0,4.6363325E0,3.0333667E0,2.612748E0,3.5820663E0,1.0978302E1,4.5915294E0,2.5115518E2,1.0963135E2,1.7100606E2,3.220641E0,5.1731324E0,6.8936577E0,4.299947E1,1.0552756E1,5.102615E1,3.741289E1,4.3428627E1,9.7969154E1,1.489151E0,9.011186E0,7.935016E0,3.8793102E1,9.640045E0,4.048122E1,7.495455E1,1.9621649E0,2.1891922E2,7.2208233E0,1.2923057E0,2.631866E2,6.172395E2,4.0063E1,1.5473436E2,3.3097007E0,1.0068302E0,4.457867E0,1.795413E0],"tree_param":{"num_deleted":"0","num_feature":"74","num_nodes":"127","size_leaf_vector":"1"}},{"base_weights":[-1.7714282E-4,-5.2294517E-1,8.4885347E-1,-9.3481797E-1,-4.8632674E-2,2.1769583E-1,1.2039825E0,-3.1278336E-1,-1.1216817E0,3.6298308E-1,-7.7984464E-1,-6.312204E-1,7.2890556E-1,7.3492265E-1,1.3045056E0,-7.979945E-1,1.3144289E-1,-1.3604827E0,-9.2574686E-1,-6.619917E-1,6.646419E-1,-9.3410426E-1,3.5257646E-1,2.535042E-1,-1.073482E0,-4.889881E-1,9.782924E-1,1.2147673E0,3.806967E-2,1.33455E0,6.19214E-1,-1.020945E0,-9.396521E-2,-8.328856E-1,3.2903084E-1,-9.0228754E-1,-1.4321544E0,-1.1132578E0,-4.263684E-1,2.1038799E-1,-1.1094874E0,1.1863596E0,2.9154792E-1,-1.0429481E0,2.7525216E-1,9.480854E-1,-2.9775265E-1,-1.1036174E0,6.9318694E-1,-1.2312288E0,-2.724389E-1,3.4895197E-1,-1.0189539E0,4.359196E-1,1.2286847E0,5.6611544E-1,1.3553865E0,-1.1528041E0,8.3191496E-1,1.3428363E0,-9.818961E-1,-4.994795E-1,9.3006504E-1,-7.762542E-2,-1.4690606E-1,4.372262E-2,-1.18165866E-1,5.599115E-2,-1.1635444E-1,5.4621097E-2,-7.593908E-2,-1.263614E-1,-2.9534174E-2,-1.0205652E-1,-1.4514546E-1,-7.066854E-2,-1.2903732E-1,5.798114E-2,-1.0085308E-1,-2.3296902E-2,1.4928356E-1,-1.2987356E-1,-2.6254956E-2,1.3377835E-1,6.022642E-2,5.929912E-2,-5.6957174E-2,-5.3196855E-2,-1.2244506E-1,-7.88742E-2,7.597403E-2,-5.2623224E-2,1.3993481E-1,5.560357E-2,-1.0379547E-1,-1.233864E-1,4.39812E-2,1.3754225E-1,2.9840425E-5,-1.3709842E-1,-5.68193E-2,-6.2396284E-2,1.2571359E-1,-7.726916E-2,1.1948114E-1,1.7349998E-2,-1.2253982E-1,-1.9496968E-2,1.0182106E-1,8.379572E-2,1.348962E-1,-4.7857642E-2,1.05584525E-1,4.929958E-2,1.4380924E-1,-1.6914666E-1,-2.5493419E-2,1.15414694E-1,-7.075987E-2,1.03365414E-1,1.3782485E-1,3.494625E-2,-1.5149012E-1,5.6873042E-2,-1.1592956E-1,1.23111285E-1,1.0043935E-2],"categories":[],"categories_nodes":[],"categories_segments":[],"categories_sizes":[],"default_left":[0,0,0,0,0,0,0,0,0,0,0,0,0,0,0,0,0,0,0,0,0,0,0,0,0,0,0,0,0,0,0,0,0,0,0,0,0,0,0,0,0,0,0,0,0,0,0,0,0,0,0,0,0,0,0,0,0,0,0,0,0,0,0,0,0,0,0,0,0,0,0,0,0,0,0,0,0,0,0,0,0,0,0,0,0,0,0,0,0,0,0,0,0,0,0,0,0,0,0,0,0,0,0,0,0,0,0,0,0,0,0,0,0,0,0,0,0,0,0,0,0,0,0,0,0,0,0],"id":5,"left_children":[1,3,5,7,9,11,13,15,17,19,21,23,25,27,29,31,33,35,37,39,41,43,45,47,49,51,53,55,57,59,61,63,65,67,69,71,73,75,77,79,81,83,85,87,89,91,93,95,97,99,101,103,105,107,109,111,113,115,117,119,121,123,125,-1,-1,-1,-1,-1,-1,-1,-1,-1,-1,-1,-1,-1,-1,-1,-1,-1,-1,-1,-1,-1,-1,-1,-1,-1,-1,-1,-1,-1,-1,-1,-1,-1,-1,-1,-1,-1,-1,-1,-1,-1,-1,-1,-1,-1,-1,-1,-1,-1,-1,-1,-1,-1,-1,-1,-1,-1,-1,-1,-1,-1,-1,-1,-1],"loss_changes":[2.3476345E3,6.394814E2,4.5153235E2,2.0330518E2,4.585367E2,3.159559E2,5.9850708E1,8.7645355E1,6.1763794E1,3.0185614E2,9.617966E1,1.0739642E2,1.3843489E2,7.68272E1,2.1014038E1,3.0395187E1,4.0836575E1,1.8573853E1,6.910034E1,8.6965E1,1.4635776E2,6.388971E1,2.6039745E1,5.5694435E1,2.2753983E1,3.4934784E1,5.0710175E1,1.1648193E1,9.0563194E1,2.080774E1,1.6606411E1,1.5025681E1,2.814716E1,1.74541E1,4.23487E1,1.8164589E1,2.6607666E0,3.7942078E1,1.2034511E2,4.3654133E1,2.3220886E1,2.6959534E1,1.1474893E2,4.0480743E1,2.1573662E1,2.3993332E1,2.1149399E1,5.148554E0,3.3157112E1,1.33407135E1,1.7639254E1,3.0251886E1,1.2017773E1,4.455121E1,1.0976257E1,1.3791002E1,7.2185974E0,1.810704E1,2.9317566E1,9.657227E0,3.5074782E0,8.232056E0,9.035992E0,0E0,0E0,0E0,0E0,0E0,0E0,0E0,0E0,0E0,0E0,0E0,0E0,0E0,0E0,0E0,0E0,0E0,0E0,0E0,0E0,0E0,0E0,0E0,0E0,0E0,0E0,0E0,0E0,0E0,0E0,0E0,0E0,0E0,0E0,0E0,0E0,0E0,0E0,0E0,0E0,0E0,0E0,0E0,0E0,0E0,0E0,0E0,0E0,0E0,0E0,0E0,0E0,0E0,0E0,0E0,0E0,0E0,0E0,0E0,0E0,0E0,0E0,0E0,0E0],"parents":[2147483647,0,0,1,1,2,2,3,3,4,4,5,5,6,6,7,7,8,8,9,9,10,10,11,11,12,12,13,13,14,14,15,15,16,16,17,17,18,18,19,19,20,20,21,21,22,22,23,23,24,24,25,25,26,26,27,27,28,28,29,29,30,30,31,31,32,32,33,33,34,34,35,35,36,36,37,37,38,38,39,39,40,40,41,41,42,42,43,43,44,44,45,45,46,46,47,47,48,48,49,49,50,50,51,51,52,52,53,53,54,54,55,55,56,56,57,57,58,58,59,59,60,60,61,61,62,62],"right_children":[2,4,6,8,10,12,14,16,18,20,22,24,26,28,30,32,34,36,38,40,42,44,46,48,50,52,54,56,58,60,62,64,66,68,70,72,74,76,78,80,82,84,86,88,90,92,94,96,98,100,102,104,106,108,110,112,114,116,118,120,122,124,126,-1,-1,-1,-1,-1,-1,-1,-1,-1,-1,-1,-1,-1,-1,-1,-1,-1,-1,-1,-1,-1,-1,-1,-1,-1,-1,-1,-1,-1,-1,-1,-1,-1,-1,-1,-1,-1,-1,-1,-1,-1,-1,-1,-1,-1,-1,-1,-1,-1,-1,-1,-1,-1,-1,-1,-1,-1,-1,-1,-1,-1,-1,-1,-1],"split_conditions":[-2.6738536E-1,-1.8822914E-1,-5.1208997E-1,-7.523097E-1,2.1360879E-1,-1.7980455E-1,-3.7914222E-1,3.136367E-1,-6.7489E-1,-6.733135E-1,-2.8997597E-1,-5.354271E-1,-2.035929E-1,2.6648697E-1,1.3284323E0,-2.4899542E-1,-2.555095E-1,-1.0445942E0,-3.151033E-1,-6.541006E-1,-2.8212273E-1,-6.2157173E-2,2.1349747E-1,-8.4691083E-1,5.833538E-1,-5.303767E-1,-1.9452003E-1,-3.233516E-1,5.2543426E-1,3.3361607E0,-1.99857E-1,-3.5778123E-1,-1.5397169E-1,-1.504686E0,-1.7726165E-1,-3.0502042E-1,-1.2934227E0,-8.421324E-1,-4.751629E-1,-2.3718014E-1,-2.3115274E-1,2.2482693E-1,-1.649485E-1,-7.0649534E-1,-1.9452003E-1,-6.9430774E-1,-5.022791E-1,2.8232464E-1,-2.8212273E-1,-3.2266262E-1,-1.556471E-1,-9.556377E-1,-2.972433E-1,3.5784636E-2,-4.1411646E-2,-4.2415223E-1,-7.840176E-1,7.752043E-2,6.634537E-1,-2.119617E-1,-3.2116336E-1,-2.8395763E-1,8.0189294E-1,-7.762542E-2,-1.4690606E-1,4.372262E-2,-1.18165866E-1,5.599115E-2,-1.1635444E-1,5.4621097E-2,-7.593908E-2,-1.263614E-1,-2.9534174E-2,-1.0205652E-1,-1.4514546E-1,-7.066854E-2,-1.2903732E-1,5.798114E-2,-1.0085308E-1,-2.3296902E-2,1.4928356E-1,-1.2987356E-1,-2.6254956E-2,1.3377835E-1,6.022642E-2,5.929912E-2,-5.6957174E-2,-5.3196855E-2,-1.2244506E-1,-7.88742E-2,7.597403E-2,-5.2623224E-2,1.3993481E-1,5.560357E-2,-1.0379547E-1,-1.233864E-1,4.39812E-2,1.3754225E-1,2.9840425E-5,-1.3709842E-1,-5.68193E-2,-6.2396284E-2,1.2571359E-1,-7.726916E-2,1.1948114E-1,1.7349998E-2,-1.2253982E-1,-1.9496968E-2,1.0182106E-1,8.379572E-2,1.348962E-1,-4.7857642E-2,1.05584525E-1,4.929958E-2,1.4380924E-1,-1.6914666E-1,-2.5493419E-2,1.15414694E-1,-7.075987E-2,1.03365414E-1,1.3782485E-1,3.494625E-2,-1.5149012E-1,5.6873042E-2,-1.1592956E-1,1.23111285E-1,1.0043935E-2],"split_indices":[63,26,26,62,55,72,66,22,26,9,60,15,64,15,55,64,64,13,63,62,3,72,3,22,9,15,38,26,26,0,64,70,15,13,15,61,3,13,15,64,64,41,62,62,38,7,62,23,3,66,38,26,37,64,63,66,9,9,62,64,8,34,15,0,0,0,0,0,0,0,0,0,0,0,0,0,0,0,0,0,0,0,0,0,0,0,0,0,0,0,0,0,0,0,0,0,0,0,0,0,0,0,0,0,0,0,0,0,0,0,0,0,0,0,0,0,0,0,0,0,0,0,0,0,0,0,0],"split_type":[0,0,0,0,0,0,0,0,0,0,0,0,0,0,0,0,0,0,0,0,0,0,0,0,0,0,0,0,0,0,0,0,0,0,0,0,0,0,0,0,0,0,0,0,0,0,0,0,0,0,0,0,0,0,0,0,0,0,0,0,0,0,0,0,0,0,0,0,0,0,0,0,0,0,0,0,0,0,0,0,0,0,0,0,0,0,0,0,0,0,0,0,0,0,0,0,0,0,0,0,0,0,0,0,0,0,0,0,0,0,0,0,0,0,0,0,0,0,0,0,0,0,0,0,0,0,0],"sum_hessian":[5.2872993E3,3.2726414E3,2.0146578E3,1.7510945E3,1.5215469E3,7.2599194E2,1.2886658E3,4.0513824E2,1.3459562E3,9.738489E2,5.47698E2,2.7277927E2,4.532127E2,2.2889764E2,1.0597682E3,1.9325592E2,2.1188232E2,6.039418E2,7.420144E2,2.2116866E2,7.5268024E2,4.821888E2,6.550915E1,9.105488E1,1.8172438E2,7.6867165E1,3.7634555E2,1.351155E2,9.378214E1,1.0143498E3,4.5418407E1,1.4643353E2,4.6822395E1,3.5484562E1,1.7639777E2,8.352951E1,5.204123E2,5.3856146E2,2.0345293E2,7.516552E1,1.4600313E2,3.1292303E2,4.397572E2,4.425007E2,3.9688118E1,3.395686E1,3.1552284E1,2.191186E1,6.914302E1,1.5137714E2,3.0347237E1,2.9912863E1,4.69543E1,1.1973323E2,2.566123E2,2.4968065E1,1.1014743E2,3.7329994E1,5.645215E1,1.0111531E3,3.196716E0,9.744173E0,3.5674232E1,9.648226E1,4.9951267E1,3.1860746E1,1.4961648E1,6.674977E0,2.8809584E1,1.474702E2,2.8927565E1,5.168094E1,3.1848572E1,2.572325E1,4.9468903E2,1.6493642E2,3.7362506E2,7.4571465E1,1.2888147E2,5.6463703E1,1.8701818E1,1.18901215E2,2.710192E1,2.4747581E2,6.544721E1,3.259623E2,1.1379489E2,1.1701163E2,3.2548907E2,1.2221107E1,2.746701E1,7.9189076E0,2.6037952E1,1.4767487E1,1.6784798E1,2.0391626E1,1.5202335E0,3.434299E1,3.480003E1,1.24142525E2,2.7234615E1,2.5157627E1,5.1896095E0,1.2897182E1,1.701568E1,6.952894E0,4.0001404E1,5.7787697E1,6.1945534E1,6.2275085E1,1.9433723E2,7.976139E0,1.6991926E1,1.0248207E1,9.989922E1,2.2779776E1,1.455022E1,4.688837E1,9.563778E0,1.07013405E2,9.0413965E2,1.0123607E0,2.1843553E0,3.7733502E0,5.9708233E0,2.5820692E1,9.853542E0],"tree_param":{"num_deleted":"0","num_feature":"74","num_nodes":"127","size_leaf_vector":"1"}},{"base_weights":[2.5555561E-3,-4.8138413E-1,8.0297506E-1,1.6065411E-2,-8.496599E-1,9.0653074E-1,-7.162579E-1,3.5550112E-1,-5.78873E-1,-9.286757E-1,7.133166E-1,5.62031E-1,1.1798468E0,-1.3446165E0,3.0885828E-1,-2.1464667E-1,5.955033E-1,-1.0004786E0,-2.031976E-1,-7.191993E-1,-1.275563E0,-7.117193E-1,9.8422366E-1,-1.744854E-1,8.311428E-1,1.2892661E0,7.6616067E-1,-1.449279E0,-1.0892855E-2,6.7651796E-1,-6.118153E-1,-7.362815E-1,2.1626996E-1,7.2993916E-1,-2.9068157E-1,-1.1391008E0,-3.5154963E-1,-8.0777687E-1,2.1558383E-1,-9.625744E-1,-1.4819302E-1,-1.3383782E0,-7.389837E-1,7.521971E-2,-9.725055E-1,1.2381958E0,-5.952225E-2,2.8491062E-1,-6.7953885E-1,1.1489655E0,4.453426E-1,1.3092053E0,5.6776005E-1,-2.3926765E-1,9.4084877E-1,4.1652568E-2,-1.4825702E0,-9.060803E-1,1.0782508E-1,-5.3886086E-1,9.2986786E-1,-1.2788055E0,8.348565E-1,-1.2659658E-1,-1.745146E-2,-5.7278898E-2,5.3865653E-2,8.1729166E-2,-4.93129E-2,-1.0094841E-1,3.830429E-2,-1.2044378E-1,-2.5514755E-2,8.131866E-2,-7.633007E-2,-9.111853E-2,7.493796E-2,-7.756934E-2,4.326952E-2,-4.468499E-2,-1.11350395E-1,-4.363393E-2,8.7944135E-2,-1.3709994E-1,-7.7961035E-2,-1.1934952E-1,-1.2439535E-3,4.210534E-2,-1.2705298E-1,-5.8317263E-2,1.3177513E-1,5.2996065E-2,-1.0138358E-1,6.348042E-2,-3.131884E-2,-8.948538E-2,4.3543454E-2,1.2371273E-1,3.0470852E-2,-2.8781767E-3,1.04316615E-1,-1.0637031E-2,1.3157909E-1,8.956891E-2,-8.983989E-2,8.8744156E-2,-6.7551754E-2,5.6050446E-2,1.2035371E-1,-1.5039222E-1,-3.5415635E-2,1.101604E-2,-1.3403039E-1,7.597956E-2,-1.0839812E-1,1.2140242E-1,-2.599832E-3,3.1888366E-2,-1.582547E-1,1.2957586E-1,-5.0825503E-2],"categories":[],"categories_nodes":[],"categories_segments":[],"categories_sizes":[],"default_left":[0,0,0,0,0,0,0,0,0,0,0,0,0,0,0,0,0,0,0,0,0,0,0,0,0,0,0,0,0,0,0,0,0,0,0,0,0,0,0,0,0,0,0,0,0,0,0,0,0,0,0,0,0,0,0,0,0,0,0,0,0,0,0,0,0,0,0,0,0,0,0,0,0,0,0,0,0,0,0,0,0,0,0,0,0,0,0,0,0,0,0,0,0,0,0,0,0,0,0,0,0,0,0,0,0,0,0,0,0,0,0,0,0,0,0,0,0,0,0,0,0],"id":6,"left_children":[1,3,5,7,9,11,13,15,17,19,21,23,25,27,29,31,33,35,37,39,41,43,45,47,49,51,53,55,57,59,61,63,65,67,69,71,73,75,77,79,81,83,85,-1,87,89,91,93,95,97,99,101,103,105,107,-1,109,111,-1,113,115,117,119,-1,-1,-1,-1,-1,-1,-1,-1,-1,-1,-1,-1,-1,-1,-1,-1,-1,-1,-1,-1,-1,-1,-1,-1,-1,-1,-1,-1,-1,-1,-1,-1,-1,-1,-1,-1,-1,-1,-1,-1,-1,-1,-1,-1,-1,-1,-1,-1,-1,-1,-1,-1,-1,-1,-1,-1,-1,-1],"loss_changes":[1.967427E3,5.7990094E2,3.0173682E2,2.7232574E2,2.2528906E2,1.6807678E2,7.944109E1,1.1761708E2,7.739E1,1.2491968E2,3.470849E1,1.5766287E2,4.4204346E1,1.0627762E1,1.647073E1,5.7499325E1,7.223123E1,2.0341827E1,6.6082306E1,1.5022449E2,2.094397E1,6.3251834E0,1.9806366E1,4.9729374E1,7.087811E1,1.059436E1,3.7336983E1,5.0085907E0,7.368683E0,1.1085309E1,1.4636475E1,3.418475E1,3.604071E1,5.6511658E1,3.929424E1,1.0640121E1,2.077884E1,1.7869957E1,3.3603443E1,5.8541016E1,9.648307E1,9.526978E0,2.324197E1,0E0,5.8811436E0,9.450478E0,9.269493E0,2.374332E1,2.4874683E1,2.3337036E1,7.503456E1,7.2822266E0,1.1843409E1,1.6365252E1,1.7332016E1,0E0,1.1460419E0,1.975239E0,0E0,5.4693217E0,7.8571625E0,5.367054E0,3.7801063E0,0E0,0E0,0E0,0E0,0E0,0E0,0E0,0E0,0E0,0E0,0E0,0E0,0E0,0E0,0E0,0E0,0E0,0E0,0E0,0E0,0E0,0E0,0E0,0E0,0E0,0E0,0E0,0E0,0E0,0E0,0E0,0E0,0E0,0E0,0E0,0E0,0E0,0E0,0E0,0E0,0E0,0E0,0E0,0E0,0E0,0E0,0E0,0E0,0E0,0E0,0E0,0E0,0E0,0E0,0E0,0E0,0E0,0E0],"parents":[2147483647,0,0,1,1,2,2,3,3,4,4,5,5,6,6,7,7,8,8,9,9,10,10,11,11,12,12,13,13,14,14,15,15,16,16,17,17,18,18,19,19,20,20,21,21,22,22,23,23,24,24,25,25,26,26,27,27,28,28,29,29,30,30,31,31,32,32,33,33,34,34,35,35,36,36,37,37,38,38,39,39,40,40,41,41,42,42,44,44,45,45,46,46,47,47,48,48,49,49,50,50,51,51,52,52,53,53,54,54,56,56,57,57,59,59,60,60,61,61,62,62],"right_children":[2,4,6,8,10,12,14,16,18,20,22,24,26,28,30,32,34,36,38,40,42,44,46,48,50,52,54,56,58,60,62,64,66,68,70,72,74,76,78,80,82,84,86,-1,88,90,92,94,96,98,100,102,104,106,108,-1,110,112,-1,114,116,118,120,-1,-1,-1,-1,-1,-1,-1,-1,-1,-1,-1,-1,-1,-1,-1,-1,-1,-1,-1,-1,-1,-1,-1,-1,-1,-1,-1,-1,-1,-1,-1,-1,-1,-1,-1,-1,-1,-1,-1,-1,-1,-1,-1,-1,-1,-1,-1,-1,-1,-1,-1,-1,-1,-1,-1,-1,-1,-1],"split_conditions":[-2.6738536E-1,-5.870545E-1,1.7428011E0,1.8220471E-1,6.7145944E-1,-9.3968555E-2,-3.4167293E-1,-4.7031608E-1,-5.1328504E-1,5.0845563E-1,-3.415387E-1,-1.9452003E-1,-2.5586296E-2,5.4697245E-1,5.1394796E-1,-3.1797928E-1,7.000974E-1,-4.147669E-2,-4.9874774E-1,-3.141107E-1,-6.876463E-2,-9.623531E-2,-6.2234033E-2,9.711306E-2,1.1033763E-1,2.6580572E0,-1.776294E-1,-1.4672382E0,-9.723465E-1,-7.680482E-1,1.8668117E-1,-3.2876873E-1,-5.155799E-1,7.8809947E-1,-3.2807982E-1,1.3887736E0,-9.206424E-2,1.5655109E0,-3.3329234E-1,-9.967789E-1,-1.24548756E-1,-2.8266042E-1,-6.3241504E-2,7.521971E-2,-7.0581555E-1,-1.0464288E0,1.9639674E-1,5.525558E-1,6.3305336E-1,1.1965766E0,-1.3566342E-1,-4.7045967E-1,1.7171066E0,-4.5727816E-1,-6.982083E-1,4.1652568E-2,8.999392E-1,-1.3326595E0,1.0782508E-1,-1.1983838E0,4.7089577E-1,-6.5251935E-1,9.051928E-1,-1.2659658E-1,-1.745146E-2,-5.7278898E-2,5.3865653E-2,8.1729166E-2,-4.93129E-2,-1.0094841E-1,3.830429E-2,-1.2044378E-1,-2.5514755E-2,8.131866E-2,-7.633007E-2,-9.111853E-2,7.493796E-2,-7.756934E-2,4.326952E-2,-4.468499E-2,-1.11350395E-1,-4.363393E-2,8.7944135E-2,-1.3709994E-1,-7.7961035E-2,-1.1934952E-1,-1.2439535E-3,4.210534E-2,-1.2705298E-1,-5.8317263E-2,1.3177513E-1,5.2996065E-2,-1.0138358E-1,6.348042E-2,-3.131884E-2,-8.948538E-2,4.3543454E-2,1.2371273E-1,3.0470852E-2,-2.8781767E-3,1.04316615E-1,-1.0637031E-2,1.3157909E-1,8.956891E-2,-8.983989E-2,8.8744156E-2,-6.7551754E-2,5.6050446E-2,1.2035371E-1,-1.5039222E-1,-3.5415635E-2,1.101604E-2,-1.3403039E-1,7.597956E-2,-1.0839812E-1,1.2140242E-1,-2.599832E-3,3.1888366E-2,-1.582547E-1,1.2957586E-1,-5.0825503E-2],"split_indices":[63,62,69,55,61,63,12,9,44,62,70,38,53,4,10,66,41,66,73,63,70,53,53,55,57,39,67,2,7,9,42,63,46,18,63,5,53,5,63,13,38,63,9,0,55,9,34,33,9,65,66,73,57,33,42,0,61,7,0,10,57,13,65,0,0,0,0,0,0,0,0,0,0,0,0,0,0,0,0,0,0,0,0,0,0,0,0,0,0,0,0,0,0,0,0,0,0,0,0,0,0,0,0,0,0,0,0,0,0,0,0,0,0,0,0,0,0,0,0,0,0],"split_type":[0,0,0,0,0,0,0,0,0,0,0,0,0,0,0,0,0,0,0,0,0,0,0,0,0,0,0,0,0,0,0,0,0,0,0,0,0,0,0,0,0,0,0,0,0,0,0,0,0,0,0,0,0,0,0,0,0,0,0,0,0,0,0,0,0,0,0,0,0,0,0,0,0,0,0,0,0,0,0,0,0,0,0,0,0,0,0,0,0,0,0,0,0,0,0,0,0,0,0,0,0,0,0,0,0,0,0,0,0,0,0,0,0,0,0,0,0,0,0,0,0],"sum_hessian":[5.077137E3,3.1643477E3,1.9127899E3,1.3465065E3,1.8178411E3,1.7911057E3,1.2168409E2,8.5760925E2,4.8889728E2,1.7307494E3,8.7091705E1,7.937207E2,9.973851E2,7.52481E1,4.6435993E1,2.5409299E2,6.0351624E2,2.2958263E2,2.5931464E2,1.0810212E3,6.497281E2,1.365196E1,7.343975E1,2.1249828E2,5.812224E2,7.870856E2,2.102995E2,6.969242E1,5.5556736E0,3.3373775E1,1.3062216E1,1.1462638E2,1.3946661E2,5.241743E2,7.934191E1,1.8854987E2,4.103277E1,1.0573707E2,1.5357756E2,7.574809E2,3.2354037E2,5.8030035E2,6.9427704E1,1.7793401E0,1.1872621E1,5.891726E1,1.452249E1,1.1150727E2,1.00991005E2,3.176027E2,2.6361972E2,7.6512634E2,2.195926E1,3.10751E1,1.792244E2,1.0199146E0,6.867251E1,3.1416075E0,2.414066E0,5.5624514E0,2.7811325E1,9.019704E0,4.042512E0,5.8352688E1,5.6273697E1,4.0228477E1,9.923813E1,4.8954257E2,3.463176E1,3.8145638E1,4.1196274E1,1.7523488E2,1.3314979E1,1.0462407E1,3.0570364E1,9.9541504E1,6.1955605E0,2.7131048E1,1.2644652E2,1.7238924E2,5.850917E2,2.531368E2,7.040357E1,5.469175E2,3.338288E1,4.2314133E1,2.711357E1,2.0189953E0,9.853625E0,2.2008119E0,5.6716446E1,9.252101E0,5.270388E0,7.0312454E1,4.1194817E1,8.4810486E1,1.6180517E1,2.871515E2,3.0451206E1,1.4755113E2,1.16068596E2,3.4728901E0,7.6165344E2,1.826345E1,3.695811E0,8.384939E0,2.269016E1,7.4496E1,1.047284E2,6.707062E1,1.6018926E0,1.1639191E0,1.9776886E0,1.5281298E0,4.034322E0,2.1230055E1,6.5812707E0,1.4328768E0,7.5868273E0,3.0359514E0,1.0065608E0],"tree_param":{"num_deleted":"0","num_feature":"74","num_nodes":"121","size_leaf_vector":"1"}},{"base_weights":[7.42398E-3,-4.4276488E-1,7.849372E-1,-8.9605755E-1,-7.646976E-2,1.0418052E-1,1.0643618E0,-5.98141E-1,-1.1783648E0,2.7715707E-1,-6.741877E-1,-5.850828E-1,7.434456E-1,1.1504619E0,3.1811067E-1,-1.2776977E0,-3.9689368E-1,-1.2809416E0,-7.591381E-1,-2.1847233E-1,7.172328E-1,-9.2453814E-1,-7.762185E-2,-8.46897E-3,-1.1597496E0,2.3515314E-2,9.939755E-1,1.183821E0,5.0329936E-1,9.707056E-1,-1.4083189E-1,-1.2950851E0,3.5644658E-2,-1.7276162E-1,-1.1545897E0,-1.2898728E0,5.9538156E-1,-4.5261315E-1,-1.1744479E0,2.3475789E-1,-8.3780754E-1,1.0977519E0,3.2283983E-1,-2.6612464E-1,-1.1163011E0,5.546142E-1,-5.9674984E-1,6.768794E-1,-6.4266014E-1,-1.0754603E-1,-1.2757319E0,-7.148973E-1,4.626707E-1,3.6408567E-1,1.1700335E0,9.434932E-1,1.2650769E0,-3.5987422E-1,1.039461E0,1.3534782E0,4.4028872E-1,-1.4127316E0,5.634127E-1,-8.745846E-2,-1.3744928E-1,-5.9200484E-2,4.1659452E-2,-1.2632458E-1,3.2867357E-2,-1.0664379E-1,-1.3282351E-1,1.2956457E-1,-4.2482745E-2,-9.071769E-2,7.495404E-3,6.8815075E-2,-1.2327581E-1,-3.77287E-2,7.27329E-2,-1.1453694E-1,-2.4746055E-2,1.1497016E-1,-5.6556668E-2,6.912657E-2,-1.8337354E-2,4.002058E-2,-7.705228E-2,-1.1775638E-1,7.939075E-3,-1.5055956E-2,1.0846161E-1,5.2381963E-2,-7.8271545E-2,-5.7238694E-2,1.0288729E-1,-9.221261E-2,5.6582104E-2,-9.982542E-2,6.34139E-2,-5.0573714E-2,-1.3728917E-1,-1.4181864E-1,-1.600629E-4,1.0087358E-1,-1.2095515E-2,1.1011096E-1,-4.43817E-2,7.5652294E-2,1.2665121E-1,1.148145E-1,-2.6563365E-2,1.2724578E-1,-4.3061156E-2,9.509686E-2,-9.455881E-2,1.1271522E-1,-5.1451802E-2,1.4227085E-1,5.2145373E-2,-3.7434872E-2,1.0108977E-1,-1.5581071E-1,-1.8442282E-2,8.468111E-2,-7.7977344E-2],"categories":[],"categories_nodes":[],"categories_segments":[],"categories_sizes":[],"default_left":[0,0,0,0,0,0,0,0,0,0,0,0,0,0,0,0,0,0,0,0,0,0,0,0,0,0,0,0,0,0,0,0,0,0,0,0,0,0,0,0,0,0,0,0,0,0,0,0,0,0,0,0,0,0,0,0,0,0,0,0,0,0,0,0,0,0,0,0,0,0,0,0,0,0,0,0,0,0,0,0,0,0,0,0,0,0,0,0,0,0,0,0,0,0,0,0,0,0,0,0,0,0,0,0,0,0,0,0,0,0,0,0,0,0,0,0,0,0,0,0,0,0,0,0,0],"id":7,"left_children":[1,3,5,7,9,11,13,15,17,19,21,23,25,27,29,31,33,35,37,39,41,43,45,47,49,51,53,55,57,59,61,63,-1,65,67,69,71,73,75,77,79,81,83,85,87,89,91,93,95,97,99,101,103,105,107,109,111,113,115,117,119,121,123,-1,-1,-1,-1,-1,-1,-1,-1,-1,-1,-1,-1,-1,-1,-1,-1,-1,-1,-1,-1,-1,-1,-1,-1,-1,-1,-1,-1,-1,-1,-1,-1,-1,-1,-1,-1,-1,-1,-1,-1,-1,-1,-1,-1,-1,-1,-1,-1,-1,-1,-1,-1,-1,-1,-1,-1,-1,-1,-1,-1,-1,-1],"loss_changes":[1.7337185E3,5.2076874E2,3.4537756E2,1.171958E2,3.6712308E2,2.3381535E2,8.236487E1,9.304909E1,2.9935791E1,2.3820993E2,9.6346466E1,8.462752E1,4.9619644E1,2.4317993E1,4.0442E1,4.8899384E0,8.967867E1,1.0420349E1,1.7767815E1,1.4449811E2,8.643933E1,5.7107452E1,6.3323807E1,5.6287834E1,1.5473816E1,2.370421E1,2.221466E1,2.0223022E1,2.7359646E1,1.071093E1,7.2349304E1,3.9544067E0,0E0,1.0145285E2,1.985817E1,3.500061E0,2.9886634E0,2.0291962E1,7.409874E0,9.000107E1,3.9198486E1,2.6048462E1,5.3356163E1,3.5216515E1,2.5862732E1,3.2699455E1,2.2472572E1,2.796128E1,2.3235903E1,9.744716E0,7.9186707E0,1.3679546E1,1.4719969E1,2.790887E1,5.3895264E0,6.984953E1,1.0769165E1,1.8622856E1,5.5163307E0,1.093605E0,1.1918297E1,4.847E0,2.0503824E1,0E0,0E0,0E0,0E0,0E0,0E0,0E0,0E0,0E0,0E0,0E0,0E0,0E0,0E0,0E0,0E0,0E0,0E0,0E0,0E0,0E0,0E0,0E0,0E0,0E0,0E0,0E0,0E0,0E0,0E0,0E0,0E0,0E0,0E0,0E0,0E0,0E0,0E0,0E0,0E0,0E0,0E0,0E0,0E0,0E0,0E0,0E0,0E0,0E0,0E0,0E0,0E0,0E0,0E0,0E0,0E0,0E0,0E0,0E0,0E0,0E0,0E0],"parents":[2147483647,0,0,1,1,2,2,3,3,4,4,5,5,6,6,7,7,8,8,9,9,10,10,11,11,12,12,13,13,14,14,15,15,16,16,17,17,18,18,19,19,20,20,21,21,22,22,23,23,24,24,25,25,26,26,27,27,28,28,29,29,30,30,31,31,33,33,34,34,35,35,36,36,37,37,38,38,39,39,40,40,41,41,42,42,43,43,44,44,45,45,46,46,47,47,48,48,49,49,50,50,51,51,52,52,53,53,54,54,55,55,56,56,57,57,58,58,59,59,60,60,61,61,62,62],"right_children":[2,4,6,8,10,12,14,16,18,20,22,24,26,28,30,32,34,36,38,40,42,44,46,48,50,52,54,56,58,60,62,64,-1,66,68,70,72,74,76,78,80,82,84,86,88,90,92,94,96,98,100,102,104,106,108,110,112,114,116,118,120,122,124,-1,-1,-1,-1,-1,-1,-1,-1,-1,-1,-1,-1,-1,-1,-1,-1,-1,-1,-1,-1,-1,-1,-1,-1,-1,-1,-1,-1,-1,-1,-1,-1,-1,-1,-1,-1,-1,-1,-1,-1,-1,-1,-1,-1,-1,-1,-1,-1,-1,-1,-1,-1,-1,-1,-1,-1,-1,-1,-1,-1,-1,-1],"split_conditions":[-2.6264298E-1,-3.2946143E-1,-6.6932386E-1,-4.3195182E-1,1.8220471E-1,-6.723494E-2,6.738071E-1,-8.5086906E-1,-7.909221E-2,-1.2393758E-1,-3.161186E-1,5.8803385E-1,-4.1411646E-2,1.3002852E0,-5.5026483E-2,2.013065E0,-2.6582223E-1,1.2819492E0,3.4979883E-1,-3.956233E-1,-2.3740767E-1,-7.7338034E-1,-3.956233E-1,-4.751629E-1,-7.927251E-1,-9.758536E-1,-1.0999121E-1,-2.5651821E-1,-1.4215215E-1,-2.1105097E-1,-1.0312132E-2,-1.094508E0,3.5644658E-2,-3.2942897E-1,4.330638E-1,-6.096696E-1,-3.0218205E-1,-3.151033E-1,-5.0675327E-1,-4.7313714E-1,-2.3078625E-1,1.9810184E0,-7.525327E-2,5.0776724E-2,2.2839913E0,-2.9857025E-1,-4.5277154E-1,-1.0424654E0,-1.6575268E-1,-1.0112501E0,-5.070326E-1,-6.86254E-1,-3.9137545E-1,-2.1185036E-1,-9.5587075E-1,4.4272697E-1,2.8935843E0,-4.314205E-1,5.247551E0,1.3789057E0,-3.362331E-1,-5.2206267E-2,-2.7712064E-2,-8.745846E-2,-1.3744928E-1,-5.9200484E-2,4.1659452E-2,-1.2632458E-1,3.2867357E-2,-1.0664379E-1,-1.3282351E-1,1.2956457E-1,-4.2482745E-2,-9.071769E-2,7.495404E-3,6.8815075E-2,-1.2327581E-1,-3.77287E-2,7.27329E-2,-1.1453694E-1,-2.4746055E-2,1.1497016E-1,-5.6556668E-2,6.912657E-2,-1.8337354E-2,4.002058E-2,-7.705228E-2,-1.1775638E-1,7.939075E-3,-1.5055956E-2,1.0846161E-1,5.2381963E-2,-7.8271545E-2,-5.7238694E-2,1.0288729E-1,-9.221261E-2,5.6582104E-2,-9.982542E-2,6.34139E-2,-5.0573714E-2,-1.3728917E-1,-1.4181864E-1,-1.600629E-4,1.0087358E-1,-1.2095515E-2,1.1011096E-1,-4.43817E-2,7.5652294E-2,1.2665121E-1,1.148145E-1,-2.6563365E-2,1.2724578E-1,-4.3061156E-2,9.509686E-2,-9.455881E-2,1.1271522E-1,-5.1451802E-2,1.4227085E-1,5.2145373E-2,-3.7434872E-2,1.0108977E-1,-1.5581071E-1,-1.8442282E-2,8.468111E-2,-7.7977344E-2],"split_indices":[63,26,26,62,55,73,69,26,61,9,63,65,63,55,15,69,15,73,55,62,3,62,62,15,15,26,67,26,63,11,26,13,0,63,73,3,63,63,11,73,7,62,13,20,60,27,15,26,66,26,68,44,15,15,44,15,0,23,15,37,26,52,53,0,0,0,0,0,0,0,0,0,0,0,0,0,0,0,0,0,0,0,0,0,0,0,0,0,0,0,0,0,0,0,0,0,0,0,0,0,0,0,0,0,0,0,0,0,0,0,0,0,0,0,0,0,0,0,0,0,0,0,0,0,0],"split_type":[0,0,0,0,0,0,0,0,0,0,0,0,0,0,0,0,0,0,0,0,0,0,0,0,0,0,0,0,0,0,0,0,0,0,0,0,0,0,0,0,0,0,0,0,0,0,0,0,0,0,0,0,0,0,0,0,0,0,0,0,0,0,0,0,0,0,0,0,0,0,0,0,0,0,0,0,0,0,0,0,0,0,0,0,0,0,0,0,0,0,0,0,0,0,0,0,0,0,0,0,0,0,0,0,0,0,0,0,0,0,0,0,0,0,0,0,0,0,0,0,0,0,0,0,0],"sum_hessian":[4.9510947E3,3.1358394E3,1.8152555E3,1.4008419E3,1.7349974E3,5.2866125E2,1.2865942E3,6.830956E2,7.1774634E2,1.0904141E3,6.4458344E2,2.544235E2,2.7423776E2,1.1530206E3,1.3357365E2,1.5485251E2,5.2824304E2,5.749994E2,1.4274695E2,5.130744E2,5.773396E2,4.5365582E2,1.9092764E2,1.27503105E2,1.2692038E2,7.107845E1,2.0315929E2,1.0957113E3,5.7309288E1,5.4690796E1,7.888286E1,1.5342752E2,1.4249952E0,4.086032E2,1.1963983E2,5.725865E2,2.412912E0,8.333227E1,5.9414684E1,2.966249E2,2.1644951E2,2.9293045E2,2.8440918E2,1.0286366E2,3.5079214E2,8.6054794E1,1.0487285E2,6.124762E1,6.6255486E1,1.2792523E1,1.1412786E2,2.6273426E1,4.480503E1,4.5049995E1,1.581093E2,2.800448E2,8.1566656E2,2.2084293E1,3.5224995E1,3.0865295E1,2.38255E1,2.7753206E1,5.112965E1,2.627947E1,1.2714804E2,2.3875699E2,1.6984622E2,1.1161205E2,8.027783E0,8.812394E1,4.8446252E2,1.2707189E0,1.1421928E0,4.4376736E1,3.8955536E1,1.4756767E0,5.7939007E1,1.3237555E2,1.6424936E2,1.4169064E2,7.475885E1,2.84358E2,8.572438E0,1.6439542E2,1.20013756E2,4.4406906E1,5.845676E1,3.3370932E2,1.7082827E1,3.7232475E1,4.882232E1,1.4668485E1,9.020436E1,1.3325988E1,4.7921635E1,5.4003845E1,1.2251641E1,5.6551657E0,7.1373577E0,1.3482644E1,1.0064522E2,1.2731921E1,1.3541505E1,2.2771065E1,2.2033966E1,2.336862E1,2.1681376E1,3.15834E1,1.26525894E2,2.3955E2,4.04948E1,8.1238E2,3.286523E0,6.627708E0,1.5456587E1,3.3603416E1,1.6215765E0,2.7838964E1,3.0263321E0,9.955849E0,1.3869652E1,2.457603E1,3.1771753E0,4.2526543E1,8.603108E0],"tree_param":{"num_deleted":"0","num_feature":"74","num_nodes":"125","size_leaf_vector":"1"}},{"base_weights":[4.875976E-3,-4.7601223E-1,5.484463E-1,-8.306669E-1,-1.8036982E-2,-6.705755E-2,8.7617147E-1,-2.772327E-1,-9.793482E-1,4.020575E-1,-5.317157E-1,-5.5158025E-1,6.153744E-1,5.6563175E-1,1.0545869E0,-3.1941187E-2,-1.1589066E0,-1.6413318E-1,-1.0456179E0,-5.477888E-1,6.2857234E-1,-6.938234E-1,5.531653E-1,-1.032727E0,-3.062205E-1,-9.2921205E-2,8.738446E-1,8.5472256E-1,4.7514584E-2,4.4311893E-1,1.1142485E0,-4.9553004E-1,4.6463853E-1,6.574262E-2,-1.2112206E0,3.1452698E-1,-9.1208225E-1,-6.491487E-1,-1.1283807E0,-9.4411E-1,1.05782464E-1,7.472688E-1,-8.7158346E-1,-1.0048139E0,-2.2642507E-1,7.489397E-1,-8.277516E-1,6.9379866E-1,-1.0794301E0,2.3200269E-1,-5.7625574E-1,-5.1247746E-1,5.825895E-1,5.0337493E-1,1.1375089E0,5.650192E-2,9.9161214E-1,-4.2541066E-1,5.1034015E-1,-7.5313416E-3,1.0513108E0,1.1468195E0,5.4306334E-1,-8.652319E-2,3.3530645E-2,1.3455471E-1,1.4833637E-2,-1.253755E-1,4.4900402E-2,5.2754518E-2,-1.11516654E-1,-1.2803276E-1,-1.4165516E-2,-9.781145E-2,-1.4689292E-2,-1.2571739E-1,-9.3399666E-2,7.5120956E-2,-1.0157277E-1,7.513351E-2,-7.7844195E-2,8.651036E-2,-4.54943E-2,-1.4496069E-1,-2.0877946E-2,-3.7489325E-2,-1.1390114E-1,3.1340834E-2,-6.0531177E-2,9.245196E-2,-1.02097474E-1,5.4256197E-2,-1.4593536E-1,-1.1677989E-2,9.995713E-2,-1.3548611E-1,-8.571357E-2,-3.924581E-2,6.097153E-2,6.695417E-3,-7.7275604E-2,4.4181135E-2,-8.35258E-2,-8.38115E-2,8.690008E-2,-8.936789E-2,6.646377E-2,1.1740692E-1,-6.9692E-3,-5.6512054E-2,5.837628E-2,1.14345446E-1,5.0156374E-2,-3.6933892E-3,-1.02625094E-1,9.590538E-2,-2.0570245E-2,8.6890034E-2,-3.1442996E-2,-5.002234E-2,1.1138588E-1,1.19639635E-1,8.6423784E-2,7.5866066E-2,-8.241962E-2],"categories":[],"categories_nodes":[],"categories_segments":[],"categories_sizes":[],"default_left":[0,0,0,0,0,0,0,0,0,0,0,0,0,0,0,0,0,0,0,0,0,0,0,0,0,0,0,0,0,0,0,0,0,0,0,0,0,0,0,0,0,0,0,0,0,0,0,0,0,0,0,0,0,0,0,0,0,0,0,0,0,0,0,0,0,0,0,0,0,0,0,0,0,0,0,0,0,0,0,0,0,0,0,0,0,0,0,0,0,0,0,0,0,0,0,0,0,0,0,0,0,0,0,0,0,0,0,0,0,0,0,0,0,0,0,0,0,0,0,0,0,0,0,0,0],"id":8,"left_children":[1,3,5,7,9,11,13,15,17,19,21,23,25,27,29,31,33,35,37,39,41,43,45,47,49,51,53,55,57,59,61,63,65,-1,67,69,71,73,75,77,79,81,83,85,87,89,91,93,95,97,99,101,103,105,107,109,111,113,115,117,119,121,123,-1,-1,-1,-1,-1,-1,-1,-1,-1,-1,-1,-1,-1,-1,-1,-1,-1,-1,-1,-1,-1,-1,-1,-1,-1,-1,-1,-1,-1,-1,-1,-1,-1,-1,-1,-1,-1,-1,-1,-1,-1,-1,-1,-1,-1,-1,-1,-1,-1,-1,-1,-1,-1,-1,-1,-1,-1,-1,-1,-1,-1,-1],"loss_changes":[1.2531107E3,4.1312732E2,4.5397864E2,1.1768359E2,2.3998831E2,2.5917285E2,8.076575E1,6.5914314E1,6.0850464E1,1.3197864E2,8.837306E1,5.3788208E1,5.9669807E1,8.054239E1,3.3488403E1,5.5389744E1,7.10054E0,3.11134E1,3.353833E1,3.0753407E1,8.869838E1,6.310695E1,1.8353981E1,1.319548E1,4.4453964E1,2.5217957E1,2.2730316E1,3.767009E1,4.2622383E1,2.3159063E1,1.5153931E1,3.8502117E1,3.2178406E1,0E0,5.1417923E0,1.6804838E1,9.424059E0,3.0047287E1,2.042395E1,9.719856E0,2.6597986E1,6.5381805E1,1.3764191E1,2.1665436E1,3.6059937E1,1.8960934E1,8.252386E0,1.2752483E0,8.0646515E0,2.4437592E1,2.5753395E1,1.723972E1,1.462625E1,2.334534E1,6.198105E0,1.7243134E1,2.1352173E1,2.2455545E1,3.1802748E1,1.3590396E1,4.046665E0,1.0192993E1,1.4670967E1,0E0,0E0,0E0,0E0,0E0,0E0,0E0,0E0,0E0,0E0,0E0,0E0,0E0,0E0,0E0,0E0,0E0,0E0,0E0,0E0,0E0,0E0,0E0,0E0,0E0,0E0,0E0,0E0,0E0,0E0,0E0,0E0,0E0,0E0,0E0,0E0,0E0,0E0,0E0,0E0,0E0,0E0,0E0,0E0,0E0,0E0,0E0,0E0,0E0,0E0,0E0,0E0,0E0,0E0,0E0,0E0,0E0,0E0,0E0,0E0,0E0,0E0],"parents":[2147483647,0,0,1,1,2,2,3,3,4,4,5,5,6,6,7,7,8,8,9,9,10,10,11,11,12,12,13,13,14,14,15,15,16,16,17,17,18,18,19,19,20,20,21,21,22,22,23,23,24,24,25,25,26,26,27,27,28,28,29,29,30,30,31,31,32,32,34,34,35,35,36,36,37,37,38,38,39,39,40,40,41,41,42,42,43,43,44,44,45,45,46,46,47,47,48,48,49,49,50,50,51,51,52,52,53,53,54,54,55,55,56,56,57,57,58,58,59,59,60,60,61,61,62,62],"right_children":[2,4,6,8,10,12,14,16,18,20,22,24,26,28,30,32,34,36,38,40,42,44,46,48,50,52,54,56,58,60,62,64,66,-1,68,70,72,74,76,78,80,82,84,86,88,90,92,94,96,98,100,102,104,106,108,110,112,114,116,118,120,122,124,-1,-1,-1,-1,-1,-1,-1,-1,-1,-1,-1,-1,-1,-1,-1,-1,-1,-1,-1,-1,-1,-1,-1,-1,-1,-1,-1,-1,-1,-1,-1,-1,-1,-1,-1,-1,-1,-1,-1,-1,-1,-1,-1,-1,-1,-1,-1,-1,-1,-1,-1,-1,-1,-1,-1,-1,-1,-1,-1,-1,-1,-1],"split_conditions":[-3.702378E-1,-1.0118621E-1,-5.449456E-1,-5.18369E-1,-4.1874945E-2,9.649924E-2,-1.6679718E-1,8.8520414E-1,-8.736852E-1,-7.043569E-1,-2.821252E-1,-1.0728761E0,-1.0066347E0,2.3046302E-2,-8.4691083E-1,-4.6519345E-1,-2.8923903E0,2.6076472E-1,-1.0335188E0,-4.744991E-1,1.4264023E0,-4.8758447E-1,1.2626696E0,-2.1803632E0,-2.0518157E-1,3.873866E-1,6.986093E-1,-7.999372E-1,-2.3469199E-1,5.9458387E-1,1.5035727E0,1.0750872E0,-9.3434477E-1,6.574262E-2,-3.8220218E-1,8.6979234E-1,6.4857216E-3,3.9367087E-2,-2.6762423E-1,-9.0499675E-1,-2.4878453E-1,8.133237E-1,-4.2668056E-1,-8.043706E-1,-5.2178836E-1,1.3440628E0,-4.4728628E-1,-3.675513E-1,-9.2809373E-1,-8.92743E-1,-7.220991E-1,-7.523097E-1,-1.4846958E-1,-4.430749E-1,5.467865E0,-1.6568643E-1,4.4272697E-1,5.056037E-1,9.586636E-2,-3.397442E-1,-1.3304746E0,1.5530049E0,5.785879E-1,-8.652319E-2,3.3530645E-2,1.3455471E-1,1.4833637E-2,-1.253755E-1,4.4900402E-2,5.2754518E-2,-1.11516654E-1,-1.2803276E-1,-1.4165516E-2,-9.781145E-2,-1.4689292E-2,-1.2571739E-1,-9.3399666E-2,7.5120956E-2,-1.0157277E-1,7.513351E-2,-7.7844195E-2,8.651036E-2,-4.54943E-2,-1.4496069E-1,-2.0877946E-2,-3.7489325E-2,-1.1390114E-1,3.1340834E-2,-6.0531177E-2,9.245196E-2,-1.02097474E-1,5.4256197E-2,-1.4593536E-1,-1.1677989E-2,9.995713E-2,-1.3548611E-1,-8.571357E-2,-3.924581E-2,6.097153E-2,6.695417E-3,-7.7275604E-2,4.4181135E-2,-8.35258E-2,-8.38115E-2,8.690008E-2,-8.936789E-2,6.646377E-2,1.1740692E-1,-6.9692E-3,-5.6512054E-2,5.837628E-2,1.14345446E-1,5.0156374E-2,-3.6933892E-3,-1.02625094E-1,9.590538E-2,-2.0570245E-2,8.6890034E-2,-3.1442996E-2,-5.002234E-2,1.1138588E-1,1.19639635E-1,8.6423784E-2,7.5866066E-2,-8.241962E-2],"split_indices":[73,26,26,3,55,73,73,55,62,9,60,48,42,55,22,7,59,55,13,73,3,73,3,3,3,22,73,9,46,73,3,9,1,0,73,10,50,7,46,62,62,41,66,62,62,62,68,21,26,26,62,62,67,69,66,46,15,15,41,3,28,15,8,0,0,0,0,0,0,0,0,0,0,0,0,0,0,0,0,0,0,0,0,0,0,0,0,0,0,0,0,0,0,0,0,0,0,0,0,0,0,0,0,0,0,0,0,0,0,0,0,0,0,0,0,0,0,0,0,0,0,0,0,0,0],"split_type":[0,0,0,0,0,0,0,0,0,0,0,0,0,0,0,0,0,0,0,0,0,0,0,0,0,0,0,0,0,0,0,0,0,0,0,0,0,0,0,0,0,0,0,0,0,0,0,0,0,0,0,0,0,0,0,0,0,0,0,0,0,0,0,0,0,0,0,0,0,0,0,0,0,0,0,0,0,0,0,0,0,0,0,0,0,0,0,0,0,0,0,0,0,0,0,0,0,0,0,0,0,0,0,0,0,0,0,0,0,0,0,0,0,0,0,0,0,0,0,0,0,0,0,0,0],"sum_hessian":[4.791908E3,2.5426182E3,2.2492903E3,1.432489E3,1.110129E3,7.8179285E2,1.4674974E3,3.0395312E2,1.1285359E3,6.1081354E2,4.9931552E2,4.573025E2,3.2449036E2,5.369985E2,9.304989E2,2.386064E2,6.534673E1,8.5104385E1,1.0434315E3,1.17342415E2,4.934711E2,4.3471844E2,6.459708E1,1.5335892E2,3.039436E2,8.692554E1,2.3756482E2,3.442626E2,1.9273589E2,8.346802E1,8.470309E2,1.2340349E2,1.1520291E2,1.5056022E0,6.3841133E1,5.224742E1,3.2856964E1,1.8172643E2,8.617051E2,7.27704E1,4.4572018E1,4.577542E2,3.5716892E1,2.603445E2,1.7437393E2,5.6977024E1,7.6200547E0,3.6742187E0,1.496847E2,1.0159314E2,2.0235045E2,5.377038E1,3.315516E1,9.99858E1,1.3757901E2,5.0602955E1,2.9365967E2,9.536781E1,9.736807E1,4.851075E1,3.4957264E1,8.003825E2,4.6648422E1,8.537314E1,3.803035E1,2.957682E1,8.562609E1,6.2485115E1,1.3560162E0,4.6021435E1,6.225987E0,2.1783258E1,1.1073704E1,1.0923357E2,7.249286E1,5.150082E2,3.466969E2,2.564922E0,7.0205475E1,2.5849882E1,1.8722137E1,4.1714786E2,4.0606365E1,1.8444544E1,1.7272348E1,4.6388992E1,2.1395552E2,7.1984314E1,1.0238961E2,5.2269413E1,4.7076087E0,2.448596E0,5.1714587E0,1.1756771E0,2.4985414E0,6.457676E1,8.510793E1,3.8275074E1,6.3318066E1,4.7506237E1,1.5484421E2,1.3497311E1,4.0273067E1,5.2394257E0,2.7915733E1,9.8770485E0,9.010876E1,1.3356152E2,4.017494E0,2.319043E1,2.7412527E1,2.2317511E2,7.048454E1,5.856424E1,3.6803577E1,5.9649113E1,3.771896E1,1.2106408E1,3.6404343E1,1.0834839E0,3.387378E1,6.7816895E2,1.2221356E2,4.0679043E1,5.9693813E0],"tree_param":{"num_deleted":"0","num_feature":"74","num_nodes":"125","size_leaf_vector":"1"}},{"base_weights":[6.289576E-5,-4.7056267E-1,5.898936E-1,-9.209048E-2,-8.8031733E-1,3.0439012E-2,9.427739E-1,-6.225331E-1,2.0768881E-1,-9.926312E-1,-9.303465E-4,-5.269406E-1,5.9230494E-1,1.0349355E0,2.8113037E-1,-7.523073E-2,-8.920327E-1,-3.106586E-3,9.661962E-1,-7.8257173E-1,-1.2067565E0,3.1198663E-1,-9.199701E-1,-1.5904546E-1,-1.0861539E0,8.597891E-1,-1.0192378E0,1.0851483E0,1.8465424E-1,9.582399E-1,-1.8841448E-1,6.1704147E-1,-3.8469246E-1,-2.2499199E-1,-1.1095388E0,2.7239615E-1,-5.601783E-1,1.1042154E0,-8.235325E-1,-1.0947798E0,-4.8419562E-1,-1.2715516E0,-1.001567E0,8.8460696E-1,-1.7282894E-1,6.620093E-1,-1.0643812E0,-8.098062E-1,5.114984E-1,-1.2183911E0,-5.70114E-1,1.0099992E-2,9.811258E-1,-1.1627629E0,5.357248E-1,8.380104E-1,1.1866137E0,8.7566787E-1,-4.1783482E-1,1.1159288E0,-3.254396E-1,-9.9247277E-1,4.856492E-1,9.512051E-2,-5.5549342E-2,-8.152593E-2,9.552298E-3,-8.681109E-2,3.415104E-2,-1.2651624E-1,-8.283624E-2,4.2631026E-2,-8.201777E-2,-8.959562E-2,8.177324E-3,1.19306885E-1,-6.9496147E-3,4.9613696E-2,-1.3127355E-1,-1.1474271E-1,2.036418E-2,2.2711992E-2,-6.842544E-2,-2.1256248E-2,-1.2761661E-1,4.888774E-2,-1.0818815E-1,-6.900244E-2,1.0887718E-1,5.663941E-2,-5.029885E-2,-2.0932855E-2,1.1023318E-1,-1.1997379E-1,8.0682095E-3,2.0354109E-2,-1.040337E-1,8.482345E-2,-1.0037637E-2,-1.2425619E-1,7.5698726E-2,-1.4692493E-2,-1.14961445E-1,1.08912185E-1,-6.431872E-2,3.1375367E-2,1.0842889E-1,2.158624E-2,-1.2503263E-1,1.2101292E-1,-6.905968E-2,1.05571054E-1,5.1849573E-3,1.2167963E-1,7.8030124E-2,1.10791914E-1,-3.2525721E-3,-1.2097627E-1,2.1632968E-2,1.169099E-1,-1.274214E-4,6.8008006E-2,-1.2945129E-1,2.9449115E-2,-1.3336737E-1,8.2932666E-2,-2.3113184E-2],"categories":[],"categories_nodes":[],"categories_segments":[],"categories_sizes":[],"default_left":[0,0,0,0,0,0,0,0,0,0,0,0,0,0,0,0,0,0,0,0,0,0,0,0,0,0,0,0,0,0,0,0,0,0,0,0,0,0,0,0,0,0,0,0,0,0,0,0,0,0,0,0,0,0,0,0,0,0,0,0,0,0,0,0,0,0,0,0,0,0,0,0,0,0,0,0,0,0,0,0,0,0,0,0,0,0,0,0,0,0,0,0,0,0,0,0,0,0,0,0,0,0,0,0,0,0,0,0,0,0,0,0,0,0,0,0,0,0,0,0,0,0,0,0,0,0,0],"id":9,"left_children":[1,3,5,7,9,11,13,15,17,19,21,23,25,27,29,31,33,35,37,39,41,43,45,47,49,51,53,55,57,59,61,63,65,67,69,71,73,75,77,79,81,83,85,87,89,91,93,95,97,99,101,103,105,107,109,111,113,115,117,119,121,123,125,-1,-1,-1,-1,-1,-1,-1,-1,-1,-1,-1,-1,-1,-1,-1,-1,-1,-1,-1,-1,-1,-1,-1,-1,-1,-1,-1,-1,-1,-1,-1,-1,-1,-1,-1,-1,-1,-1,-1,-1,-1,-1,-1,-1,-1,-1,-1,-1,-1,-1,-1,-1,-1,-1,-1,-1,-1,-1,-1,-1,-1,-1,-1,-1],"loss_changes":[1.2902883E3,4.0085626E2,4.0721918E2,2.1402005E2,1.2259424E2,2.5051117E2,7.68418E1,7.1608E1,1.375325E2,4.856299E1,4.1002323E1,8.2446915E1,1.7258055E2,4.718701E1,4.9786186E1,3.481987E1,4.6977783E1,1.0360842E2,4.7116684E1,5.1493286E1,5.9486694E0,2.9681032E1,8.977892E0,1.0662602E2,1.0168243E1,3.5267044E1,1.337981E1,2.5280518E1,2.6634048E1,1.3329357E1,5.0870476E1,2.0218304E1,2.3271317E1,2.9915264E1,9.68219E0,7.6309265E1,4.8224976E1,1.823906E1,9.6673355E0,1.8834656E1,4.1046356E1,1.7280273E0,1.6698502E1,1.6481274E1,1.4546461E1,1.6295322E0,5.299591E0,2.9158142E1,2.4911308E1,6.9488525E0,8.255224E0,3.1552164E1,2.027301E1,6.6251526E0,5.396616E0,5.272397E1,8.130737E0,6.3030396E0,1.7529503E1,3.403633E0,8.463329E0,1.9154049E1,1.2815357E1,0E0,0E0,0E0,0E0,0E0,0E0,0E0,0E0,0E0,0E0,0E0,0E0,0E0,0E0,0E0,0E0,0E0,0E0,0E0,0E0,0E0,0E0,0E0,0E0,0E0,0E0,0E0,0E0,0E0,0E0,0E0,0E0,0E0,0E0,0E0,0E0,0E0,0E0,0E0,0E0,0E0,0E0,0E0,0E0,0E0,0E0,0E0,0E0,0E0,0E0,0E0,0E0,0E0,0E0,0E0,0E0,0E0,0E0,0E0,0E0,0E0,0E0,0E0,0E0],"parents":[2147483647,0,0,1,1,2,2,3,3,4,4,5,5,6,6,7,7,8,8,9,9,10,10,11,11,12,12,13,13,14,14,15,15,16,16,17,17,18,18,19,19,20,20,21,21,22,22,23,23,24,24,25,25,26,26,27,27,28,28,29,29,30,30,31,31,32,32,33,33,34,34,35,35,36,36,37,37,38,38,39,39,40,40,41,41,42,42,43,43,44,44,45,45,46,46,47,47,48,48,49,49,50,50,51,51,52,52,53,53,54,54,55,55,56,56,57,57,58,58,59,59,60,60,61,61,62,62],"right_children":[2,4,6,8,10,12,14,16,18,20,22,24,26,28,30,32,34,36,38,40,42,44,46,48,50,52,54,56,58,60,62,64,66,68,70,72,74,76,78,80,82,84,86,88,90,92,94,96,98,100,102,104,106,108,110,112,114,116,118,120,122,124,126,-1,-1,-1,-1,-1,-1,-1,-1,-1,-1,-1,-1,-1,-1,-1,-1,-1,-1,-1,-1,-1,-1,-1,-1,-1,-1,-1,-1,-1,-1,-1,-1,-1,-1,-1,-1,-1,-1,-1,-1,-1,-1,-1,-1,-1,-1,-1,-1,-1,-1,-1,-1,-1,-1,-1,-1,-1,-1,-1,-1,-1,-1,-1,-1],"split_conditions":[-2.9440144E-1,-4.9057603E-1,-4.7093278E-1,-4.13154E-1,2.395523E-1,-1.0872891E-1,6.738071E-1,-1.0335188E0,-2.718816E-1,2.719714E-1,5.313527E-1,-2.3475799E-1,6.313652E-1,1.3002852E0,-8.0917634E-2,-1.4995457E-1,-3.2915443E-1,9.586636E-2,1.5035727E0,1.2234511E-1,-3.1320587E-1,-1.6367318E-1,-1.4983484E-1,-8.5086906E-1,5.5263877E-1,-1.7500126E-1,6.075622E-1,-2.320201E-1,3.1241462E-1,9.298059E-1,3.9885575E-1,2.187068E-1,-3.3275476E-1,8.920262E-2,-6.4373153E-1,1.1916974E0,-3.2498834E-1,3.0458677E-1,-1.2472174E0,1.597724E0,-9.967789E-1,-1.4241261E0,-3.3546156E-1,-6.7489E-1,-8.528076E-1,5.8151707E-3,1.2658715E0,-1.1044099E0,-5.2018726E-1,4.727672E0,1.3386199E-1,-4.512736E-1,-7.953609E-1,1.2004255E-1,-3.097403E-1,5.9905267E-1,1.2361532E0,8.961535E-1,4.8328456E-1,1.3394703E0,-1.8812612E-1,-2.7857164E-1,1.2814475E0,9.512051E-2,-5.5549342E-2,-8.152593E-2,9.552298E-3,-8.681109E-2,3.415104E-2,-1.2651624E-1,-8.283624E-2,4.2631026E-2,-8.201777E-2,-8.959562E-2,8.177324E-3,1.19306885E-1,-6.9496147E-3,4.9613696E-2,-1.3127355E-1,-1.1474271E-1,2.036418E-2,2.2711992E-2,-6.842544E-2,-2.1256248E-2,-1.2761661E-1,4.888774E-2,-1.0818815E-1,-6.900244E-2,1.0887718E-1,5.663941E-2,-5.029885E-2,-2.0932855E-2,1.1023318E-1,-1.1997379E-1,8.0682095E-3,2.0354109E-2,-1.040337E-1,8.482345E-2,-1.0037637E-2,-1.2425619E-1,7.5698726E-2,-1.4692493E-2,-1.14961445E-1,1.08912185E-1,-6.431872E-2,3.1375367E-2,1.0842889E-1,2.158624E-2,-1.2503263E-1,1.2101292E-1,-6.905968E-2,1.05571054E-1,5.1849573E-3,1.2167963E-1,7.8030124E-2,1.10791914E-1,-3.2525721E-3,-1.2097627E-1,2.1632968E-2,1.169099E-1,-1.274214E-4,6.8008006E-2,-1.2945129E-1,2.9449115E-2,-1.3336737E-1,8.2932666E-2,-2.3113184E-2],"split_indices":[63,62,26,26,61,63,69,13,60,62,55,15,69,55,15,47,3,41,3,22,63,3,59,26,9,67,61,63,15,3,26,21,63,9,26,3,63,54,13,5,13,28,11,26,13,12,61,65,15,70,65,3,22,70,34,65,3,62,26,8,13,37,15,0,0,0,0,0,0,0,0,0,0,0,0,0,0,0,0,0,0,0,0,0,0,0,0,0,0,0,0,0,0,0,0,0,0,0,0,0,0,0,0,0,0,0,0,0,0,0,0,0,0,0,0,0,0,0,0,0,0,0,0,0,0,0,0],"split_type":[0,0,0,0,0,0,0,0,0,0,0,0,0,0,0,0,0,0,0,0,0,0,0,0,0,0,0,0,0,0,0,0,0,0,0,0,0,0,0,0,0,0,0,0,0,0,0,0,0,0,0,0,0,0,0,0,0,0,0,0,0,0,0,0,0,0,0,0,0,0,0,0,0,0,0,0,0,0,0,0,0,0,0,0,0,0,0,0,0,0,0,0,0,0,0,0,0,0,0,0,0,0,0,0,0,0,0,0,0,0,0,0,0,0,0,0,0,0,0,0,0,0,0,0,0,0,0],"sum_hessian":[4.6461904E3,2.5843452E3,2.0618452E3,1.344092E3,1.2402532E3,7.979174E2,1.2639279E3,4.8494046E2,8.5915155E2,1.0996757E3,1.405775E2,4.0058908E2,3.973283E2,1.1089026E3,1.550253E2,1.6042566E2,3.245148E2,6.7309015E2,1.8606136E2,5.574578E2,5.422179E2,1.0536357E2,3.5213924E1,2.4240207E2,1.5818701E2,3.4116772E2,5.61606E1,1.0468077E3,6.2094852E1,6.3055298E1,9.197E1,4.9252625E1,1.11173035E2,8.029699E1,2.442178E2,4.5070346E2,2.2238673E2,1.7309569E2,1.2965664E1,2.7111035E2,2.8634744E2,4.0813824E2,1.3407962E2,4.7929253E1,5.7434322E1,2.6458E0,3.2568127E1,1.229103E2,1.1949177E2,1.2483621E2,3.33508E1,4.2766727E1,2.98401E2,5.1645844E1,4.5147557E0,3.073816E2,7.394261E2,2.8711412E1,3.3383442E1,5.6273296E1,6.7820034E0,4.1725395E1,5.0244602E1,3.847601E1,1.0776613E1,5.824879E1,5.2924248E1,3.7356182E1,4.294081E1,1.549549E2,8.92629E1,3.955859E2,5.5117554E1,1.4575351E2,7.6633224E1,1.6089868E2,1.2197005E1,3.5026832E0,9.462981E0,2.6065775E2,1.04526205E1,6.282737E1,2.2352008E2,1.9749331E0,4.0616333E2,6.5955176E0,1.2748411E2,5.2280364E0,4.2701214E1,1.751128E1,3.9923042E1,1.0642993E0,1.5815009E0,2.908256E1,3.485565E0,2.280094E1,1.0010937E2,7.682564E1,4.266613E1,1.23693665E2,1.1425474E0,1.999944E1,1.3351359E1,1.5876566E1,2.6890162E1,4.049248E1,2.579085E2,2.9968772E0,4.8648964E1,2.9213758E0,1.5933799E0,2.4045341E2,6.692819E1,6.8643976E2,5.298634E1,2.2689213E1,6.0221996E0,1.4441557E1,1.8941883E1,5.367245E1,2.6008441E0,3.4747674E0,3.3072357E0,8.772734E0,3.2952663E1,3.3855007E1,1.6389593E1],"tree_param":{"num_deleted":"0","num_feature":"74","num_nodes":"127","size_leaf_vector":"1"}},{"base_weights":[4.1640303E-4,-4.5761573E-1,5.723234E-1,-1.637124E-1,-8.630104E-1,2.642803E-2,8.526356E-1,2.5000619E-2,-8.113827E-1,-9.537588E-1,5.8530015E-1,-5.585851E-1,6.073722E-1,4.1372907E-1,1.0602237E0,-2.4465594E-1,5.1704794E-1,-9.5411146E-1,-1.4791729E-1,-1.0149536E0,-2.1473278E-1,9.1085726E-1,-7.0198315E-1,-7.60756E-1,1.7898622E-1,-4.075798E-1,8.0478096E-1,8.723463E-1,3.221073E-2,2.8196878E-3,1.1049705E0,-8.43387E-2,-1.0242813E0,-9.0122384E-1,6.68895E-1,-1.1846361E0,-6.290902E-1,-8.130137E-1,5.756853E-1,-5.831766E-1,-1.0998465E0,-9.466297E-1,3.3507842E-1,-8.7967426E-2,1.1361402E0,2.3326278E-1,-1.2627971E0,-1.0277064E0,-3.4363416E-1,-4.8604804E-1,8.0078846E-1,-1.2148544E0,1.358203E-1,-1.5774511E-1,9.1185373E-1,1.179334E0,6.2074476E-1,-4.7842547E-1,5.77422E-1,8.9535826E-1,-9.7184646E-1,1.1382953E0,5.583372E-1,-5.6947228E-2,2.456901E-2,-1.1058908E-1,5.906539E-2,-1.209413E-1,3.6465365E-2,8.953642E-2,-3.1735037E-2,-3.4117024E-2,-1.22757636E-1,1.4304794E-2,-8.637665E-2,-1.3876348E-2,-1.1615987E-1,3.1086726E-3,1.1996346E-1,-9.9630184E-2,-1.7076822E-2,-1.2259283E-1,-9.205941E-2,2.7076483E-2,-1.0990473E-1,-5.480768E-2,9.908923E-2,1.0524129E-1,-9.2876695E-2,-4.2146705E-2,1.289102E-1,-8.5566655E-2,7.890942E-2,-2.951105E-2,-1.4960988E-1,-1.3176759E-2,-1.1081934E-1,-6.829978E-2,5.174894E-2,3.118935E-2,-1.093815E-1,1.0087808E-1,-1.0793898E-1,-1.3157278E-1,-7.771784E-3,9.2560075E-2,-5.2964795E-2,8.189187E-2,-1.3219443E-1,4.5931693E-2,1.1117051E-1,1.2176045E-1,-1.4403221E-2,-7.7494524E-2,9.65438E-2,-8.988862E-2,1.9816693E-2,7.441512E-2,-1.0055124E-1,-8.181998E-2,1.3947234E-1,1.4922534E-2,-1.3445218E-1,4.9491942E-2,1.1575109E-1,-1.1751421E-2,1.0418041E-1],"categories":[],"categories_nodes":[],"categories_segments":[],"categories_sizes":[],"default_left":[0,0,0,0,0,0,0,0,0,0,0,0,0,0,0,0,0,0,0,0,0,0,0,0,0,0,0,0,0,0,0,0,0,0,0,0,0,0,0,0,0,0,0,0,0,0,0,0,0,0,0,0,0,0,0,0,0,0,0,0,0,0,0,0,0,0,0,0,0,0,0,0,0,0,0,0,0,0,0,0,0,0,0,0,0,0,0,0,0,0,0,0,0,0,0,0,0,0,0,0,0,0,0,0,0,0,0,0,0,0,0,0,0,0,0,0,0,0,0,0,0,0,0,0,0,0,0],"id":10,"left_children":[1,3,5,7,9,11,13,15,17,19,21,23,25,27,29,31,33,35,37,39,41,43,45,47,49,51,53,55,57,59,61,63,65,67,69,71,73,75,77,79,81,83,85,87,89,91,93,95,97,99,101,103,105,107,109,111,113,115,117,119,121,123,125,-1,-1,-1,-1,-1,-1,-1,-1,-1,-1,-1,-1,-1,-1,-1,-1,-1,-1,-1,-1,-1,-1,-1,-1,-1,-1,-1,-1,-1,-1,-1,-1,-1,-1,-1,-1,-1,-1,-1,-1,-1,-1,-1,-1,-1,-1,-1,-1,-1,-1,-1,-1,-1,-1,-1,-1,-1,-1,-1,-1,-1,-1,-1,-1],"loss_changes":[1.1732451E3,2.9618073E2,3.0476917E2,1.7639021E2,1.3790771E2,2.3036021E2,1.19466064E2,1.4851901E2,3.0693237E1,4.4273438E1,2.6722383E1,5.0499237E1,6.846367E1,7.4196335E1,4.2240295E1,9.029706E1,8.593975E1,1.931865E1,2.8781126E1,3.265143E1,3.1101547E1,1.1375675E1,7.1800313E0,2.9185455E1,3.0770609E1,2.4746788E1,2.9519028E1,1.4144226E1,6.503546E1,3.327496E1,1.49678955E1,9.63474E1,1.6896774E1,1.5557663E1,8.035748E1,5.214432E0,2.0644787E1,7.1410866E0,9.73589E0,2.5619217E1,1.6000793E1,6.435251E0,2.6272278E1,1.0709934E1,1.03021965E1,4.164617E0,1.4464407E0,1.1482147E1,3.1044601E1,1.785958E1,1.608493E1,2.4952888E0,1.856556E1,3.449479E1,2.2700195E1,4.512741E0,5.26865E1,3.4503414E1,3.055782E1,1.8224781E1,7.84017E0,9.39624E0,1.6845964E1,0E0,0E0,0E0,0E0,0E0,0E0,0E0,0E0,0E0,0E0,0E0,0E0,0E0,0E0,0E0,0E0,0E0,0E0,0E0,0E0,0E0,0E0,0E0,0E0,0E0,0E0,0E0,0E0,0E0,0E0,0E0,0E0,0E0,0E0,0E0,0E0,0E0,0E0,0E0,0E0,0E0,0E0,0E0,0E0,0E0,0E0,0E0,0E0,0E0,0E0,0E0,0E0,0E0,0E0,0E0,0E0,0E0,0E0,0E0,0E0,0E0,0E0,0E0,0E0],"parents":[2147483647,0,0,1,1,2,2,3,3,4,4,5,5,6,6,7,7,8,8,9,9,10,10,11,11,12,12,13,13,14,14,15,15,16,16,17,17,18,18,19,19,20,20,21,21,22,22,23,23,24,24,25,25,26,26,27,27,28,28,29,29,30,30,31,31,32,32,33,33,34,34,35,35,36,36,37,37,38,38,39,39,40,40,41,41,42,42,43,43,44,44,45,45,46,46,47,47,48,48,49,49,50,50,51,51,52,52,53,53,54,54,55,55,56,56,57,57,58,58,59,59,60,60,61,61,62,62],"right_children":[2,4,6,8,10,12,14,16,18,20,22,24,26,28,30,32,34,36,38,40,42,44,46,48,50,52,54,56,58,60,62,64,66,68,70,72,74,76,78,80,82,84,86,88,90,92,94,96,98,100,102,104,106,108,110,112,114,116,118,120,122,124,126,-1,-1,-1,-1,-1,-1,-1,-1,-1,-1,-1,-1,-1,-1,-1,-1,-1,-1,-1,-1,-1,-1,-1,-1,-1,-1,-1,-1,-1,-1,-1,-1,-1,-1,-1,-1,-1,-1,-1,-1,-1,-1,-1,-1,-1,-1,-1,-1,-1,-1,-1,-1,-1,-1,-1,-1,-1,-1,-1,-1,-1,-1,-1,-1],"split_conditions":[-2.2915083E-1,-4.18285E-1,-5.386667E-1,6.26112E-1,7.4552506E-1,-1.4404026E-1,-3.3669055E-1,7.747017E-2,-1.556471E-1,1.4831413E0,3.0075336E-1,-1.556471E-1,-1.916563E-1,-4.2605573E-1,-3.156177E-1,-1.21682346E-1,-5.4268974E-1,-4.7045967E-1,-3.30895E-1,-8.528076E-1,-2.7670202E-1,-4.2683306E-1,-2.7370632E-1,1.6470905E-1,-2.4608643E-1,-9.200719E-1,-3.2717907E-1,-1.8897949E-2,7.752043E-2,-3.634117E-2,1.2472353E0,-2.5414294E-1,8.9356583E-1,9.431468E-1,7.7519226E-1,-1.6949027E0,-8.8996165E-2,-7.9138523E-1,7.752043E-2,-2.3078625E-1,-2.471722E-1,-9.635749E-2,-3.25725E-1,-9.370808E-1,-3.3995077E-1,1.3558969E-1,-8.9715466E-2,-8.009707E-1,-1.3604125E-1,-1.5378834E-1,3.2542327E-1,-1.5539146E-4,-5.354271E-1,-3.669878E-1,-8.793602E-2,1.5050348E0,-2.215278E-4,-2.3756863E-1,1.1284101E0,-8.8725156E-1,-1.18970886E-1,-1.4449013E0,-1.532065E-1,-5.6947228E-2,2.456901E-2,-1.1058908E-1,5.906539E-2,-1.209413E-1,3.6465365E-2,8.953642E-2,-3.1735037E-2,-3.4117024E-2,-1.22757636E-1,1.4304794E-2,-8.637665E-2,-1.3876348E-2,-1.1615987E-1,3.1086726E-3,1.1996346E-1,-9.9630184E-2,-1.7076822E-2,-1.2259283E-1,-9.205941E-2,2.7076483E-2,-1.0990473E-1,-5.480768E-2,9.908923E-2,1.0524129E-1,-9.2876695E-2,-4.2146705E-2,1.289102E-1,-8.5566655E-2,7.890942E-2,-2.951105E-2,-1.4960988E-1,-1.3176759E-2,-1.1081934E-1,-6.829978E-2,5.174894E-2,3.118935E-2,-1.093815E-1,1.0087808E-1,-1.0793898E-1,-1.3157278E-1,-7.771784E-3,9.2560075E-2,-5.2964795E-2,8.189187E-2,-1.3219443E-1,4.5931693E-2,1.1117051E-1,1.2176045E-1,-1.4403221E-2,-7.7494524E-2,9.65438E-2,-8.988862E-2,1.9816693E-2,7.441512E-2,-1.0055124E-1,-8.181998E-2,1.3947234E-1,1.4922534E-2,-1.3445218E-1,4.9491942E-2,1.1575109E-1,-1.1751421E-2,1.0418041E-1],"split_indices":[64,62,26,55,61,73,66,26,38,60,15,38,63,62,63,15,73,73,63,13,26,26,21,4,63,26,66,15,9,62,55,64,73,4,15,2,53,62,9,7,64,53,63,13,70,12,53,33,63,11,15,38,15,15,64,41,26,63,55,27,13,7,63,0,0,0,0,0,0,0,0,0,0,0,0,0,0,0,0,0,0,0,0,0,0,0,0,0,0,0,0,0,0,0,0,0,0,0,0,0,0,0,0,0,0,0,0,0,0,0,0,0,0,0,0,0,0,0,0,0,0,0,0,0,0,0,0],"split_type":[0,0,0,0,0,0,0,0,0,0,0,0,0,0,0,0,0,0,0,0,0,0,0,0,0,0,0,0,0,0,0,0,0,0,0,0,0,0,0,0,0,0,0,0,0,0,0,0,0,0,0,0,0,0,0,0,0,0,0,0,0,0,0,0,0,0,0,0,0,0,0,0,0,0,0,0,0,0,0,0,0,0,0,0,0,0,0,0,0,0,0,0,0,0,0,0,0,0,0,0,0,0,0,0,0,0,0,0,0,0,0,0,0,0,0,0,0,0,0,0,0,0,0,0,0,0,0],"sum_hessian":[4.47686E3,2.486032E3,1.9908278E3,1.4420078E3,1.0440242E3,6.758109E2,1.3150168E3,1.1173923E3,3.2461548E2,9.8278613E2,6.1238026E1,3.3674542E2,3.390655E2,4.2321024E2,8.918066E2,7.221406E2,3.952517E2,2.6678497E2,5.783049E1,9.072852E2,7.55009E1,4.9110325E1,1.2127703E1,2.642752E2,7.247022E1,5.5036682E1,2.840288E2,1.9160199E2,2.3160825E2,3.625003E1,8.555566E2,5.99891E2,1.2224962E2,3.7747738E1,3.57504E2,1.5453477E2,1.12250206E2,3.0069069E1,2.7761423E1,1.5036697E2,7.569183E2,3.2077835E1,4.3423065E1,9.150366E0,3.9959957E1,4.765141E0,7.3625617E0,1.6025266E2,1.0402256E2,3.5123264E1,3.7346954E1,2.1645098E1,3.3391586E1,2.8385498E1,2.5564333E2,8.464112E1,1.0696087E2,1.1965953E2,1.11948715E2,1.8964705E1,1.7285326E1,8.0537537E2,5.018118E1,2.4257973E2,3.5731125E2,1.16669044E2,5.5805726E0,3.0392916E1,7.3548226E0,2.9081662E2,6.668738E1,7.9194765E0,1.4661531E2,2.6255177E1,8.5995026E1,1.0724089E1,1.9344978E1,1.5383841E1,1.23775835E1,7.441091E1,7.595607E1,4.4093558E2,3.159827E2,3.4828727E0,2.8594963E1,1.8574244E1,2.4848824E1,3.7765422E0,5.373823E0,3.4163136E0,3.6543644E1,1.4280374E0,3.3371036E0,1.8702176E0,5.492344E0,1.3427047E1,1.468256E2,7.4764984E1,2.9257574E1,1.5396244E1,1.972702E1,3.404431E1,3.3026438E0,1.9737192E1,1.9079055E0,1.5090827E1,1.8300758E1,1.5597286E1,1.2788212E1,7.9323685E1,1.7631964E2,8.233985E1,2.3012674E0,2.093702E1,8.602385E1,7.359574E1,4.606379E1,1.0176028E2,1.0188434E1,4.1354685E0,1.4829235E1,4.4621096E0,1.2823216E1,2.4132309E1,7.8124304E2,2.1242561E1,2.8938616E1],"tree_param":{"num_deleted":"0","num_feature":"74","num_nodes":"127","size_leaf_vector":"1"}},{"base_weights":[-2.0570066E-3,-3.7249994E-1,6.2354636E-1,1.4912224E-1,-5.833059E-1,-1.9457277E-2,8.55575E-1,-3.4739652E-1,6.0539603E-1,-5.941438E-2,-7.8556484E-1,-6.398304E-1,5.906556E-1,4.5064837E-1,1.0557193E0,6.298221E-2,-7.715245E-1,7.914038E-1,-4.503191E-1,1.8750827E-1,-8.749224E-1,-9.906653E-1,-4.2964453E-1,-1.0686842E0,-2.847802E-1,-5.589984E-1,7.4177533E-1,8.8330984E-1,1.9708356E-2,-3.8753292E-1,1.0798684E0,-7.497904E-1,3.450534E-1,-9.203881E-2,-9.915014E-1,-5.1279616E-1,8.7236995E-1,-7.36171E-1,4.937204E-1,-3.5812542E-1,6.2463206E-1,-1.122398E0,-4.5694277E-1,-8.231125E-1,-1.1837484E0,-9.0724665E-1,-9.129117E-2,-1.129693E0,3.4738374E-1,-9.052845E-1,2.0078653E-1,-7.655274E-1,9.3202695E-2,-5.1592296E-1,8.753328E-1,1.0220653E0,1.9006027E-1,-5.0678074E-1,4.378828E-1,-8.3505E-1,1.1066494E-1,1.0884103E0,-7.041487E-1,6.559562E-2,-8.694416E-2,6.7304246E-2,-5.1772248E-2,2.0736871E-2,-9.41576E-2,-1.3313468E-1,-7.382771E-2,-9.6256636E-2,4.74777E-2,1.0708057E-1,4.3944035E-2,-9.039061E-2,8.793982E-2,1.377955E-1,-2.8653303E-2,-6.7210525E-2,3.0749822E-2,-9.23151E-2,7.5373776E-2,-1.1831538E-1,8.965394E-2,-1.14957385E-1,-1.0014926E-2,-9.862815E-2,-3.0665997E-2,-1.1942463E-1,1.9238371E-2,1.1232411E-1,-9.426569E-2,3.767215E-2,-4.7790144E-2,-1.1582597E-1,9.1242604E-4,8.546492E-2,-7.350398E-2,-5.336598E-3,-1.1461315E-1,7.309015E-2,-6.0571976E-2,3.0962843E-2,-1.10359214E-1,6.7167506E-2,-1.4574753E-1,4.1656595E-2,1.0650053E-1,1.0925341E-1,-3.207961E-2,-9.876738E-2,8.704952E-2,2.320738E-2,-1.1567366E-1,6.619554E-2,-6.797305E-2,-1.0656861E-1,6.2248927E-2,1.1115327E-1,4.5918286E-2,-1.5621333E-1,7.634778E-2],"categories":[],"categories_nodes":[],"categories_segments":[],"categories_sizes":[],"default_left":[0,0,0,0,0,0,0,0,0,0,0,0,0,0,0,0,0,0,0,0,0,0,0,0,0,0,0,0,0,0,0,0,0,0,0,0,0,0,0,0,0,0,0,0,0,0,0,0,0,0,0,0,0,0,0,0,0,0,0,0,0,0,0,0,0,0,0,0,0,0,0,0,0,0,0,0,0,0,0,0,0,0,0,0,0,0,0,0,0,0,0,0,0,0,0,0,0,0,0,0,0,0,0,0,0,0,0,0,0,0,0,0,0,0,0,0,0,0,0,0,0,0,0],"id":11,"left_children":[1,3,5,7,9,11,13,15,17,19,21,23,25,27,29,31,33,35,37,39,41,43,45,47,49,51,53,55,57,59,61,63,65,67,69,71,73,75,77,79,81,83,85,87,89,91,93,95,97,99,101,103,-1,105,107,109,111,113,115,117,-1,119,121,-1,-1,-1,-1,-1,-1,-1,-1,-1,-1,-1,-1,-1,-1,-1,-1,-1,-1,-1,-1,-1,-1,-1,-1,-1,-1,-1,-1,-1,-1,-1,-1,-1,-1,-1,-1,-1,-1,-1,-1,-1,-1,-1,-1,-1,-1,-1,-1,-1,-1,-1,-1,-1,-1,-1,-1,-1,-1,-1,-1],"loss_changes":[1.0007265E3,2.9831805E2,2.3961957E2,1.7723582E2,2.0464478E2,1.6193048E2,9.516736E1,6.528957E1,8.03911E1,1.0872995E2,1.01306885E2,3.1993034E1,3.7891525E1,7.3092E1,2.7918884E1,4.4145737E1,2.7471878E1,3.7076355E1,1.701094E1,9.912474E1,1.2466789E1,2.760376E1,8.253374E1,8.660934E0,3.5555492E1,8.606312E0,3.2548485E1,1.8624924E1,4.3697483E1,1.00990305E1,1.2596619E1,8.918762E0,4.075673E1,1.1946884E1,1.09965515E1,9.742895E0,2.7619247E1,1.3735548E1,1.0700033E1,3.8885906E1,4.677368E1,1.0644211E1,1.1833783E1,3.982901E1,6.1258545E0,1.629358E1,5.452656E1,3.0032196E0,3.2187028E0,1.0551373E1,2.8952255E1,8.723999E0,0E0,2.2193785E1,1.4619507E1,1.5754822E1,2.7991013E1,4.2469032E1,2.8145033E1,4.4043984E0,0E0,1.0736206E1,6.6153593E0,0E0,0E0,0E0,0E0,0E0,0E0,0E0,0E0,0E0,0E0,0E0,0E0,0E0,0E0,0E0,0E0,0E0,0E0,0E0,0E0,0E0,0E0,0E0,0E0,0E0,0E0,0E0,0E0,0E0,0E0,0E0,0E0,0E0,0E0,0E0,0E0,0E0,0E0,0E0,0E0,0E0,0E0,0E0,0E0,0E0,0E0,0E0,0E0,0E0,0E0,0E0,0E0,0E0,0E0,0E0,0E0,0E0,0E0,0E0,0E0],"parents":[2147483647,0,0,1,1,2,2,3,3,4,4,5,5,6,6,7,7,8,8,9,9,10,10,11,11,12,12,13,13,14,14,15,15,16,16,17,17,18,18,19,19,20,20,21,21,22,22,23,23,24,24,25,25,26,26,27,27,28,28,29,29,30,30,31,31,32,32,33,33,34,34,35,35,36,36,37,37,38,38,39,39,40,40,41,41,42,42,43,43,44,44,45,45,46,46,47,47,48,48,49,49,50,50,51,51,53,53,54,54,55,55,56,56,57,57,58,58,59,59,61,61,62,62],"right_children":[2,4,6,8,10,12,14,16,18,20,22,24,26,28,30,32,34,36,38,40,42,44,46,48,50,52,54,56,58,60,62,64,66,68,70,72,74,76,78,80,82,84,86,88,90,92,94,96,98,100,102,104,-1,106,108,110,112,114,116,118,-1,120,122,-1,-1,-1,-1,-1,-1,-1,-1,-1,-1,-1,-1,-1,-1,-1,-1,-1,-1,-1,-1,-1,-1,-1,-1,-1,-1,-1,-1,-1,-1,-1,-1,-1,-1,-1,-1,-1,-1,-1,-1,-1,-1,-1,-1,-1,-1,-1,-1,-1,-1,-1,-1,-1,-1,-1,-1,-1,-1,-1,-1],"split_conditions":[-2.1643539E-1,-3.2915443E-1,-6.94396E-1,-4.182881E-1,-8.528076E-1,-9.6460454E-2,-3.122718E-1,-3.6279285E-1,6.5668815E-1,1.5193523E-1,-2.4444257E-1,-1.6174117E-1,-1.9537362E-1,-2.9310724E-1,-3.1856197E-1,-5.646202E-1,-7.462568E-1,-8.582036E-1,-3.371019E-1,-4.9341947E-1,-7.5017166E-1,3.327671E-2,-3.6588296E-1,1.4651537E0,-2.0710956E-1,9.356067E-1,-3.2717907E-1,7.541993E-1,-1.17549576E-1,3.8175115E-1,2.8935843E0,-1.1884813E0,4.397755E-1,8.302679E-1,-3.2990292E-1,2.3918584E-1,-1.2883106E-1,-3.2907292E-1,-2.558743E-1,-3.7967682E-1,-2.5582632E-1,1.4291344E0,-5.9232664E-1,2.3108281E-1,9.5074576E-1,-3.773218E-1,-2.5817627E-1,1.0806854E0,6.819005E-1,-2.1311305E-1,5.8803385E-1,-2.6292962E-1,9.3202695E-2,-4.5277154E-1,-8.793602E-2,3.259065E0,8.738467E-1,-1.6865411E-1,7.9055965E-1,7.492273E-1,1.1066494E-1,1.4546443E0,5.548315E-1,6.559562E-2,-8.694416E-2,6.7304246E-2,-5.1772248E-2,2.0736871E-2,-9.41576E-2,-1.3313468E-1,-7.382771E-2,-9.6256636E-2,4.74777E-2,1.0708057E-1,4.3944035E-2,-9.039061E-2,8.793982E-2,1.377955E-1,-2.8653303E-2,-6.7210525E-2,3.0749822E-2,-9.23151E-2,7.5373776E-2,-1.1831538E-1,8.965394E-2,-1.14957385E-1,-1.0014926E-2,-9.862815E-2,-3.0665997E-2,-1.1942463E-1,1.9238371E-2,1.1232411E-1,-9.426569E-2,3.767215E-2,-4.7790144E-2,-1.1582597E-1,9.1242604E-4,8.546492E-2,-7.350398E-2,-5.336598E-3,-1.1461315E-1,7.309015E-2,-6.0571976E-2,3.0962843E-2,-1.10359214E-1,6.7167506E-2,-1.4574753E-1,4.1656595E-2,1.0650053E-1,1.0925341E-1,-3.207961E-2,-9.876738E-2,8.704952E-2,2.320738E-2,-1.1567366E-1,6.619554E-2,-6.797305E-2,-1.0656861E-1,6.2248927E-2,1.1115327E-1,4.5918286E-2,-1.5621333E-1,7.634778E-2],"split_indices":[64,3,26,7,13,73,66,1,55,21,64,22,63,3,63,26,10,26,73,73,40,13,26,44,63,13,66,15,26,12,0,13,55,55,63,12,13,60,11,17,64,45,7,26,73,70,65,14,43,57,65,37,0,15,64,69,26,15,55,24,0,55,45,0,0,0,0,0,0,0,0,0,0,0,0,0,0,0,0,0,0,0,0,0,0,0,0,0,0,0,0,0,0,0,0,0,0,0,0,0,0,0,0,0,0,0,0,0,0,0,0,0,0,0,0,0,0,0,0,0,0,0,0],"split_type":[0,0,0,0,0,0,0,0,0,0,0,0,0,0,0,0,0,0,0,0,0,0,0,0,0,0,0,0,0,0,0,0,0,0,0,0,0,0,0,0,0,0,0,0,0,0,0,0,0,0,0,0,0,0,0,0,0,0,0,0,0,0,0,0,0,0,0,0,0,0,0,0,0,0,0,0,0,0,0,0,0,0,0,0,0,0,0,0,0,0,0,0,0,0,0,0,0,0,0,0,0,0,0,0,0,0,0,0,0,0,0,0,0,0,0,0,0,0,0,0,0,0,0],"sum_hessian":[4.3161206E3,2.7111516E3,1.6049688E3,7.8040234E2,1.9307494E3,4.258258E2,1.179143E3,3.7383374E2,4.0656857E2,5.381433E2,1.3926061E3,2.1111342E2,2.1471239E2,3.9111026E2,7.880327E2,1.9042926E2,1.8340448E2,3.4587823E2,6.0690342E1,4.1366293E2,1.2448038E2,8.8235956E2,5.1024652E2,9.4708305E1,1.1640511E2,2.4631027E1,1.9008136E2,1.946415E2,1.9646877E2,1.2721109E1,7.7531165E2,4.863423E1,1.4179503E2,4.5201176E1,1.3820331E2,1.9905645E1,3.259726E2,4.675368E1,1.3936661E1,1.8407483E2,2.295881E2,7.712893E1,4.735145E1,4.7522977E2,4.071298E2,2.108874E2,2.993591E2,9.099038E1,3.7179294E0,5.0722538E1,6.568257E1,2.2061728E1,2.569299E0,1.7972551E1,1.7210881E2,1.6178546E2,3.2856026E1,8.687708E1,1.0959168E2,1.0128648E1,2.592462E0,7.720052E2,3.306466E0,3.463256E0,4.517098E1,1.0289777E2,3.8897247E1,3.398096E1,1.1220212E1,5.7191128E1,8.101218E1,1.3694215E1,6.211431E0,2.2251036E2,1.03462234E2,4.2755165E1,3.9985147E0,6.173927E0,7.7627335E0,1.2506905E2,5.9005787E1,1.7202744E1,2.1238538E2,7.527757E1,1.8513511E0,1.5343562E1,3.200789E1,3.6044147E2,1.1478828E2,4.0417865E2,2.9511375E0,3.0881267E0,2.0779927E2,1.3543422E2,1.639249E2,8.874712E1,2.243257E0,2.6748307E0,1.0430987E0,1.1448554E1,3.9273987E1,3.968889E1,2.5993683E1,5.297635E0,1.6764093E1,8.074571E0,9.897981E0,5.127781E1,1.2083101E2,1.5389595E2,7.889518E0,1.1866061E1,2.0989964E1,4.0958904E1,4.591818E1,9.162859E1,1.7963093E1,8.977002E0,1.1516452E0,7.4390234E2,2.810282E1,2.0459788E0,1.2604874E0],"tree_param":{"num_deleted":"0","num_feature":"74","num_nodes":"123","size_leaf_vector":"1"}},{"base_weights":[1.8831865E-4,-4.00811E-1,5.2759695E-1,1.6267112E-1,-6.0668516E-1,1.593413E-1,8.1618524E-1,-5.725243E-1,3.2028833E-1,-1.6361725E-1,-7.7957994E-1,7.428589E-1,-1.7997043E-1,2.837627E-1,9.496637E-1,-7.381292E-1,7.5768185E-1,4.6262857E-1,